%YAML:1.0
my_svm: !!opencv-ml-svm
   svm_type: C_SVC
   kernel: { type:RBF, gamma:5.0625000000000009e-001 }
   C: 6.2500000000000000e+001
   term_criteria: { epsilon:1.1920928955078125e-007, iterations:1000 }
   var_all: 3
   var_count: 3
   class_count: 2
   class_labels: !!opencv-matrix
      rows: 1
      cols: 2
      dt: i
      data: [ 0, 1 ]
   sv_total: 169
   support_vectors:
      - [ 3.82983714e-001, 4.02871460e-001, 4.69512194e-001 ]
      - [ 3.84859025e-001, 4.08038050e-001, 4.63414639e-001 ]
      - [ 3.84798944e-001, 4.16991800e-001, 4.81707305e-001 ]
      - [ 3.84964108e-001, 3.98758590e-001, 4.63414639e-001 ]
      - [ 3.62595499e-001, 3.19145739e-001, 3.65853667e-001 ]
      - [ 8.22435075e-004, 2.69633889e-001, 2.50000000e-001 ]
      - [ 4.50081797e-003, 2.69740522e-001, 2.50000000e-001 ]
      - [ 3.83721143e-001, 4.18122202e-001, 4.75609750e-001 ]
      - [ 3.83569330e-001, 4.55463469e-001, 5.00000000e-001 ]
      - [ 3.40045035e-001, 2.65398413e-001, 2.92682916e-001 ]
      - [ 3.86142015e-001, 9.41564381e-001, 9.69512224e-001 ]
      - [ 3.84730548e-001, 4.34318066e-001, 4.93902445e-001 ]
      - [ 3.85407895e-001, 4.12438244e-001, 4.69512194e-001 ]
      - [ 2.83752894e-003, 2.64091730e-001, 2.13414639e-001 ]
      - [ 3.83375764e-001, 4.18869376e-001, 4.75609750e-001 ]
      - [ 3.84583712e-001, 4.23052460e-001, 4.45121944e-001 ]
      - [ 3.83572638e-001, 4.65605080e-001, 5.06097555e-001 ]
      - [ 3.86540771e-001, 9.45479274e-001, 9.45121944e-001 ]
      - [ 3.09702992e-001, 2.00204119e-001, 1.64634153e-001 ]
      - [ 3.83198887e-001, 4.07769829e-001, 4.57317084e-001 ]
      - [ 3.85102600e-001, 9.65781629e-001, 9.63414609e-001 ]
      - [ 0., 2.64075786e-001, 2.13414639e-001 ]
      - [ 3.19084555e-001, 2.17177898e-001, 2.19512194e-001 ]
      - [ 3.83337379e-001, 4.65834945e-001, 5.06097555e-001 ]
      - [ 3.84575337e-001, 6.57427013e-001, 6.64634168e-001 ]
      - [ 3.85024190e-001, 4.08031672e-001, 4.63414639e-001 ]
      - [ 3.84854019e-001, 4.09398347e-001, 4.69512194e-001 ]
      - [ 3.83510917e-001, 4.20708686e-001, 4.75609750e-001 ]
      - [ 3.85261089e-001, 4.34452206e-001, 4.93902445e-001 ]
      - [ 3.84690493e-001, 3.99952888e-001, 4.63414639e-001 ]
      - [ 3.86208743e-001, 9.60742772e-001, 9.87804890e-001 ]
      - [ 3.84381831e-001, 4.39727366e-001, 4.63414639e-001 ]
      - [ 3.84717196e-001, 4.10209417e-001, 4.75609750e-001 ]
      - [ 3.82781804e-001, 4.02877837e-001, 4.69512194e-001 ]
      - [ 3.86448979e-001, 8.58541131e-001, 8.71951222e-001 ]
      - [ 3.23577642e-001, 2.29377165e-001, 2.50000000e-001 ]
      - [ 3.38835418e-001, 2.65543371e-001, 2.92682916e-001 ]
      - [ 3.84493589e-001, 6.43824041e-001, 6.52438998e-001 ]
      - [ 3.21852475e-001, 2.29028493e-001, 2.31707320e-001 ]
      - [ 3.82696688e-001, 3.95916641e-001, 4.63414639e-001 ]
      - [ 3.86148721e-001, 9.64389384e-001, 9.63414609e-001 ]
      - [ 3.83195549e-001, 4.06377584e-001, 4.69512194e-001 ]
      - [ 3.84887367e-001, 9.04127300e-001, 9.08536613e-001 ]
      - [ 3.83767873e-001, 4.55514550e-001, 5.00000000e-001 ]
      - [ 3.85513037e-001, 9.41698551e-001, 9.69512224e-001 ]
      - [ 3.28873247e-001, 2.54523605e-001, 3.04878056e-001 ]
      - [ 3.83434176e-001, 4.19092894e-001, 4.75609750e-001 ]
      - [ 3.84785563e-001, 4.12540466e-001, 4.69512194e-001 ]
      - [ 3.85372877e-001, 4.09474969e-001, 4.69512194e-001 ]
      - [ 3.84453565e-001, 4.23071623e-001, 4.45121944e-001 ]
      - [ 3.40328664e-001, 2.67984897e-001, 3.04878056e-001 ]
      - [ 3.84777278e-001, 4.21136588e-001, 4.75609750e-001 ]
      - [ 3.83455843e-001, 3.99020433e-001, 4.63414639e-001 ]
      - [ 3.82569909e-001, 3.95744205e-001, 4.63414639e-001 ]
      - [ 3.85089248e-001, 4.10273284e-001, 4.75609750e-001 ]
      - [ 3.84825617e-001, 4.47384655e-001, 5.06097555e-001 ]
      - [ 3.84925723e-001, 4.05796438e-001, 4.69512194e-001 ]
      - [ 3.86213750e-001, 9.65877414e-001, 9.81707335e-001 ]
      - [ 3.84912372e-001, 4.17081207e-001, 4.81707305e-001 ]
      - [ 3.83569330e-001, 4.20057237e-001, 4.26829278e-001 ]
      - [ 3.83422494e-001, 3.98899108e-001, 4.63414639e-001 ]
      - [ 3.85181010e-001, 4.05853897e-001, 4.69512194e-001 ]
      - [ 3.30159605e-001, 2.54389524e-001, 3.04878056e-001 ]
      - [ 3.83777887e-001, 4.18230742e-001, 4.75609750e-001 ]
      - [ 3.85769963e-001, 9.45511222e-001, 9.45121944e-001 ]
      - [ 3.83520931e-001, 4.06511724e-001, 4.69512194e-001 ]
      - [ 3.83580983e-001, 4.53413397e-001, 4.93902445e-001 ]
      - [ 3.85059208e-001, 9.64465976e-001, 9.63414609e-001 ]
      - [ 3.85209352e-001, 4.21232373e-001, 4.75609750e-001 ]
      - [ 3.86195421e-001, 9.04088974e-001, 9.08536613e-001 ]
      - [ 3.85007501e-001, 9.60991859e-001, 9.87804890e-001 ]
      - [ 3.83200556e-001, 4.07603770e-001, 4.69512194e-001 ]
      - [ 3.61958176e-001, 3.19203168e-001, 3.59756112e-001 ]
      - [ 3.85963500e-001, 8.69998395e-001, 8.84146333e-001 ]
      - [ 3.85102600e-001, 3.98931026e-001, 4.63414639e-001 ]
      - [ 7.68594793e-004, 2.62055784e-001, 2.43902445e-001 ]
      - [ 3.40148479e-001, 2.68018126e-001, 3.04878056e-001 ]
      - [ 3.84141594e-001, 6.57350421e-001, 6.64634168e-001 ]
      - [ 3.09417695e-001, 2.00397611e-001, 1.64634153e-001 ]
      - [ 3.84026468e-001, 4.53228205e-001, 4.93902445e-001 ]
      - [ 3.84128213e-001, 4.39663470e-001, 4.63414639e-001 ]
      - [ 3.19958836e-001, 2.17172146e-001, 2.19512194e-001 ]
      - [ 4.31070058e-003, 2.62122184e-001, 2.43902445e-001 ]
      - [ 3.75774384e-001, 4.47799772e-001, 4.39024389e-001 ]
      - [ 4.22216773e-001, 9.97106969e-001, 9.87804890e-001 ]
      - [ 3.82941991e-001, 2.86175907e-001, 3.71951222e-001 ]
      - [ 3.58401090e-001, 4.83282626e-001, 4.51219499e-001 ]
      - [ 4.01623368e-001, 3.10396343e-001, 3.78048778e-001 ]
      - [ 4.07866627e-001, 5.47382891e-001, 5.06097555e-001 ]
      - [ 3.54620427e-001, 2.32849464e-001, 3.17073166e-001 ]
      - [ 3.31370860e-001, 3.33368242e-001, 3.53658527e-001 ]
      - [ 4.22677249e-001, 1., 1. ]
      - [ 4.05627608e-001, 5.02377927e-001, 6.09756112e-001 ]
      - [ 2.62314647e-001, 3.11929077e-001, 3.23170722e-001 ]
      - [ 4.80428189e-001, 6.96179748e-001, 8.17073166e-001 ]
      - [ 3.46395075e-001, 3.36357087e-001, 3.65853667e-001 ]
      - [ 1.95562527e-001, 2.28253186e-001, 2.92682916e-001 ]
      - [ 4.12748456e-001, 4.02839512e-001, 4.39024389e-001 ]
      - [ 4.81529385e-001, 7.12235093e-001, 8.23170722e-001 ]
      - [ 2.49744713e-001, 3.16329330e-001, 3.29268306e-001 ]
      - [ 4.05517459e-001, 3.17165911e-001, 3.84146333e-001 ]
      - [ 4.04244483e-001, 4.25389886e-001, 5.18292665e-001 ]
      - [ 3.66522968e-001, 2.75264114e-001, 3.53658527e-001 ]
      - [ 5.03831267e-001, 5.75476706e-001, 6.82926834e-001 ]
      - [ 2.28372157e-001, 2.55355150e-001, 2.68292695e-001 ]
      - [ 4.33378547e-001, 9.89615679e-001, 9.87804890e-001 ]
      - [ 2.49621257e-001, 3.06136608e-001, 3.17073166e-001 ]
      - [ 4.42216188e-001, 9.57773089e-001, 9.75609779e-001 ]
      - [ 2.25912899e-001, 2.51002789e-001, 3.17073166e-001 ]
      - [ 4.03660506e-001, 4.88960117e-001, 4.63414639e-001 ]
      - [ 3.04811150e-001, 2.98670292e-001, 3.23170722e-001 ]
      - [ 2.65160978e-001, 3.17523569e-001, 3.29268306e-001 ]
      - [ 3.90418202e-001, 3.03628057e-001, 3.65853667e-001 ]
      - [ 4.28403318e-001, 4.15190786e-001, 4.51219499e-001 ]
      - [ 3.84940773e-001, 4.17847544e-001, 4.45121944e-001 ]
      - [ 3.84431899e-001, 4.95966017e-001, 4.63414639e-001 ]
      - [ 4.37663078e-001, 8.03394616e-001, 8.41463387e-001 ]
      - [ 4.11340296e-001, 3.13148886e-001, 3.84146333e-001 ]
      - [ 2.25105360e-001, 2.60385692e-001, 2.56097555e-001 ]
      - [ 3.45931262e-001, 3.66366774e-001, 3.78048778e-001 ]
      - [ 4.55315024e-001, 8.06396246e-001, 8.29268277e-001 ]
      - [ 2.12418646e-001, 2.39161164e-001, 3.04878056e-001 ]
      - [ 3.63718331e-001, 4.40353215e-001, 4.26829278e-001 ]
      - [ 2.78675258e-001, 3.25557679e-001, 3.41463417e-001 ]
      - [ 2.38728076e-001, 3.00345451e-001, 3.23170722e-001 ]
      - [ 3.67085248e-001, 5.72264373e-001, 5.67073166e-001 ]
      - [ 4.17133063e-001, 3.27856779e-001, 3.96341473e-001 ]
      - [ 4.72174495e-001, 7.13116407e-001, 8.35365832e-001 ]
      - [ 3.65536958e-001, 2.69038647e-001, 3.53658527e-001 ]
      - [ 4.34202760e-001, 9.62971628e-001, 9.63414609e-001 ]
      - [ 2.20515519e-001, 2.49893486e-001, 2.62195110e-001 ]
      - [ 2.18314871e-001, 2.86207229e-001, 3.04878056e-001 ]
      - [ 2.21501559e-001, 2.96092719e-001, 3.17073166e-001 ]
      - [ 3.66169274e-001, 3.76636118e-001, 3.90243888e-001 ]
      - [ 4.45276111e-001, 9.02965009e-001, 9.39024389e-001 ]
      - [ 3.94671023e-001, 5.35849035e-001, 5.36585391e-001 ]
      - [ 3.43393564e-001, 3.32448602e-001, 3.59756112e-001 ]
      - [ 3.58971655e-001, 5.81939757e-001, 5.73170722e-001 ]
      - [ 2.84284502e-001, 4.20069993e-001, 3.71951222e-001 ]
      - [ 2.52160579e-001, 3.01942050e-001, 3.29268306e-001 ]
      - [ 2.35538051e-001, 2.92240441e-001, 3.10975611e-001 ]
      - [ 3.79306495e-001, 4.56549168e-001, 4.26829278e-001 ]
      - [ 4.32898045e-001, 9.58788514e-001, 9.81707335e-001 ]
      - [ 3.61002177e-001, 2.65104651e-001, 3.47560972e-001 ]
      - [ 2.40665123e-001, 3.06130886e-001, 3.29268306e-001 ]
      - [ 4.35068667e-001, 9.60327625e-001, 9.63414609e-001 ]
      - [ 4.38795924e-001, 9.69032347e-001, 9.75609779e-001 ]
      - [ 2.29571745e-001, 2.82024771e-001, 3.04878056e-001 ]
      - [ 2.36190408e-001, 2.73629874e-001, 2.86585361e-001 ]
      - [ 1.83357969e-001, 2.33196914e-001, 2.92682916e-001 ]
      - [ 4.20002759e-001, 9.87150490e-001, 9.81707335e-001 ]
      - [ 3.94671023e-001, 5.35849035e-001, 5.36585391e-001 ]
      - [ 2.88951099e-001, 3.94645780e-001, 4.32926834e-001 ]
      - [ 3.47187579e-001, 3.74196500e-001, 3.78048778e-001 ]
      - [ 4.15784985e-001, 3.21968496e-001, 3.90243888e-001 ]
      - [ 3.26667577e-001, 3.23890805e-001, 3.41463417e-001 ]
      - [ 5.26456833e-001, 5.69518209e-001, 7.01219499e-001 ]
      - [ 4.67879951e-001, 2.73154080e-001, 3.65853667e-001 ]
      - [ 3.62261802e-001, 3.80710632e-001, 3.90243888e-001 ]
      - [ 3.77025723e-001, 4.43112135e-001, 4.32926834e-001 ]
      - [ 3.67085248e-001, 5.72264373e-001, 5.67073166e-001 ]
      - [ 2.82744557e-001, 3.19311798e-001, 3.35365862e-001 ]
      - [ 3.94671023e-001, 5.35849035e-001, 5.36585391e-001 ]
      - [ 4.07412827e-001, 4.91680712e-001, 4.69512194e-001 ]
      - [ 4.37663078e-001, 8.03394616e-001, 8.41463387e-001 ]
      - [ 4.55315024e-001, 8.06396246e-001, 8.29268277e-001 ]
      - [ 3.39155734e-001, 3.69355619e-001, 3.78048778e-001 ]
      - [ 2.44102076e-001, 3.07189107e-001, 3.17073166e-001 ]
      - [ 3.62034917e-001, 2.69387960e-001, 3.53658527e-001 ]
   decision_functions:
      -
         sv_count: 169
         rho: -3.7434332722211600e-001
         alpha: [ 6.2500000000000000e+001, 6.2500000000000000e+001,
             6.2500000000000000e+001, 6.2500000000000000e+001,
             6.2500000000000000e+001, 1.3774688912009996e+001,
             6.2500000000000000e+001, 6.2500000000000000e+001,
             6.2500000000000000e+001, 6.2500000000000000e+001,
             6.2500000000000000e+001, 6.2500000000000000e+001,
             6.2500000000000000e+001, 6.2500000000000000e+001,
             6.2500000000000000e+001, 6.2500000000000000e+001,
             6.2500000000000000e+001, 6.2500000000000000e+001,
             6.2500000000000000e+001, 6.2500000000000000e+001,
             6.2500000000000000e+001, 6.2500000000000000e+001,
             6.2500000000000000e+001, 6.2500000000000000e+001,
             6.2500000000000000e+001, 6.2500000000000000e+001,
             6.2500000000000000e+001, 6.2500000000000000e+001,
             6.2500000000000000e+001, 6.2500000000000000e+001,
             6.2500000000000000e+001, 6.2500000000000000e+001,
             6.2500000000000000e+001, 6.2500000000000000e+001,
             4.0927683519442567e+001, 6.2500000000000000e+001,
             6.2500000000000000e+001, 5.0948708306381427e+001,
             6.2500000000000000e+001, 6.2500000000000000e+001,
             6.2500000000000000e+001, 6.2500000000000000e+001,
             6.2500000000000000e+001, 6.2500000000000000e+001,
             5.7401309657364912e+001, 6.2500000000000000e+001,
             6.2500000000000000e+001, 6.2500000000000000e+001,
             6.2500000000000000e+001, 6.2500000000000000e+001,
             6.2500000000000000e+001, 6.2500000000000000e+001,
             6.2500000000000000e+001, 6.2500000000000000e+001,
             6.2500000000000000e+001, 4.0029845039313102e+001,
             6.2500000000000000e+001, 6.2500000000000000e+001,
             6.2500000000000000e+001, 6.2500000000000000e+001,
             6.2500000000000000e+001, 6.2500000000000000e+001,
             6.2500000000000000e+001, 6.2500000000000000e+001,
             6.2500000000000000e+001, 6.2500000000000000e+001,
             6.2500000000000000e+001, 6.2500000000000000e+001,
             6.2500000000000000e+001, 6.2500000000000000e+001,
             6.2500000000000000e+001, 6.2500000000000000e+001,
             6.2500000000000000e+001, 3.3375444995369868e+001,
             6.2500000000000000e+001, 6.2500000000000000e+001,
             6.2500000000000000e+001, 8.6051563407356539e+000,
             6.2500000000000000e+001, 6.2500000000000000e+001,
             6.2500000000000000e+001, 6.2500000000000000e+001,
             6.2500000000000000e+001, -6.2500000000000000e+001,
             -6.2500000000000000e+001, -6.2500000000000000e+001,
             -6.2500000000000000e+001, -6.2500000000000000e+001,
             -6.2500000000000000e+001, -1.5023438661563929e+001,
             -6.2500000000000000e+001, -6.2500000000000000e+001,
             -6.2500000000000000e+001, -6.2500000000000000e+001,
             -6.2500000000000000e+001, -6.2500000000000000e+001,
             -6.2500000000000000e+001, -6.2500000000000000e+001,
             -6.2500000000000000e+001, -6.2500000000000000e+001,
             -6.2500000000000000e+001, -6.2500000000000000e+001,
             -6.2500000000000000e+001, -6.2500000000000000e+001,
             -2.2848257443243607e+001, -4.8492449760786670e+001,
             -6.2500000000000000e+001, -6.2500000000000000e+001,
             -6.2500000000000000e+001, -5.0627917916246716e+001,
             -6.2500000000000000e+001, -6.2500000000000000e+001,
             -1.3581976868715360e+000, -6.2500000000000000e+001,
             -6.2500000000000000e+001, -6.2500000000000000e+001,
             -6.2500000000000000e+001, -6.2500000000000000e+001,
             -1.5523644431004024e+001, -6.2500000000000000e+001,
             -6.2500000000000000e+001, -6.2500000000000000e+001,
             -6.2500000000000000e+001, -6.2500000000000000e+001,
             -6.2500000000000000e+001, -6.2500000000000000e+001,
             -6.2500000000000000e+001, -6.2500000000000000e+001,
             -6.2500000000000000e+001, -6.2500000000000000e+001,
             -1.3386482419779870e+001, -6.2500000000000000e+001,
             -6.2500000000000000e+001, -6.2500000000000000e+001,
             -6.2500000000000000e+001, -6.2500000000000000e+001,
             -6.2500000000000000e+001, -6.2500000000000000e+001,
             -6.2500000000000000e+001, -6.2500000000000000e+001,
             -6.2500000000000000e+001, -6.2500000000000000e+001,
             -6.2500000000000000e+001, -6.2500000000000000e+001,
             -6.2500000000000000e+001, -6.2500000000000000e+001,
             -3.1227269222085425e+000, -6.2500000000000000e+001,
             -6.2500000000000000e+001, -6.2500000000000000e+001,
             -6.2500000000000000e+001, -6.2500000000000000e+001,
             -6.2500000000000000e+001, -6.2500000000000000e+001,
             -6.2500000000000000e+001, -5.1548391119324094e+001,
             -6.2500000000000000e+001, -2.3131330409588539e+001,
             -6.2500000000000000e+001, -6.2500000000000000e+001,
             -6.2500000000000000e+001, -6.2500000000000000e+001,
             -6.2500000000000000e+001, -6.2500000000000000e+001,
             -6.2500000000000000e+001, -6.2500000000000000e+001,
             -6.2500000000000000e+001, -6.2500000000000000e+001,
             -6.2500000000000000e+001 ]
         index: [ 0, 1, 2, 3, 4, 5, 6, 7, 8, 9, 10, 11, 12, 13, 14, 15,
             16, 17, 18, 19, 20, 21, 22, 23, 24, 25, 26, 27, 28, 29, 30,
             31, 32, 33, 34, 35, 36, 37, 38, 39, 40, 41, 42, 43, 44, 45,
             46, 47, 48, 49, 50, 51, 52, 53, 54, 55, 56, 57, 58, 59, 60,
             61, 62, 63, 64, 65, 66, 67, 68, 69, 70, 71, 72, 73, 74, 75,
             76, 77, 78, 79, 80, 81, 82, 83, 84, 85, 86, 87, 88, 89, 90,
             91, 92, 93, 94, 95, 96, 97, 98, 99, 100, 101, 102, 103, 104,
             105, 106, 107, 108, 109, 110, 111, 112, 113, 114, 115, 116,
             117, 118, 119, 120, 121, 122, 123, 124, 125, 126, 127, 128,
             129, 130, 131, 132, 133, 134, 135, 136, 137, 138, 139, 140,
             141, 142, 143, 144, 145, 146, 147, 148, 149, 150, 151, 152,
             153, 154, 155, 156, 157, 158, 159, 160, 161, 162, 163, 164,
             165, 166, 167, 168 ]
