%YAML:1.0
my_svm: !!opencv-ml-svm
   svm_type: C_SVC
   kernel: { type:RBF, gamma:5.0625000000000009e-001 }
   C: 1.2500000000000000e+001
   term_criteria: { epsilon:1.1920928955078125e-007, iterations:1000 }
   var_all: 20
   var_count: 20
   class_count: 2
   class_labels: !!opencv-matrix
      rows: 1
      cols: 2
      dt: i
      data: [ 0, 1 ]
   sv_total: 473
   support_vectors:
      - [ 5.97824007e-002, 1.38184978e-002, 2.19642231e-003,
          2.00953847e-003, 1.87411672e-004, 2.44606465e-001,
          2.06603721e-001, 2.15527460e-001, 2.71615714e-001,
          1.40663311e-001, 2.75319397e-001, 4.33382064e-001,
          1.78715438e-001, 2.89321691e-003, 1.38142635e-003,
          8.77633574e-005, 4.90677280e-007, 1.65916120e-007,
          1.43857393e-003, 3.56719526e-003 ]
      - [ 3.07735279e-002, 1.23909032e-002, 1.10580085e-003,
          3.04078305e-004, 8.32512742e-005, 2.44606301e-001,
          2.06581101e-001, 2.15527594e-001, 1.93202466e-001,
          6.70354888e-002, 1.43893108e-001, 2.66868055e-001,
          9.99309942e-002, 9.22223786e-004, 3.60210252e-004,
          1.12994064e-006, 4.54658355e-009, 1.65913278e-007,
          1.43855799e-003, 3.56719480e-003 ]
      - [ 3.85875143e-002, 7.80296847e-002, 1.31766144e-002,
          2.52705123e-002, 2.94890385e-002, 2.45753333e-001,
          2.13885769e-001, 2.15743497e-001, 2.21995860e-001,
          2.13971034e-001, 1.48182437e-001, 2.53677428e-001,
          1.10072412e-001, 1.32858381e-003, 5.65255352e-004,
          3.36734411e-005, 4.03337452e-008, 1.65913306e-007,
          1.43855833e-003, 3.56719480e-003 ]
      - [ 2.36070026e-002, 4.02670018e-002, 7.22882804e-003,
          3.91782494e-003, 2.65767128e-004, 2.44606569e-001,
          2.06620783e-001, 2.15527117e-001, 2.10409090e-001,
          6.68231398e-002, 6.89069927e-002, 1.37045756e-001,
          4.84471917e-002, 1.86638453e-003, 9.29666916e-004,
          4.59536551e-007, 7.25504767e-009, 1.65913278e-007,
          1.43855799e-003, 3.56719480e-003 ]
      - [ 8.64108950e-002, 9.34564173e-002, 1.41750081e-002,
          5.04724048e-002, 3.57773863e-002, 2.46766508e-001,
          2.15508148e-001, 2.15040848e-001, 3.86938035e-001,
          3.82432073e-001, 3.04850966e-001, 4.60680425e-001,
          1.91972941e-001, 8.54092184e-004, 4.05651022e-004,
          2.46372456e-005, 3.45591964e-008, 1.65913306e-007,
          1.43855845e-003, 3.56719480e-003 ]
      - [ 7.17922002e-002, 6.38981462e-002, 1.16378041e-002,
          5.63708413e-003, 5.71442861e-003, 2.44652063e-001,
          2.07914725e-001, 2.15513840e-001, 3.58797491e-001,
          2.97696054e-001, 2.14713320e-001, 3.06628436e-001,
          1.66350991e-001, 8.66268110e-003, 3.55255976e-003,
          2.43441507e-004, 2.01020862e-006, 1.65948748e-007,
          1.43866974e-003, 3.56718712e-003 ]
      - [ 4.02569547e-002, 6.83374777e-002, 7.89044239e-003,
          3.55981872e-003, 4.23718337e-003, 2.44599327e-001,
          2.07359388e-001, 2.15490609e-001, 2.37975195e-001,
          2.51862466e-001, 6.63457364e-002, 1.14204794e-001,
          3.91495526e-002, 6.02980750e-003, 1.23418387e-004,
          2.98932428e-004, 1.04028084e-006, 1.65896253e-007,
          1.43855636e-003, 3.56719294e-003 ]
      - [ 2.47114990e-002, 1.18559785e-002, 1.78516711e-004,
          6.69740257e-005, 4.15059694e-005, 2.44606316e-001,
          2.06584916e-001, 2.15527579e-001, 1.96297511e-001,
          5.41208126e-002, 1.28371283e-001, 2.42641807e-001,
          9.66438204e-002, 1.64980663e-003, 4.83926888e-005,
          1.60170366e-005, 2.57506763e-008, 1.65913264e-007,
          1.43855810e-003, 3.56719480e-003 ]
      - [ 1.02775201e-001, 8.40067193e-002, 1.17920106e-002,
          2.45625824e-002, 2.87191700e-002, 2.45700240e-001,
          2.13312477e-001, 2.15511054e-001, 3.75842959e-001,
          4.03428286e-001, 2.36190826e-001, 3.86732817e-001,
          1.62723526e-001, 3.62565857e-003, 1.40646566e-003,
          1.41976498e-005, 1.19559061e-007, 1.65913193e-007,
          1.43856241e-003, 3.56719480e-003 ]
      - [ 2.31499709e-002, 2.46048301e-001, 8.96874592e-002,
          1.89170390e-001, 2.93971539e-001, 3.44000190e-001,
          3.96384507e-001, 2.19545484e-001, 1.31152883e-001,
          3.50980520e-001, 3.28334272e-002, 3.42614390e-002,
          2.52030976e-002, 1.41132798e-003, 7.43825163e-004,
          6.77926982e-006, 3.00031644e-008, 1.65913264e-007,
          1.43855729e-003, 3.56719480e-003 ]
      - [ 7.08844885e-002, 1.09010406e-001, 2.08286606e-002,
          5.14622852e-002, 5.21475635e-002, 2.48393863e-001,
          2.22816885e-001, 2.14189589e-001, 3.05264443e-001,
          3.67162675e-001, 1.97123989e-001, 3.33967924e-001,
          1.36532068e-001, 2.77885445e-003, 9.74368246e-004,
          2.51591391e-005, 1.34160976e-008, 1.65913264e-007,
          1.43855810e-003, 3.56719480e-003 ]
      - [ 6.09821118e-002, 1.44342594e-002, 1.60433585e-003,
          6.20660896e-004, 1.77246067e-004, 2.44606376e-001,
          2.06599861e-001, 2.15527505e-001, 2.86099166e-001,
          1.38688877e-001, 2.75843978e-001, 4.21300352e-001,
          1.80297449e-001, 2.93701841e-003, 1.34065072e-003,
          9.30462629e-005, 5.86445594e-007, 1.65917442e-007,
          1.43857836e-003, 3.56719503e-003 ]
      - [ 6.07282035e-002, 1.27908096e-001, 1.63396206e-002,
          5.28155360e-004, 9.94448201e-004, 2.44607329e-001,
          2.06844941e-001, 2.15527236e-001, 2.90045470e-001,
          4.10780966e-001, 1.66604951e-001, 2.85512000e-001,
          1.22554936e-001, 1.27749424e-003, 3.30526353e-004,
          2.08737110e-005, 6.51140084e-008, 1.65913193e-007,
          1.43855670e-003, 3.56719480e-003 ]
      - [ 8.06662515e-002, 4.69216928e-002, 9.38312430e-003,
          2.80144415e-003, 3.96616291e-003, 2.44625241e-001,
          2.07379416e-001, 2.15529323e-001, 2.58239686e-001,
          3.46768588e-001, 2.22335368e-001, 3.13840479e-001,
          1.69157013e-001, 8.20762478e-003, 3.40420404e-003,
          2.15604901e-004, 1.60626212e-006, 1.65935376e-007,
          1.43864378e-003, 3.56718898e-003 ]
      - [ 9.20603275e-002, 1.00403503e-001, 1.69221386e-002,
          4.20700610e-002, 4.91619036e-002, 2.47789189e-001,
          2.20172763e-001, 2.14889258e-001, 3.77698332e-001,
          3.40734363e-001, 3.02598298e-001, 4.68429267e-001,
          1.85225680e-001, 1.20936264e-003, 4.59289353e-004,
          3.75542986e-005, 7.87708956e-008, 1.65913406e-007,
          1.43855950e-003, 3.56719480e-003 ]
      - [ 7.80827478e-002, 7.63372108e-002, 1.47068826e-002,
          5.97170740e-003, 3.73936549e-004, 2.44606853e-001,
          2.06649408e-001, 2.15528548e-001, 2.39309922e-001,
          3.73108149e-001, 2.81491071e-001, 4.00653273e-001,
          1.95389822e-001, 1.59139256e-003, 9.83746839e-004,
          4.52603263e-006, 1.24692505e-008, 1.65913278e-007,
          1.43855799e-003, 3.56719480e-003 ]
      - [ 6.04425594e-002, 7.04651326e-002, 1.39891347e-002,
          1.09367901e-002, 1.27551202e-002, 2.44821504e-001,
          2.09839076e-001, 2.15559557e-001, 2.50413209e-001,
          3.59306127e-001, 8.26698765e-002, 1.71631500e-001,
          6.65050596e-002, 4.73284209e-003, 1.67852419e-003,
          2.41044563e-005, 7.33716149e-007, 1.65916347e-007,
          1.43858325e-003, 3.56719480e-003 ]
      - [ 2.61714626e-002, 2.46519595e-001, 8.67927000e-002,
          5.42896101e-003, 1.15366150e-002, 2.44731262e-001,
          2.13832527e-001, 2.15591848e-001, 1.37967348e-001,
          4.62753296e-001, 4.56396975e-002, 2.28409600e-002,
          6.23936467e-002, 9.78201162e-003, 5.52007463e-003,
          1.91236195e-005, 8.30410443e-007, 1.65915566e-007,
          1.43860572e-003, 3.56719410e-003 ]
      - [ 1.88970286e-002, 1.38130069e-001, 3.90112512e-002,
          6.13565072e-002, 8.45442340e-002, 2.53319710e-001,
          2.42560789e-001, 2.14565858e-001, 1.57618597e-001,
          2.26121902e-001, 4.14738022e-002, 1.14204800e-002,
          5.77448271e-002, 9.07147117e-003, 5.19484095e-003,
          2.67414634e-005, 7.80374194e-007, 1.65915793e-007,
          1.43860234e-003, 3.56719410e-003 ]
      - [ 3.99078317e-002, 1.35450242e-002, 1.18839392e-003,
          1.03006978e-003, 7.75688204e-006, 2.44606316e-001,
          2.06585407e-001, 2.15527579e-001, 1.81686774e-001,
          1.36178806e-001, 1.52008891e-001, 2.73827672e-001,
          1.08187765e-001, 1.32615445e-003, 4.98431909e-004,
          5.07973164e-005, 5.93226908e-008, 1.65913320e-007,
          1.43855833e-003, 3.56719480e-003 ]
      - [ 2.46734116e-002, 2.55730212e-001, 9.62596610e-002,
          2.02612594e-001, 3.16178530e-001, 3.59379530e-001,
          4.18144405e-001, 2.16184586e-001, 1.42738849e-001,
          3.23024660e-001, 3.61352824e-002, 1.14204800e-002,
          4.84471917e-002, 8.79404973e-003, 4.78171278e-003,
          6.37818739e-005, 1.82878341e-006, 1.65927418e-007,
          1.43865077e-003, 3.56719084e-003 ]
      - [ 6.41686469e-002, 1.37134194e-001, 3.27336378e-002,
          6.28688112e-002, 9.10813957e-002, 2.54474550e-001,
          2.42070720e-001, 2.16469213e-001, 2.73483455e-001,
          3.73662770e-001, 8.01703408e-002, 1.75411686e-001,
          5.98153956e-002, 6.72816532e-003, 2.18284130e-003,
          1.31339737e-004, 2.95527798e-006, 1.65945465e-007,
          1.43858732e-003, 3.56720854e-003 ]
      - [ 2.76568197e-002, 2.65732050e-001, 9.61352661e-002,
          2.49834582e-001, 4.12263721e-001, 4.34363544e-001,
          4.82208669e-001, 2.15435222e-001, 1.71657026e-001,
          3.48457783e-001, 6.39079213e-002, 1.25625283e-001,
          4.37983721e-002, 3.00272065e-003, 1.10852881e-003,
          6.44875399e-006, 8.00400031e-008, 1.65913235e-007,
          1.43855601e-003, 3.56719480e-003 ]
      - [ 3.24747041e-002, 1.76223010e-001, 2.96983942e-002,
          1.02584153e-001, 9.98102501e-002, 2.54861981e-001,
          2.41269872e-001, 1.98753238e-001, 3.54537219e-001,
          2.34694704e-001, 6.81972504e-002, 1.13433905e-001,
          5.71972057e-002, 2.05616676e-003, 9.86748841e-004,
          2.85231067e-006, 1.56641882e-008, 1.65913264e-007,
          1.43855764e-003, 3.56719480e-003 ]
      - [ 5.00260256e-002, 2.45805588e-002, 2.66230246e-003,
          1.74906629e-003, 2.39119181e-004, 2.44606495e-001,
          2.06582427e-001, 2.15527788e-001, 2.44863659e-001,
          1.83688909e-001, 1.86354384e-001, 3.07655215e-001,
          1.36441424e-001, 2.82998034e-003, 1.36514811e-003,
          1.35285818e-005, 3.21234173e-009, 1.65913278e-007,
          1.43855787e-003, 3.56719480e-003 ]
      - [ 1.05650701e-001, 1.41542569e-001, 3.76369022e-002,
          1.61137301e-002, 7.20693916e-003, 2.44698688e-001,
          2.07986146e-001, 2.15629652e-001, 3.20537210e-001,
          4.69887286e-001, 1.29019320e-001, 2.16691032e-001,
          1.11371733e-001, 2.01334059e-002, 6.08976325e-003,
          5.51829115e-004, 3.83417137e-006, 1.65861920e-007,
          1.43848499e-003, 3.56724276e-003 ]
      - [ 5.77892326e-002, 1.15329705e-001, 2.52361912e-002,
          6.54945895e-003, 6.63767743e-004, 2.44607359e-001,
          2.06623405e-001, 2.15530336e-001, 2.81735539e-001,
          3.38696539e-001, 1.74072698e-001, 2.83018917e-001,
          1.26228899e-001, 1.22883392e-003, 5.57691266e-004,
          4.51664573e-006, 1.74252904e-010, 1.65913278e-007,
          1.43855787e-003, 3.56719480e-003 ]
      - [ 9.93411150e-003, 4.60617021e-002, 6.99979672e-003,
          3.96604696e-003, 1.06534595e-003, 2.44603381e-001,
          2.06514046e-001, 2.15529427e-001, 1.42363653e-001,
          6.93902224e-002, 3.35123129e-002, 4.11993600e-002,
          3.41715924e-002, 3.89818475e-003, 2.26805895e-003,
          1.84163036e-005, 1.66645805e-007, 1.65913505e-007,
          1.43856439e-003, 3.56719480e-003 ]
      - [ 3.40933613e-002, 1.36499545e-002, 4.30772809e-004,
          5.75868122e-004, 6.60129444e-005, 2.44606331e-001,
          2.06583992e-001, 2.15527594e-001, 1.95070252e-001,
          9.75584388e-002, 1.54261559e-001, 2.58886307e-001,
          1.19174302e-001, 1.03905180e-003, 2.34882886e-004,
          5.71683813e-006, 1.86925284e-008, 1.65913264e-007,
          1.43855764e-003, 3.56719480e-003 ]
      - [ 6.28483295e-002, 1.58217996e-001, 2.36510076e-002,
          4.10079025e-002, 6.51118606e-002, 2.48251379e-001,
          2.27767467e-001, 2.10342228e-001, 4.07710731e-001,
          3.36386144e-001, 8.06949362e-002, 1.55159757e-001,
          6.82093129e-002, 6.81333849e-003, 2.39640704e-005,
          2.68236618e-004, 4.58902559e-006, 1.65863725e-007,
          1.43855298e-003, 3.56723834e-003 ]
      - [ 6.05441220e-002, 1.23547902e-002, 1.75406609e-003,
          4.53923858e-004, 2.00925599e-004, 2.44606405e-001,
          2.06602380e-001, 2.15527579e-001, 2.35685959e-001,
          1.45845011e-001, 2.78868109e-001, 4.21300352e-001,
          1.82376415e-001, 2.82265595e-003, 1.29304151e-003,
          8.96134370e-005, 5.44987472e-007, 1.65916688e-007,
          1.43857533e-003, 3.56719526e-003 ]
      - [ 3.10147386e-002, 3.04217003e-002, 4.36536549e-003,
          5.40658273e-003, 1.47046841e-004, 2.44606495e-001,
          2.06602156e-001, 2.15527490e-001, 1.92780986e-001,
          1.15106538e-001, 7.53872767e-002, 1.18667923e-001,
          4.43631932e-002, 5.42148203e-003, 1.64526307e-006,
          2.82979978e-004, 1.96064548e-006, 1.65867220e-007,
          1.43855938e-003, 3.56719573e-003 ]
      - [ 1.58501435e-002, 2.34591160e-002, 5.07030217e-003,
          1.60102244e-003, 2.44905474e-004, 2.44606525e-001,
          2.06619978e-001, 2.15527639e-001, 1.74082637e-001,
          6.34637550e-002, 3.75547744e-002, 1.14204800e-002,
          4.84471917e-002, 8.80866218e-003, 4.91173984e-003,
          4.58006980e-005, 1.38400594e-006, 1.65920710e-007,
          1.43862108e-003, 3.56719247e-003 ]
      - [ 4.18057851e-002, 1.40455514e-001, 3.11829057e-002,
          6.66939318e-002, 1.03365369e-001, 2.56908268e-001,
          2.45954171e-001, 2.16204688e-001, 2.03111574e-001,
          3.39102209e-001, 7.70227760e-002, 1.31173357e-001,
          4.94378358e-002, 4.65495652e-003, 4.68838152e-006,
          2.20169110e-004, 1.19715264e-006, 1.65894875e-007,
          1.43856055e-003, 3.56719666e-003 ]
      - [ 7.31061697e-002, 7.82722235e-002, 8.44274089e-003,
          2.35030949e-002, 3.00770439e-002, 2.45707214e-001,
          2.12440655e-001, 2.16054946e-001, 2.93979317e-001,
          3.09549034e-001, 2.71647215e-001, 4.44529563e-001,
          1.68962687e-001, 2.28724835e-004, 3.51951603e-005,
          1.17422433e-005, 1.20953949e-008, 1.65913278e-007,
          1.43855799e-003, 3.56719480e-003 ]
      - [ 1.78204626e-001, 3.12524736e-001, 2.87455078e-002,
          8.81807283e-002, 5.37629835e-002, 2.39379063e-001,
          2.26181671e-001, 2.14004591e-001, 8.36859465e-001,
          6.15168452e-001, 2.10763440e-001, 3.39547962e-001,
          1.52526334e-001, 9.15664434e-003, 3.24711064e-003,
          9.45499778e-005, 4.77212825e-006, 1.66014615e-007,
          1.43878325e-003, 3.56719410e-003 ]
      - [ 7.13351667e-002, 1.76059529e-002, 1.69629266e-003,
          6.34795928e-004, 2.66707328e-004, 2.44606465e-001,
          2.06607759e-001, 2.15527534e-001, 2.92115718e-001,
          1.39874145e-001, 2.73190141e-001, 4.45153177e-001,
          1.70225337e-001, 3.16327758e-004, 3.30535513e-005,
          1.19430588e-005, 1.84680609e-008, 1.65913278e-007,
          1.43855799e-003, 3.56719480e-003 ]
      - [ 7.33664259e-002, 1.09027602e-001, 2.26283930e-002,
          6.04611449e-002, 5.95822893e-002, 2.49727011e-001,
          2.25501776e-001, 2.16003403e-001, 2.63508260e-001,
          3.20853740e-001, 2.75782257e-001, 4.26553756e-001,
          1.81481495e-001, 2.94434279e-003, 1.39575812e-003,
          9.09182272e-005, 4.99416444e-007, 1.65916290e-007,
          1.43857452e-003, 3.56719526e-003 ]
      - [ 6.94753006e-002, 1.14266746e-001, 3.04986183e-002,
          1.80691145e-002, 2.23154798e-002, 2.45238706e-001,
          2.14173302e-001, 2.15339646e-001, 1.85663655e-001,
          4.16431695e-001, 1.68919340e-001, 2.80226618e-001,
          1.16132133e-001, 1.92719162e-003, 8.23274371e-004,
          1.61485823e-005, 8.53720579e-008, 1.65913363e-007,
          1.43856031e-003, 3.56719480e-003 ]
      - [ 3.58834043e-002, 1.28621887e-002, 1.50001154e-003,
          1.44585225e-004, 5.14180902e-005, 2.44606316e-001,
          2.06588492e-001, 2.15527579e-001, 1.80154130e-001,
          1.14086047e-001, 1.53922111e-001, 2.62971371e-001,
          1.11689702e-001, 1.84691313e-003, 7.03223981e-004,
          3.91053436e-005, 1.19542634e-007, 1.65913505e-007,
          1.43856101e-003, 3.56719480e-003 ]
      - [ 4.13424075e-002, 2.50329301e-002, 4.99151787e-003,
          3.26556474e-004, 2.32993945e-004, 2.44606376e-001,
          2.06618994e-001, 2.15527475e-001, 2.18037188e-001,
          1.05842836e-001, 1.54940441e-001, 2.58792639e-001,
          1.19654536e-001, 2.74966564e-003, 1.31950411e-003,
          1.29526798e-005, 1.53028132e-008, 1.65913278e-007,
          1.43855845e-003, 3.56719480e-003 ]
      - [ 7.99870491e-002, 7.43781254e-002, 1.35281235e-002,
          1.28946351e-002, 1.51640298e-002, 2.44910210e-001,
          2.10362613e-001, 2.15508714e-001, 3.09318155e-001,
          3.54406446e-001, 2.23384559e-001, 3.13411087e-001,
          1.72565520e-001, 8.31712876e-003, 3.51813249e-003,
          2.19208581e-004, 1.78327934e-006, 1.65940151e-007,
          1.43865380e-003, 3.56718828e-003 ]
      - [ 2.97388565e-002, 6.80760220e-002, 8.33763182e-003,
          2.75647268e-003, 2.45774793e-003, 2.44606465e-001,
          2.06775665e-001, 2.15542629e-001, 2.01363653e-001,
          1.53032869e-001, 4.64111567e-002, 2.28409600e-002,
          6.23936467e-002, 8.99605080e-003, 5.16764773e-003,
          5.00851093e-005, 1.12025486e-006, 1.65920241e-007,
          1.43862551e-003, 3.56719340e-003 ]
      - [ 6.40036091e-002, 2.30652336e-002, 3.84442462e-003,
          1.23100891e-003, 2.29420708e-004, 2.44606376e-001,
          2.06599057e-001, 2.15527847e-001, 2.32086778e-001,
          2.26838142e-001, 2.14219585e-001, 3.02391410e-001,
          1.68511748e-001, 8.44853278e-003, 3.33299278e-003,
          2.52566271e-004, 2.24661517e-006, 1.65947384e-007,
          1.43866695e-003, 3.56718316e-003 ]
      - [ 9.78557542e-002, 8.51229876e-002, 1.73921250e-002,
          2.07528528e-002, 2.52220407e-002, 2.45433718e-001,
          2.13738799e-001, 2.15558037e-001, 4.01371926e-001,
          3.65701616e-001, 2.27735609e-001, 3.72115761e-001,
          1.54006541e-001, 2.92973011e-003, 1.20932260e-003,
          2.56944240e-005, 7.11888937e-010, 1.65913278e-007,
          1.43855787e-003, 3.56719480e-003 ]
      - [ 9.42629669e-003, 2.35767826e-001, 9.45814401e-002,
          1.05277516e-001, 1.05014689e-001, 2.60441989e-001,
          2.76205719e-001, 2.15756759e-001, 6.48875907e-002,
          2.41156802e-001, 1.24668274e-002, 1.14204800e-002,
          1.95900374e-003, 7.39729789e-004, 2.67125841e-004,
          9.61969363e-006, 2.39799647e-008, 1.65913278e-007,
          1.43855822e-003, 3.56719480e-003 ]
      - [ 5.33522069e-002, 1.36781603e-001, 1.94687918e-002,
          6.25253767e-002, 3.34790871e-002, 2.46778145e-001,
          2.16649190e-001, 2.16069564e-001, 3.75446290e-001,
          3.47009450e-001, 4.11343575e-002, 5.92254847e-002,
          2.53518652e-002, 2.28246208e-003, 8.59624532e-004,
          1.05384097e-005, 2.48482444e-008, 1.65913278e-007,
          1.43855833e-003, 3.56719480e-003 ]
      - [ 9.32663828e-002, 6.79525495e-001, 1.66962549e-001,
          5.51232100e-001, 4.45446253e-001, 2.45649353e-001,
          5.55347562e-001, 7.34663010e-001, 7.58917391e-001,
          6.39127910e-001, 7.22705647e-002, 1.29149646e-001,
          5.60517423e-002, 4.32891119e-003, 1.69848136e-005,
          1.90888080e-004, 1.36287770e-006, 1.65896125e-007,
          1.43855833e-003, 3.56719084e-003 ]
      - [ 5.35172485e-002, 2.81409845e-002, 4.36371518e-003,
          2.00532586e-003, 1.62247612e-004, 2.44606435e-001,
          2.06607595e-001, 2.15527549e-001, 2.47471079e-001,
          2.11432487e-001, 8.69900659e-002, 1.54488236e-001,
          6.46580756e-002, 6.76953746e-003, 1.24355965e-005,
          2.15590087e-004, 4.03904642e-006, 1.65907807e-007,
          1.43856986e-003, 3.56722856e-003 ]
      - [ 6.13502786e-002, 1.69454664e-002, 2.84825847e-003,
          9.82067198e-004, 4.02948877e-004, 2.44606674e-001,
          2.06627637e-001, 2.15527713e-001, 2.40082636e-001,
          1.67094782e-001, 2.79516131e-001, 4.21300352e-001,
          1.84455350e-001, 3.22415726e-003, 1.43075094e-003,
          1.07088345e-004, 7.14654448e-007, 1.65918962e-007,
          1.43858197e-003, 3.56719550e-003 ]
      - [ 3.50010805e-002, 4.51397859e-002, 6.42955163e-003,
          7.32642692e-003, 6.63942052e-003, 2.44672075e-001,
          2.07673416e-001, 2.15512350e-001, 1.88499987e-001,
          2.09961951e-001, 1.49355054e-001, 2.68690765e-001,
          1.10616766e-001, 9.70883993e-004, 3.85327818e-004,
          1.28245256e-006, 1.66420993e-008, 1.65913278e-007,
          1.43855822e-003, 3.56719480e-003 ]
      - [ 3.60230543e-002, 2.03524649e-001, 6.30322546e-002,
          1.20719053e-001, 1.41840383e-001, 2.71097690e-001,
          2.81914860e-001, 2.11252421e-001, 2.62119830e-001,
          3.38401765e-001, 6.68086186e-002, 1.37045756e-001,
          4.37983721e-002, 2.46009743e-003, 7.51818181e-004,
          8.76366812e-006, 1.64753374e-007, 1.65913463e-007,
          1.43856229e-003, 3.56719480e-003 ]
      - [ 2.84693222e-002, 3.33422720e-002, 4.70847823e-003,
          3.65609117e-003, 1.68763654e-004, 2.44606420e-001,
          2.06604838e-001, 2.15527326e-001, 1.73126847e-001,
          1.06464006e-001, 6.56977072e-002, 1.04399167e-001,
          4.08882126e-002, 5.16110286e-003, 5.35829495e-005,
          3.02744389e-004, 1.74361605e-006, 1.65876671e-007,
          1.43856124e-003, 3.56719014e-003 ]
      - [ 5.34982048e-002, 1.56243458e-001, 3.40163931e-002,
          5.63025251e-002, 7.74544626e-002, 2.51859993e-001,
          2.37391770e-001, 2.13732913e-001, 2.82665282e-001,
          3.53221178e-001, 7.87508488e-002, 1.25625283e-001,
          6.23936467e-002, 2.65963329e-003, 1.20160764e-003,
          4.67094796e-005, 2.42226150e-007, 1.65912567e-007,
          1.43854960e-003, 3.56719503e-003 ]
      - [ 6.14137538e-002, 1.25412360e-001, 2.93478947e-002,
          1.61365028e-002, 2.43826732e-002, 2.45286316e-001,
          2.15525717e-001, 2.15752169e-001, 2.41161153e-001,
          4.25289720e-001, 8.43670890e-002, 1.58854291e-001,
          5.30007072e-002, 1.00302082e-002, 2.69609503e-004,
          5.40141016e-004, 9.22275376e-006, 1.66145924e-007,
          1.43869803e-003, 3.56736756e-003 ]
      - [ 8.84802416e-002, 1.56695828e-001, 5.08675463e-002,
          7.07015721e-003, 3.02688661e-003, 2.44623959e-001,
          2.07674384e-001, 2.15511858e-001, 2.53206611e-001,
          4.84697163e-001, 9.51675624e-002, 6.85228780e-002,
          1.32125929e-001, 1.79677363e-002, 1.07970973e-002,
          9.28415830e-006, 3.29189589e-007, 1.65913477e-007,
          1.43856928e-003, 3.56719503e-003 ]
      - [ 2.80694179e-002, 2.42441446e-001, 8.32035467e-002,
          5.59904147e-003, 2.89249085e-002, 2.45134145e-001,
          2.24393293e-001, 2.15547025e-001, 2.05210760e-001,
          4.09408629e-001, 3.66907381e-002, 4.70078401e-002,
          3.43524441e-002, 2.58178427e-003, 1.36599643e-003,
          2.60154757e-005, 1.12446642e-007, 1.65913079e-007,
          1.43855379e-003, 3.56719480e-003 ]
      - [ 6.04996905e-002, 1.19500712e-001, 2.12478545e-002,
          2.91198026e-002, 4.02354077e-002, 2.46578470e-001,
          2.19161928e-001, 2.15708733e-001, 2.64966935e-001,
          3.26856256e-001, 1.67870149e-001, 2.83483744e-001,
          1.18331023e-001, 2.03183666e-003, 6.78604061e-004,
          2.03592535e-005, 2.35074822e-007, 1.65913605e-007,
          1.43856381e-003, 3.56719503e-003 ]
      - [ 5.13844267e-002, 1.25716820e-001, 2.02997960e-002,
          5.55370748e-002, 6.98289275e-002, 2.50839561e-001,
          2.28034452e-001, 2.15869546e-001, 2.71438032e-001,
          3.16610098e-001, 1.63796827e-001, 2.83843428e-001,
          1.19338870e-001, 9.24653141e-004, 3.19509592e-004,
          2.46545738e-007, 1.41793715e-008, 1.65913278e-007,
          1.43855775e-003, 3.56719480e-003 ]
      - [ 2.66094524e-002, 7.58003863e-003, 9.69950284e-004,
          7.21870965e-005, 3.07636157e-007, 2.44606316e-001,
          2.06584901e-001, 2.15527579e-001, 1.59982637e-001,
          5.56325577e-002, 1.43491939e-001, 2.39830077e-001,
          1.08881831e-001, 8.10290745e-004, 3.14953708e-004,
          1.22516144e-006, 9.75716130e-009, 1.65913278e-007,
          1.43855810e-003, 3.56719480e-003 ]
      - [ 3.58897522e-002, 5.05491905e-002, 6.49030553e-003,
          5.12559855e-005, 1.02764883e-004, 2.44606301e-001,
          2.06574365e-001, 2.15527564e-001, 2.94309914e-001,
          1.49400875e-001, 7.36283436e-002, 1.14204794e-001,
          5.77448271e-002, 2.63287383e-003, 1.01596850e-003,
          7.05120692e-005, 4.38920040e-007, 1.65911658e-007,
          1.43854716e-003, 3.56719526e-003 ]
      - [ 2.01157816e-002, 2.00772658e-001, 8.42771158e-002,
          4.43393700e-002, 4.22444008e-002, 2.47227356e-001,
          2.33038068e-001, 2.15653554e-001, 8.33157003e-002,
          2.53237933e-001, 4.50533852e-002, 8.92076418e-002,
          3.74741144e-002, 2.07077921e-003, 6.75611431e-004,
          7.13680311e-006, 7.56824914e-009, 1.65913278e-007,
          1.43855799e-003, 3.56719480e-003 ]
      - [ 3.25603992e-001, 2.50804126e-001, 3.25252786e-002,
          7.99599364e-002, 3.89024219e-003, 2.44616702e-001,
          2.05276564e-001, 2.15367109e-001, 9.17355359e-001,
          6.70525670e-001, 2.23230273e-001, 3.47623408e-001,
          1.65675506e-001, 3.05627589e-003, 1.45069102e-003,
          1.66342288e-005, 2.15366267e-008, 1.65913292e-007,
          1.43855857e-003, 3.56719480e-003 ]
      - [ 6.80788159e-002, 6.61307052e-002, 1.44629991e-002,
          5.13115199e-003, 3.02183372e-003, 2.44622782e-001,
          2.07368538e-001, 2.15520263e-001, 2.89582640e-001,
          2.86451578e-001, 2.10670859e-001, 2.98145354e-001,
          1.62034571e-001, 8.25628452e-003, 3.32178106e-003,
          2.38951412e-004, 2.11483689e-006, 1.65945295e-007,
          1.43866299e-003, 3.56718479e-003 ]
      - [ 3.00054587e-002, 6.18272610e-002, 1.34654297e-002,
          1.33137694e-002, 5.72050503e-003, 2.44674534e-001,
          2.07932442e-001, 2.15563238e-001, 1.76460326e-001,
          1.83745965e-001, 6.66543245e-002, 1.04881130e-001,
          5.61372563e-002, 2.15591653e-003, 8.66618415e-004,
          3.69986265e-005, 2.78234808e-007, 1.65912738e-007,
          1.43855228e-003, 3.56719503e-003 ]
      - [ 5.92872836e-002, 1.00503273e-001, 2.34418213e-002,
          2.79883575e-002, 3.13592330e-002, 2.45934695e-001,
          2.16913015e-001, 2.15357095e-001, 2.24888414e-001,
          3.89597744e-001, 1.81417018e-001, 2.85400033e-001,
          1.35354549e-001, 7.10290717e-003, 2.59845797e-003,
          2.08575933e-004, 5.71171370e-007, 1.65917101e-007,
          1.43857405e-003, 3.56719620e-003 ]
      - [ 2.32629582e-001, 2.44221658e-001, 6.01764843e-002,
          9.61102545e-002, 4.03767033e-003, 2.44720176e-001,
          2.08638579e-001, 2.15538800e-001, 8.42975199e-001,
          6.70525670e-001, 1.54693574e-001, 1.50162160e-001,
          2.25060448e-001, 4.89537865e-002, 2.71323435e-002,
          3.32379306e-004, 1.15375706e-005, 1.65212896e-007,
          1.43668451e-003, 3.56715452e-003 ]
      - [ 6.44796789e-002, 2.91076209e-002, 2.62931571e-003,
          5.24629140e-005, 3.32200405e-004, 2.44606361e-001,
          2.06620768e-001, 2.15527520e-001, 2.86929727e-001,
          1.75407708e-001, 2.06535831e-001, 2.99111545e-001,
          1.60834700e-001, 8.28793924e-003, 3.25590023e-003,
          2.65126728e-004, 2.10540020e-006, 1.65950695e-007,
          1.43866672e-003, 3.56718549e-003 ]
      - [ 3.13448198e-002, 2.14398522e-002, 1.94292050e-003,
          2.12786882e-003, 9.04430635e-004, 2.44607508e-001,
          2.06653833e-001, 2.15529799e-001, 1.76691324e-001,
          1.21555932e-001, 1.48892179e-001, 2.58914798e-001,
          1.11446567e-001, 1.04876934e-003, 4.02564561e-004,
          7.70306713e-007, 1.06876712e-008, 1.65913278e-007,
          1.43855799e-003, 3.56719480e-003 ]
      - [ 7.54675046e-002, 1.13410190e-001, 2.26374697e-002,
          1.99743547e-002, 4.08368520e-002, 2.46279076e-001,
          2.19799027e-001, 2.15523973e-001, 3.25495899e-001,
          3.51677775e-001, 1.94038138e-001, 3.33123952e-001,
          1.40751809e-001, 3.70354392e-003, 1.70003367e-003,
          1.42737317e-005, 1.02575015e-009, 1.65913278e-007,
          1.43855799e-003, 3.56719480e-003 ]
      - [ 1.53169390e-002, 1.37479916e-001, 3.79764698e-002,
          5.28996363e-002, 8.43242109e-002, 2.52678335e-001,
          2.42027789e-001, 2.15046912e-001, 1.17369406e-001,
          2.37962171e-001, 4.16898094e-002, 2.28409600e-002,
          5.77448271e-002, 8.93034879e-003, 4.94482461e-003,
          2.60968645e-005, 9.36273182e-007, 1.65915935e-007,
          1.43859861e-003, 3.56719363e-003 ]
      - [ 2.76631676e-002, 8.52812231e-002, 1.63205378e-002,
          3.46515067e-002, 3.79906222e-002, 2.46573061e-001,
          2.17031449e-001, 2.15856031e-001, 1.31062821e-001,
          2.14538336e-001, 1.23433933e-001, 2.11897850e-001,
          9.29786935e-002, 1.32858381e-003, 6.63805753e-004,
          1.79971958e-005, 2.85052675e-008, 1.65913249e-007,
          1.43855717e-003, 3.56719480e-003 ]
      - [ 3.67593840e-002, 1.34968655e-002, 1.70791964e-003,
          1.28660828e-003, 8.94108452e-005, 2.44606346e-001,
          2.06591085e-001, 2.15527534e-001, 1.90487608e-001,
          7.63657317e-002, 1.49756223e-001, 2.51250565e-001,
          1.18179470e-001, 8.85746733e-004, 2.00217546e-004,
          4.53965777e-006, 4.66723160e-010, 1.65913278e-007,
          1.43855787e-003, 3.56719480e-003 ]
      - [ 6.89928755e-002, 3.73808518e-002, 3.38331005e-003,
          5.66602824e-003, 4.46748268e-003, 2.44638547e-001,
          2.07130894e-001, 2.15527207e-001, 2.70400822e-001,
          2.62568176e-001, 2.74517059e-001, 4.47355062e-001,
          1.70439631e-001, 2.48196186e-004, 2.79596206e-005,
          1.00573661e-005, 1.15047563e-008, 1.65913278e-007,
          1.43855799e-003, 3.56719480e-003 ]
      - [ 7.32902512e-002, 9.33772996e-002, 1.86444074e-002,
          8.69936775e-003, 1.62552968e-002, 2.44882047e-001,
          2.11352319e-001, 2.15480164e-001, 2.08623961e-001,
          2.92178422e-001, 1.76911682e-001, 3.13986689e-001,
          1.23486571e-001, 7.52873858e-003, 5.10435493e-004,
          2.24318574e-004, 1.02074082e-005, 1.66397541e-007,
          1.43874693e-003, 3.56717664e-003 ]
      - [ 1.81606971e-002, 3.26645859e-002, 6.46827323e-003,
          2.64495332e-003, 1.01875723e-003, 2.44607642e-001,
          2.06756175e-001, 2.15530857e-001, 1.44183487e-001,
          1.00619942e-001, 6.60371557e-002, 1.37045756e-001,
          4.37983721e-002, 2.42358400e-003, 7.43905315e-004,
          2.70856935e-006, 3.32470513e-008, 1.65913278e-007,
          1.43855833e-003, 3.56719480e-003 ]
      - [ 6.67838901e-002, 9.28389430e-002, 1.62953697e-002,
          4.24828846e-003, 1.01022713e-003, 2.44608939e-001,
          2.06623614e-001, 2.15525210e-001, 2.18991742e-001,
          3.99311453e-001, 1.74844161e-001, 2.88508713e-001,
          1.30400747e-001, 1.38456852e-003, 6.75196701e-004,
          4.14447322e-006, 5.57481705e-009, 1.65913278e-007,
          1.43855787e-003, 3.56719480e-003 ]
      - [ 3.30713876e-002, 5.72004467e-002, 4.18306096e-003,
          3.18305334e-004, 1.66465680e-003, 2.44605467e-001,
          2.06614122e-001, 2.15525091e-001, 2.72342980e-001,
          1.24465294e-001, 7.31654614e-002, 1.14204794e-001,
          6.23936467e-002, 3.59889911e-003, 1.71609968e-003,
          4.71801250e-005, 4.33914749e-007, 1.65912397e-007,
          1.43855007e-003, 3.56719526e-003 ]
      - [ 2.34229211e-002, 6.14729263e-002, 2.95980298e-003,
          1.73528455e-002, 6.26792375e-004, 2.44606182e-001,
          2.06512600e-001, 2.15522721e-001, 2.42115721e-001,
          1.21647842e-001, 6.84749708e-002, 1.37045756e-001,
          4.37983721e-002, 2.11458071e-003, 9.46322049e-004,
          2.19914341e-006, 3.62959582e-008, 1.65913264e-007,
          1.43855682e-003, 3.56719480e-003 ]
      - [ 3.15987244e-002, 2.09850818e-001, 5.47325164e-002,
          1.03299566e-001, 1.50095090e-001, 2.69622654e-001,
          2.81873912e-001, 1.99741155e-001, 3.45652878e-001,
          2.07442403e-001, 6.80429563e-002, 1.37045756e-001,
          4.37983721e-002, 2.11943942e-003, 9.81446938e-004,
          2.88780393e-006, 3.40358568e-008, 1.65913264e-007,
          1.43855740e-003, 3.56719480e-003 ]
      - [ 7.97140971e-002, 5.03558755e-001, 1.35214075e-001,
          1.10841617e-001, 3.77083480e-001, 2.46276245e-001,
          5.03695071e-001, 3.96821797e-001, 7.14801610e-001,
          5.51397026e-001, 8.13121051e-002, 1.48312107e-001,
          5.64571023e-002, 8.24170839e-003, 6.80905068e-005,
          3.93711147e-004, 6.35396418e-006, 1.65945039e-007,
          1.43859023e-003, 3.56728467e-003 ]
      - [ 7.76003227e-002, 3.75464827e-001, 1.37938440e-001,
          2.11533811e-002, 1.12058617e-001, 2.51552522e-001,
          2.88645893e-001, 2.21435487e-001, 7.02991724e-001,
          5.78703225e-001, 7.68376216e-002, 1.13397352e-001,
          6.50439337e-002, 2.63044448e-003, 1.14966265e-003,
          4.38213938e-005, 2.89977493e-007, 1.65912340e-007,
          1.43854809e-003, 3.56719503e-003 ]
      - [ 3.96856628e-002, 1.67521492e-001, 4.06684354e-002,
          1.04168952e-001, 1.44221827e-001, 2.69903898e-001,
          2.69287825e-001, 2.12784424e-001, 2.43599162e-001,
          3.13016176e-001, 7.52946958e-002, 1.23954445e-001,
          4.36296165e-002, 4.94938344e-003, 8.23512983e-006,
          2.48263910e-004, 1.42324336e-006, 1.65887343e-007,
          1.43856008e-003, 3.56719666e-003 ]
      - [ 7.11637810e-002, 1.05759591e-001, 2.02384237e-002,
          6.06567040e-002, 5.78208305e-002, 2.49490738e-001,
          2.24205509e-001, 2.14689821e-001, 2.91971058e-001,
          3.76622885e-001, 1.87156692e-001, 3.42614383e-001,
          1.27477109e-001, 2.70343479e-003, 1.24429667e-003,
          1.04231412e-005, 3.75486238e-008, 1.65913264e-007,
          1.43855810e-003, 3.56719480e-003 ]
      - [ 4.73473072e-002, 1.79355145e-001, 4.98874299e-002,
          8.18584301e-003, 2.08535418e-002, 2.44982392e-001,
          2.16021657e-001, 2.15353474e-001, 2.00107455e-001,
          4.37995195e-001, 6.83206841e-002, 1.14204794e-001,
          3.91495526e-002, 4.24859626e-003, 1.80279836e-004,
          2.62100046e-004, 1.08783115e-006, 1.65904567e-007,
          1.43856520e-003, 3.56719014e-003 ]
      - [ 2.07949821e-002, 4.61717807e-002, 9.13961139e-003,
          1.17390249e-002, 3.02556460e-003, 2.44632021e-001,
          2.07203135e-001, 2.15522975e-001, 1.85898334e-001,
          1.04575157e-001, 6.61605895e-002, 1.25625283e-001,
          4.84471917e-002, 2.08292622e-003, 9.59494442e-004,
          8.79719693e-008, 1.86539157e-008, 1.65913278e-007,
          1.43855729e-003, 3.56719480e-003 ]
      - [ 2.86978371e-002, 1.36141747e-001, 3.33118886e-002,
          3.83246988e-002, 5.58973327e-002, 2.48306647e-001,
          2.28570625e-001, 2.15076119e-001, 1.40495867e-001,
          2.39508778e-001, 4.42510657e-002, 3.42614390e-002,
          5.30960076e-002, 8.32441635e-003, 4.85367747e-003,
          4.61064847e-005, 9.15651412e-007, 1.65918479e-007,
          1.43861584e-003, 3.56719410e-003 ]
      - [ 2.72188298e-002, 4.50537726e-002, 5.39563270e-003,
          9.03209671e-003, 5.08209690e-003, 2.44655386e-001,
          2.07276329e-001, 2.15518579e-001, 1.30606189e-001,
          1.79996759e-001, 1.28093556e-001, 2.38481283e-001,
          9.14943367e-002, 9.92784742e-004, 2.28628473e-004,
          1.46342416e-007, 7.49501439e-009, 1.65913278e-007,
          1.43855799e-003, 3.56719480e-003 ]
      - [ 1.62627429e-001, 3.36599618e-001, 2.47095171e-002,
          1.03417933e-001, 6.25747740e-002, 2.37548470e-001,
          2.27653056e-001, 2.13035956e-001, 9.11388457e-001,
          6.15133643e-001, 2.04159722e-001, 3.15321714e-001,
          1.52526781e-001, 8.35850090e-003, 2.90431222e-003,
          6.61080485e-005, 3.35782875e-006, 1.65962902e-007,
          1.43870164e-003, 3.56719294e-003 ]
      - [ 8.15993622e-002, 1.85089521e-002, 1.99019141e-003,
          1.14013604e-003, 8.47837418e-006, 2.44606316e-001,
          2.06585661e-001, 2.15527579e-001, 2.80574381e-001,
          1.92138106e-001, 2.72634685e-001, 4.42903340e-001,
          1.73686832e-001, 3.30940326e-004, 2.17041179e-005,
          1.29176024e-005, 1.66591416e-008, 1.65913278e-007,
          1.43855799e-003, 3.56719480e-003 ]
      - [ 2.36577839e-002, 9.40807685e-002, 2.02884302e-002,
          3.81966084e-002, 3.51957753e-002, 2.46454880e-001,
          2.17260599e-001, 2.15676904e-001, 1.36175200e-001,
          2.01842353e-001, 6.63148835e-002, 1.37045756e-001,
          4.37983721e-002, 2.39682454e-003, 8.78852908e-004,
          9.29921407e-006, 1.00936454e-007, 1.65913207e-007,
          1.43855880e-003, 3.56719480e-003 ]
      - [ 5.89064211e-002, 1.93204612e-001, 3.95643339e-002,
          1.03733033e-001, 1.35013923e-001, 2.67394722e-001,
          2.64359772e-001, 2.19486058e-001, 3.76628101e-001,
          3.74217421e-001, 7.64364600e-002, 1.33594483e-001,
          4.85131964e-002, 7.04692211e-003, 1.83848588e-005,
          3.63311759e-004, 4.21064215e-006, 1.65823948e-007,
          1.43854565e-003, 3.56723415e-003 ]
      - [ 8.00886154e-002, 4.98147607e-002, 4.77653556e-003,
          1.27826892e-002, 8.84092879e-003, 2.44741023e-001,
          2.07851931e-001, 2.15519607e-001, 3.19400817e-001,
          3.58149320e-001, 2.77633786e-001, 4.52604979e-001,
          1.72249869e-001, 3.60129226e-004, 2.73105670e-005,
          1.28153360e-005, 1.60694107e-008, 1.65913278e-007,
          1.43855787e-003, 3.56719480e-003 ]
      - [ 3.16114202e-002, 2.53817558e-001, 1.05190255e-001,
          2.80542159e-003, 1.51928805e-003, 2.44610116e-001,
          2.07464769e-001, 2.15531513e-001, 1.24253705e-001,
          4.55419689e-001, 4.29550074e-002, 2.28409600e-002,
          5.77448271e-002, 8.84274580e-003, 5.13503514e-003,
          1.34031197e-005, 4.40459871e-007, 1.65913974e-007,
          1.43858232e-003, 3.56719457e-003 ]
      - [ 4.33101840e-002, 7.99165443e-002, 1.40354689e-002,
          1.77266449e-002, 2.34614331e-002, 2.45292261e-001,
          2.12546453e-001, 2.15559199e-001, 2.23119840e-001,
          2.03610793e-001, 1.52070597e-001, 2.57864177e-001,
          1.11689702e-001, 1.27506477e-003, 6.87497202e-004,
          3.70240696e-006, 5.05335329e-009, 1.65913278e-007,
          1.43855775e-003, 3.56719480e-003 ]
      - [ 6.74503893e-002, 6.95655644e-002, 1.27881570e-002,
          1.18478723e-002, 1.09901400e-002, 2.44784653e-001,
          2.09219649e-001, 2.15489283e-001, 2.77830571e-001,
          3.83788496e-001, 2.17953458e-001, 3.11750561e-001,
          1.72458127e-001, 8.62130895e-003, 3.48064629e-003,
          2.11421386e-004, 2.13182216e-006, 1.65934637e-007,
          1.43865286e-003, 3.56718339e-003 ]
      - [ 6.73615262e-002, 6.34389073e-002, 5.24460245e-003,
          1.59584787e-002, 2.41621630e-003, 2.44589210e-001,
          2.06354409e-001, 2.15506181e-001, 2.87144631e-001,
          3.34966332e-001, 1.88946486e-001, 2.90774554e-001,
          1.43139452e-001, 6.62841555e-003, 2.41765403e-003,
          1.90219042e-004, 4.66707519e-007, 1.65915282e-007,
          1.43856870e-003, 3.56719596e-003 ]
      - [ 6.58698231e-002, 8.71491730e-002, 2.39280630e-002,
          2.74775317e-004, 4.06551990e-004, 2.44606346e-001,
          2.06715629e-001, 2.15527892e-001, 2.30053708e-001,
          3.11697751e-001, 9.11868140e-002, 7.64715225e-002,
          1.42964631e-001, 1.87366549e-002, 1.10090338e-002,
          1.91385716e-005, 4.75778819e-007, 1.65912070e-007,
          1.43851910e-003, 3.56719503e-003 ]
      - [ 5.27555272e-002, 1.41167626e-001, 3.37601714e-002,
          7.14249015e-002, 1.02339022e-001, 2.57144630e-001,
          2.47097254e-001, 2.14689896e-001, 1.99330568e-001,
          3.45532566e-001, 1.55495897e-001, 2.89965957e-001,
          1.06622502e-001, 1.87853142e-003, 7.04864098e-004,
          4.70657142e-005, 1.13622150e-007, 1.65913534e-007,
          1.43856078e-003, 3.56719480e-003 ]
      - [ 1.05650701e-001, 1.41542569e-001, 3.76369022e-002,
          1.61137301e-002, 7.20693916e-003, 2.44698688e-001,
          2.07986146e-001, 2.15629652e-001, 3.20537210e-001,
          4.69887286e-001, 1.29019320e-001, 2.16691032e-001,
          1.11371733e-001, 2.01334059e-002, 6.08976325e-003,
          5.51829115e-004, 3.83417137e-006, 1.65861920e-007,
          1.43848499e-003, 3.56724276e-003 ]
      - [ 6.35910034e-002, 2.48557739e-002, 4.95176436e-003,
          4.42496547e-003, 1.14151812e-003, 2.44609654e-001,
          2.06734687e-001, 2.15530127e-001, 2.04838842e-001,
          1.75252423e-001, 2.78343529e-001, 4.26407546e-001,
          1.82376415e-001, 2.86888680e-003, 1.29700510e-003,
          9.62716003e-005, 5.39636687e-007, 1.65916887e-007,
          1.43857591e-003, 3.56719526e-003 ]
      - [ 4.37862612e-002, 7.69564062e-002, 3.37476935e-003,
          6.09337306e-003, 8.30132398e-004, 2.44604856e-001,
          2.06483603e-001, 2.15531275e-001, 2.86809891e-001,
          2.79412717e-001, 7.67759085e-002, 1.17651492e-001,
          6.86011985e-002, 3.37503292e-003, 1.66917860e-003,
          4.57458336e-005, 3.91171795e-007, 1.65912439e-007,
          1.43854902e-003, 3.56719526e-003 ]
      - [ 2.91802604e-002, 9.57354438e-003, 1.22432457e-003,
          1.79622424e-004, 5.58413631e-005, 2.44606316e-001,
          2.06588447e-001, 2.15527579e-001, 1.74044207e-001,
          4.52925749e-002, 1.33185208e-001, 2.32629448e-001,
          9.69552919e-002, 1.12908415e-003, 4.88666876e-004,
          2.05586402e-005, 2.26794921e-008, 1.65913278e-007,
          1.43855799e-003, 3.56719480e-003 ]
      - [ 3.72037217e-002, 4.35541183e-001, 1.79616377e-001,
          1.99468751e-002, 3.48553032e-001, 2.82457441e-001,
          4.71569836e-001, 1.86898828e-001, 4.18752044e-001,
          4.70581353e-001, 4.50225249e-002, 1.02784313e-001,
          2.98519153e-002, 1.58896320e-003, 4.61763615e-004,
          1.48963327e-005, 1.58524571e-008, 1.65913278e-007,
          1.43855787e-003, 3.56719480e-003 ]
      - [ 4.34434861e-002, 1.19586729e-001, 2.00264342e-002,
          4.21205275e-002, 7.17404783e-002, 2.50239640e-001,
          2.28485286e-001, 2.14698508e-001, 2.30057865e-001,
          3.12078059e-001, 1.47225827e-001, 2.54244983e-001,
          1.07676394e-001, 1.17774436e-003, 4.67585400e-004,
          3.37483289e-005, 6.41387814e-008, 1.65913349e-007,
          1.43855880e-003, 3.56719480e-003 ]
      - [ 2.48574950e-002, 3.28486376e-002, 6.17976720e-003,
          8.93421005e-003, 7.00841192e-004, 2.44607851e-001,
          2.06633210e-001, 2.15524316e-001, 1.89111561e-001,
          8.63456577e-002, 6.24884292e-002, 1.10809505e-001,
          3.33627015e-002, 4.48950473e-003, 1.84192919e-004,
          2.70478020e-004, 1.33645233e-006, 1.65900445e-007,
          1.43856695e-003, 3.56718851e-003 ]
      - [ 2.34863963e-002, 1.40188932e-001, 3.74848619e-002,
          4.07779142e-002, 5.72948642e-002, 2.48577669e-001,
          2.29431391e-001, 2.15635598e-001, 1.77299589e-001,
          2.26020500e-001, 4.30784412e-002, 2.28409600e-002,
          5.77448271e-002, 9.65546630e-003, 5.51460776e-003,
          8.32085207e-005, 1.93930919e-006, 1.65936669e-007,
          1.43869501e-003, 3.56719270e-003 ]
      - [ 2.95547750e-002, 1.40730552e-002, 2.31951941e-003,
          8.85141548e-004, 6.39180362e-005, 2.44606301e-001,
          2.06588238e-001, 2.15527549e-001, 1.96090922e-001,
          7.65051767e-002, 1.55557618e-001, 2.45307326e-001,
          1.20985955e-001, 7.14913802e-003, 2.05325219e-003,
          3.40752100e-004, 1.43406237e-006, 1.65944300e-007,
          1.43862260e-003, 3.56719294e-003 ]
      - [ 8.28117654e-002, 9.11292359e-002, 2.12693103e-002,
          2.90267803e-002, 3.41001377e-002, 2.46143386e-001,
          2.17239916e-001, 2.15643063e-001, 2.51508266e-001,
          3.72898996e-001, 2.85626113e-001, 4.04284984e-001,
          1.97209388e-001, 1.42108172e-003, 9.18002566e-004,
          1.47919184e-006, 3.04397996e-009, 1.65913278e-007,
          1.43855787e-003, 3.56719480e-003 ]
      - [ 1.93883374e-001, 2.69237399e-001, 5.89890406e-002,
          7.15078786e-002, 8.81878252e-004, 2.44600594e-001,
          2.06812590e-001, 2.15541109e-001, 8.34169388e-001,
          6.16271436e-001, 2.06844404e-001, 3.12921166e-001,
          1.60948589e-001, 8.44124425e-003, 2.50431872e-003,
          8.88773066e-005, 4.40216536e-006, 1.65986037e-007,
          1.43876160e-003, 3.56718129e-003 ]
      - [ 5.53199872e-002, 7.92956054e-002, 1.50727509e-002,
          1.27776628e-002, 2.15042531e-002, 2.45111093e-001,
          2.12221637e-001, 2.15394601e-001, 3.35826457e-001,
          1.85501724e-001, 1.82126760e-001, 3.06033432e-001,
          1.30006522e-001, 3.11222416e-003, 1.34299300e-003,
          3.21309817e-005, 8.69903971e-008, 1.65913391e-007,
          1.43855810e-003, 3.56719480e-003 ]
      - [ 6.96022511e-002, 9.07766446e-002, 1.92830432e-002,
          3.95973884e-002, 3.80398706e-002, 2.46717274e-001,
          2.17715919e-001, 2.15798438e-001, 2.22847104e-001,
          3.14559579e-001, 2.73437023e-001, 4.21300352e-001,
          1.78218499e-001, 2.97839055e-003, 1.33636210e-003,
          1.00923171e-004, 6.01313900e-007, 1.65917498e-007,
          1.43857766e-003, 3.56719550e-003 ]
      - [ 4.60206419e-002, 1.49053842e-001, 2.37114504e-002,
          1.11248992e-001, 1.17522739e-001, 2.63334066e-001,
          2.45618477e-001, 2.22989440e-001, 2.67045468e-001,
          3.18701804e-001, 7.38134906e-002, 1.18865497e-001,
          6.35595769e-002, 2.30193348e-003, 1.19810598e-003,
          1.59667470e-005, 1.02966425e-007, 1.65913150e-007,
          1.43855473e-003, 3.56719480e-003 ]
      - [ 7.48835206e-002, 3.04320287e-002, 3.30285425e-003,
          1.24352949e-003, 2.78145541e-004, 2.44606078e-001,
          2.06554696e-001, 2.15527534e-001, 3.60871881e-001,
          2.06279278e-001, 2.17274576e-001, 3.08749229e-001,
          1.67214274e-001, 8.37311335e-003, 3.36703844e-003,
          2.48048076e-004, 2.14706620e-006, 1.65946531e-007,
          1.43866567e-003, 3.56718432e-003 ]
      - [ 2.98658106e-002, 2.26572692e-001, 8.09505805e-002,
          8.98406748e-003, 1.26440423e-002, 2.44799271e-001,
          2.14280456e-001, 2.15545997e-001, 1.46637589e-001,
          4.48149443e-001, 4.38499041e-002, 2.36860905e-002,
          6.15787059e-002, 9.03981645e-003, 5.04487799e-003,
          9.38327958e-006, 5.19286687e-007, 1.65913946e-007,
          1.43858651e-003, 3.56719457e-003 ]
      - [ 3.03609297e-002, 3.67925912e-002, 5.21167787e-003,
          3.01909400e-003, 2.97862338e-004, 2.44606525e-001,
          2.06549898e-001, 2.15527028e-001, 2.10446283e-001,
          1.35671720e-001, 6.69629052e-002, 1.14623941e-001,
          5.60326613e-002, 1.33347884e-003, 6.36688026e-004,
          1.80563511e-005, 7.78714835e-008, 1.65913178e-007,
          1.43855601e-003, 3.56719480e-003 ]
      - [ 2.42925510e-002, 4.66464506e-003, 8.85702786e-004,
          2.12622777e-004, 1.29942677e-007, 2.44606316e-001,
          2.06584901e-001, 2.15527579e-001, 1.60382643e-001,
          3.85091454e-002, 1.28124416e-001, 2.16989115e-001,
          9.95841920e-002, 1.20207446e-003, 2.23540948e-004,
          8.16145348e-006, 4.42507613e-008, 1.65913249e-007,
          1.43855740e-003, 3.56719480e-003 ]
      - [ 3.99141796e-002, 7.59244114e-002, 1.14616686e-002,
          3.60977314e-002, 3.65278535e-002, 2.46508583e-001,
          2.15020999e-001, 2.15553716e-001, 1.97095037e-001,
          2.64986306e-001, 1.52595192e-001, 2.68078655e-001,
          1.05452850e-001, 1.23855157e-003, 6.29826100e-004,
          4.75521801e-006, 8.57504556e-009, 1.65913278e-007,
          1.43855775e-003, 3.56719480e-003 ]
      - [ 1.95889249e-002, 2.92067021e-001, 1.19735010e-001,
          3.66653055e-001, 5.69494843e-001, 6.17832005e-001,
          6.31668389e-001, 2.15235218e-001, 1.61577687e-001,
          3.30922365e-001, 3.61661427e-002, 3.30817252e-002,
          4.30778116e-002, 8.98629706e-003, 4.56051528e-003,
          1.21804660e-004, 3.26891450e-006, 1.65960003e-007,
          1.43870153e-003, 3.56718176e-003 ]
      - [ 4.93468232e-002, 2.20843345e-001, 5.47675863e-002,
          1.88110408e-003, 5.35122526e-004, 2.44605616e-001,
          2.06649497e-001, 2.15528101e-001, 2.51561970e-001,
          5.28778136e-001, 4.08566333e-002, 5.56143261e-002,
          2.53518652e-002, 2.53308774e-003, 9.53014300e-004,
          2.25175045e-005, 1.81238335e-007, 1.65913633e-007,
          1.43856020e-003, 3.56719480e-003 ]
      - [ 5.26539646e-002, 8.99218023e-002, 1.78270005e-002,
          2.78846435e-002, 3.77823263e-002, 2.46348619e-001,
          2.17438281e-001, 2.15132982e-001, 2.28657022e-001,
          3.02674919e-001, 1.80306122e-001, 2.91094333e-001,
          1.29516065e-001, 3.03437514e-003, 1.19309616e-003,
          1.68452389e-005, 2.40488056e-008, 1.65913278e-007,
          1.43855764e-003, 3.56719480e-003 ]
      - [ 6.46383762e-002, 5.04047126e-002, 3.83349112e-003,
          6.30205264e-003, 1.35260168e-003, 2.44602859e-001,
          2.06443295e-001, 2.15520218e-001, 3.05578500e-001,
          2.73948938e-001, 2.04159722e-001, 3.12239349e-001,
          1.52418926e-001, 6.22934336e-003, 2.41261604e-003,
          1.76704809e-004, 4.71920856e-007, 1.65914884e-007,
          1.43856707e-003, 3.56719596e-003 ]
      - [ 9.73035097e-002, 1.04930565e-001, 1.38352579e-002,
          2.65913159e-002, 1.96042079e-002, 2.45167702e-001,
          2.11557806e-001, 2.15016961e-001, 4.11074370e-001,
          4.08159971e-001, 2.06782699e-001, 3.49130929e-001,
          1.52884305e-001, 3.12197790e-003, 1.29020447e-003,
          1.12114813e-005, 1.32294371e-008, 1.65913264e-007,
          1.43855822e-003, 3.56719480e-003 ]
      - [ 1.73037611e-002, 4.09639597e-001, 2.11851090e-001,
          3.19561481e-001, 4.35579330e-001, 4.77528900e-001,
          6.31394267e-001, 2.29155898e-001, 1.63761988e-001,
          3.50311816e-001, 1.48737887e-002, 1.76012293e-002,
          3.88268149e-003, 6.86210755e-004, 2.31824262e-004,
          4.85517103e-006, 1.16567600e-008, 1.65913278e-007,
          1.43855799e-003, 3.56719480e-003 ]
      - [ 9.97790992e-002, 1.19433641e-001, 2.02824473e-002,
          9.85888112e-003, 1.84150618e-002, 2.44763672e-001,
          2.11053699e-001, 2.16051027e-001, 5.02958715e-001,
          4.03469503e-001, 2.08109602e-001, 3.54642451e-001,
          1.44179359e-001, 2.62069050e-003, 1.25226600e-003,
          1.29705950e-005, 6.99441705e-009, 1.65913278e-007,
          1.43855775e-003, 3.56719480e-003 ]
      - [ 8.82898122e-002, 8.99390057e-002, 1.77661013e-002,
          1.31096561e-002, 2.24640798e-002, 2.45152652e-001,
          2.13043198e-001, 2.15388179e-001, 3.82446289e-001,
          3.15139562e-001, 2.16225386e-001, 3.58442068e-001,
          1.47534430e-001, 3.12683685e-003, 1.04877935e-003,
          3.40387742e-005, 2.38643949e-008, 1.65913249e-007,
          1.43855857e-003, 3.56719480e-003 ]
      - [ 3.37632820e-002, 5.28453887e-002, 8.55193380e-003,
          3.16275400e-003, 2.31061829e-003, 2.44615048e-001,
          2.06770390e-001, 2.15524361e-001, 2.88884312e-001,
          1.44469544e-001, 6.87526986e-002, 1.14204794e-001,
          5.30960076e-002, 2.39925389e-003, 9.59838508e-004,
          4.10919238e-005, 3.08727579e-007, 1.65912539e-007,
          1.43855019e-003, 3.56719503e-003 ]
      - [ 2.75869947e-002, 1., 1., 1.27579896e-002, 2.03110999e-003,
          2.44591489e-001, 2.02207103e-001, 2.15527937e-001,
          5.11330515e-002, 6.83849156e-001, 2.36993153e-002,
          3.26785669e-002, 1.44638587e-002, 7.42409332e-003,
          3.53400526e-003, 8.36677282e-005, 2.73822161e-006,
          1.65954688e-007, 1.43871387e-003, 3.56719433e-003 ]
      - [ 6.96530342e-002, 5.83528504e-002, 4.79198713e-003,
          1.90214682e-002, 1.91555284e-002, 2.45129913e-001,
          2.09333554e-001, 2.15479568e-001, 3.04743797e-001,
          2.96795994e-001, 2.71708935e-001, 4.36454147e-001,
          1.72249869e-001, 2.43337403e-004, 1.45458207e-005,
          1.04699984e-005, 1.38443319e-008, 1.65913278e-007,
          1.43855787e-003, 3.56719480e-003 ]
      - [ 6.33117110e-002, 1.03028221e-002, 5.32404927e-004,
          1.34553833e-004, 8.71741649e-005, 2.44606316e-001,
          2.06589192e-001, 2.15527594e-001, 2.80380160e-001,
          1.35979131e-001, 2.71030068e-001, 4.44529563e-001,
          1.68962687e-001, 2.57949985e-004, 2.78749776e-005,
          9.84952840e-006, 1.40149217e-008, 1.65913278e-007,
          1.43855799e-003, 3.56719480e-003 ]
      - [ 1.21050160e-002, 3.91352549e-002, 9.95450467e-003,
          2.82123522e-003, 8.16892658e-004, 2.44608074e-001,
          2.06755683e-001, 2.15527251e-001, 1.42901242e-001,
          5.76164983e-002, 2.99018696e-002, 3.16107310e-002,
          2.14152373e-002, 1.55244989e-003, 7.97523302e-004,
          1.27767998e-005, 4.24462350e-008, 1.65913249e-007,
          1.43855752e-003, 3.56719480e-003 ]
      - [ 4.14058827e-002, 3.75287607e-002, 4.54973290e-003,
          2.96802819e-003, 3.44870932e-004, 2.44606346e-001,
          2.06623062e-001, 2.15526760e-001, 2.13095039e-001,
          1.61209509e-001, 7.79485255e-002, 1.29324347e-001,
          6.78680837e-002, 3.03923385e-003, 1.13634416e-003,
          8.45505056e-005, 6.05218816e-007, 1.65910507e-007,
          1.43854204e-003, 3.56719573e-003 ]
      - [ 9.38440263e-002, 1.04230531e-001, 1.78321768e-002,
          6.84950268e-003, 1.10953972e-002, 2.44744912e-001,
          2.09763020e-001, 2.15517715e-001, 3.52161199e-001,
          4.14558649e-001, 2.20298707e-001, 3.61976624e-001,
          1.48152277e-001, 3.03680450e-003, 1.14963436e-003,
          3.22690539e-005, 6.39411635e-009, 1.65913278e-007,
          1.43855810e-003, 3.56719480e-003 ]
      - [ 1.02971978e-001, 1.13964029e-001, 1.59067251e-002,
          2.67093591e-002, 3.58899571e-002, 2.46191144e-001,
          2.16243014e-001, 2.15252310e-001, 4.53553706e-001,
          4.03529704e-001, 2.26038381e-001, 3.72307628e-001,
          1.52580738e-001, 3.03923385e-003, 1.20106083e-003,
          1.92398238e-005, 6.85261137e-009, 1.65913278e-007,
          1.43855787e-003, 3.56719480e-003 ]
      - [ 5.74528053e-002, 2.73205396e-002, 4.55396203e-003,
          4.60400071e-004, 1.32697569e-005, 2.44606316e-001,
          2.06584722e-001, 2.15527579e-001, 2.48772740e-001,
          1.70219630e-001, 1.84286863e-001, 3.14044893e-001,
          1.36638045e-001, 2.94920150e-003, 1.48228125e-003,
          1.12409161e-005, 9.13119713e-009, 1.65913278e-007,
          1.43855822e-003, 3.56719480e-003 ]
      - [ 2.03430280e-001, 5.52329481e-001, 4.11441550e-002,
          9.02751014e-002, 1.98303293e-002, 2.45403230e-001,
          1.98344573e-001, 2.17006162e-001, 8.97049606e-001,
          6.71755314e-001, 1.43923968e-001, 2.20396996e-001,
          6.67823255e-001, 1., 1., 1., 1., 1., 1., 9.99999940e-001 ]
      - [ 3.87271643e-002, 1.36647433e-001, 2.75044255e-002,
          6.16027452e-002, 4.84035499e-002, 2.48339072e-001,
          2.23831102e-001, 2.14444131e-001, 3.16185951e-001,
          2.11388096e-001, 1.29266188e-001, 2.42641807e-001,
          9.66438204e-002, 1.80554111e-003, 1.11076391e-004,
          7.08591642e-006, 3.29136540e-008, 1.65913264e-007,
          1.43855822e-003, 3.56719480e-003 ]
      - [ 2.32515335e-002, 2.53979206e-001, 1.13209017e-001,
          7.46303126e-002, 1.06192619e-001, 2.58163035e-001,
          2.83622384e-001, 2.15884820e-001, 7.61673674e-002,
          4.10429150e-001, 5.24902791e-002, 1.02336638e-001,
          4.50475067e-002, 9.92799271e-003, 1.05534913e-003,
          2.28127654e-004, 1.58356870e-005, 1.66814061e-007,
          1.43883063e-003, 3.56710725e-003 ]
      - [ 1.37109775e-002, 3.41764800e-002, 3.14377877e-003,
          8.19881260e-003, 7.06542167e-004, 2.44603917e-001,
          2.06542507e-001, 2.15526775e-001, 1.65130988e-001,
          8.09294283e-002, 3.99617366e-002, 1.14204800e-002,
          4.84471917e-002, 7.86696654e-003, 4.42806538e-003,
          8.87178612e-006, 4.17275146e-007, 1.65913377e-007,
          1.43856020e-003, 3.56719457e-003 ]
      - [ 1.77734904e-002, 2.18192846e-001, 7.25926682e-002,
          2.14334413e-001, 3.18069607e-001, 3.63709003e-001,
          3.91340554e-001, 2.13950381e-001, 1.24162406e-001,
          3.25506121e-001, 3.85113880e-002, 4.41664010e-002,
          3.66419889e-002, 2.79832585e-003, 1.51572365e-003,
          1.42581830e-005, 4.77380340e-008, 1.65913235e-007,
          1.43855647e-003, 3.56719480e-003 ]
      - [ 2.15186179e-002, 2.35846769e-002, 5.04796067e-003,
          5.30248368e-003, 4.27189778e-004, 2.44607225e-001,
          2.06650078e-001, 2.15527803e-001, 1.39615297e-001,
          7.32249990e-002, 6.68086186e-002, 1.17651492e-001,
          5.61986156e-002, 2.01479462e-003, 8.88740527e-004,
          9.28536508e-007, 2.93348297e-008, 1.65913278e-007,
          1.43855799e-003, 3.56719480e-003 ]
      - [ 3.67612898e-001, 7.98666701e-002, 7.41496962e-003,
          4.05840576e-003, 1.17932074e-003, 2.44607523e-001,
          2.06520006e-001, 2.15533316e-001, 8.92561972e-001,
          5.94463825e-001, 4.13596243e-001, 4.89077479e-001,
          3.72493088e-001, 3.35264653e-002, 1.58917792e-002,
          2.70485820e-004, 1.57968061e-005, 1.66926853e-007,
          1.44048664e-003, 3.56713869e-003 ]
      - [ 1.44987240e-001, 4.54227269e-001, 7.93709606e-002,
          9.81984362e-002, 4.41495657e-001, 1.68794096e-001,
          4.59336400e-001, 3.86418104e-002, 8.34710717e-001,
          5.50094485e-001, 2.02616796e-001, 2.95697898e-001,
          1.50002018e-001, 7.52145005e-003, 2.89012166e-003,
          2.12264626e-004, 1.55387761e-006, 1.65932178e-007,
          1.43863412e-003, 3.56718875e-003 ]
      - [ 6.48097619e-002, 6.97564855e-002, 1.05953859e-002,
          9.50650370e-004, 4.51402459e-003, 2.44616210e-001,
          2.07576320e-001, 2.15542436e-001, 2.54305780e-001,
          3.02823871e-001, 2.09868550e-001, 2.96024561e-001,
          1.67214274e-001, 8.73324182e-003, 3.50377709e-003,
          2.59866443e-004, 2.32349294e-006, 1.65955143e-007,
          1.43868104e-003, 3.56718386e-003 ]
      - [ 1.54419884e-001, 3.42693627e-001, 3.90956290e-002,
          4.44166772e-002, 7.19372630e-002, 2.41341397e-001,
          2.36259252e-001, 2.23452255e-001, 8.53814006e-001,
          6.02453470e-001, 1.97710305e-001, 3.20802450e-001,
          1.47024482e-001, 8.38283077e-003, 2.70519918e-003,
          6.99090815e-005, 3.48208937e-006, 1.65956791e-007,
          1.43873005e-003, 3.56718549e-003 ]
      - [ 7.97775760e-002, 4.92798358e-001, 1.28614023e-001,
          7.95233697e-002, 4.58225489e-001, 2.01082513e-001,
          5.59218407e-001, 4.08476174e-001, 7.10904956e-001,
          5.85666001e-001, 8.32870454e-002, 1.42333403e-001,
          4.60953638e-002, 6.42398419e-003, 1.93739452e-005,
          3.15794983e-004, 3.59370210e-006, 1.65912098e-007,
          1.43856881e-003, 3.56722926e-003 ]
      - [ 2.65256643e-001, 2.65119672e-001, 4.59494255e-002,
          9.84877646e-002, 8.03000468e-004, 2.44616151e-001,
          2.06331849e-001, 2.15532258e-001, 9.04958665e-001,
          6.19817793e-001, 1.89903110e-001, 1.82781354e-001,
          2.67936498e-001, 5.94925694e-002, 3.42813581e-002,
          3.98258999e-004, 1.60841410e-005, 1.64858605e-007,
          1.43589487e-003, 3.56698502e-003 ]
      - [ 4.06568572e-002, 1.01528399e-001, 1.82619747e-002,
          3.74353230e-002, 5.12572341e-002, 2.47811869e-001,
          2.20575184e-001, 2.15024009e-001, 2.26095021e-001,
          3.16182226e-001, 7.68067613e-002, 1.21953607e-001,
          4.79753278e-002, 4.87639336e-003, 6.88398504e-005,
          2.69638142e-004, 1.19878973e-006, 1.65896438e-007,
          1.43856660e-003, 3.56719107e-003 ]
      - [ 6.63585961e-002, 1.82528570e-001, 3.34057510e-002,
          2.40754448e-002, 6.05886020e-002, 2.47402906e-001,
          2.29951382e-001, 2.18458340e-001, 4.43041325e-001,
          3.78134578e-001, 8.16206858e-002, 1.34481832e-001,
          6.66905567e-002, 3.74734541e-003, 1.48953428e-003,
          6.61064842e-005, 3.79782364e-007, 1.65911388e-007,
          1.43854378e-003, 3.56719480e-003 ]
      - [ 2.61079874e-002, 1.26697227e-001, 3.52688208e-002,
          2.79485807e-002, 5.13448641e-002, 2.47391075e-001,
          2.27338374e-001, 2.15258285e-001, 1.72753289e-001,
          2.63512641e-001, 6.78886622e-002, 1.25625283e-001,
          5.30960076e-002, 2.60611437e-003, 1.30138791e-003, 0.,
          1.39930156e-008, 1.65913278e-007, 1.43855752e-003,
          3.56719480e-003 ]
      - [ 7.51437768e-002, 1.24017447e-001, 2.38455459e-002,
          1.11252945e-002, 2.51617078e-002, 2.45131537e-001,
          2.14684635e-001, 2.16016009e-001, 3.32152873e-001,
          3.04443359e-001, 1.21736713e-001, 2.37801835e-001,
          1.11359179e-001, 2.17028987e-002, 5.30017307e-003,
          7.92447419e-004, 6.16951957e-006, 1.65580531e-007,
          1.43827510e-003, 3.56727280e-003 ]
      - [ 1.41934007e-002, 2.33112052e-002, 4.90856590e-003,
          3.24099412e-004, 1.31285356e-004, 2.44606346e-001,
          2.06604719e-001, 2.15527579e-001, 1.44319013e-001,
          4.37377430e-002, 3.78633589e-002, 1.14204800e-002,
          5.77448271e-002, 1.00764390e-002, 5.59906149e-003,
          6.98986769e-005, 1.96480551e-006, 1.65927702e-007,
          1.43864530e-003, 3.56718968e-003 ]
      - [ 3.66641693e-002, 4.76716273e-002, 9.92205576e-004,
          3.20023019e-003, 1.13947573e-003, 2.44609356e-001,
          2.06521451e-001, 2.15526417e-001, 2.61739671e-001,
          1.47743374e-001, 7.46466666e-002, 1.21509321e-001,
          5.98270260e-002, 2.12429813e-003, 1.08615693e-003,
          2.00787654e-005, 1.01251473e-007, 1.65913164e-007,
          1.43855542e-003, 3.56719480e-003 ]
      - [ 7.34489486e-002, 5.04494384e-002, 6.63058739e-003,
          2.72685022e-004, 3.88785964e-004, 2.44606256e-001,
          2.06536025e-001, 2.15527862e-001, 3.13995868e-001,
          2.75882185e-001, 2.16842562e-001, 3.07310253e-001,
          1.63838774e-001, 8.49719252e-003, 3.49175441e-003,
          2.53539532e-004, 2.11142856e-006, 1.65950794e-007,
          1.43867254e-003, 3.56718595e-003 ]
      - [ 9.27522257e-002, 7.93197006e-002, 9.54063144e-003,
          1.33170839e-002, 1.14852767e-002, 2.44772181e-001,
          2.08994821e-001, 2.15721548e-001, 4.27880168e-001,
          3.56390417e-001, 2.23446280e-001, 3.67134184e-001,
          1.51818782e-001, 2.93948408e-003, 1.10841100e-003,
          3.10118376e-005, 7.91224597e-009, 1.65913278e-007,
          1.43855799e-003, 3.56719480e-003 ]
      - [ 4.10631076e-002, 5.22072762e-002, 8.68152920e-003,
          1.13588115e-002, 1.13906153e-002, 2.44791895e-001,
          2.08873823e-001, 2.15543285e-001, 1.94235519e-001,
          2.11213812e-001, 1.53520957e-001, 2.56497085e-001,
          1.15542658e-001, 1.75931025e-003, 7.93630548e-004,
          4.03399317e-005, 5.92072844e-008, 1.65913335e-007,
          1.43855892e-003, 3.56719480e-003 ]
      - [ 2.82598492e-002, 1.91436440e-001, 6.13575354e-002,
          1.11875549e-001, 1.62274808e-001, 2.75951505e-001,
          2.93044508e-001, 2.14031816e-001, 1.41598761e-001,
          3.15358222e-001, 6.60988688e-002, 1.37045756e-001,
          4.37983721e-002, 2.16081156e-003, 8.06204451e-004,
          4.35925358e-006, 8.43827408e-008, 1.65913320e-007,
          1.43856020e-003, 3.56719480e-003 ]
      - [ 4.42179032e-002, 7.25996494e-002, 1.59948168e-003,
          2.16629710e-002, 1.36031890e-002, 2.44918942e-001,
          2.07471192e-001, 2.15724587e-001, 2.59950399e-001,
          2.95499802e-001, 7.55107105e-002, 1.39810696e-001,
          5.95810935e-002, 2.28246208e-003, 8.73937446e-004,
          4.33962559e-005, 3.14674196e-007, 1.65912937e-007,
          1.43855193e-003, 3.56719503e-003 ]
      - [ 4.36275676e-002, 1.13810942e-001, 1.95633173e-002,
          1.59427617e-002, 2.00678762e-002, 2.45121017e-001,
          2.12206125e-001, 2.15545654e-001, 1.74921900e-001,
          4.00284380e-001, 1.46608651e-001, 2.50717223e-001,
          1.13080174e-001, 2.72047683e-003, 1.17306656e-003,
          2.57658266e-005, 2.32110544e-008, 1.65913278e-007,
          1.43855799e-003, 3.56719480e-003 ]
      - [ 3.09195239e-002, 1.13021377e-002, 8.56212631e-004,
          1.03779265e-003, 9.06465357e-006, 2.44606316e-001,
          2.06584752e-001, 2.15527579e-001, 1.89574376e-001,
          9.80718657e-002, 1.42350182e-001, 2.64467508e-001,
          9.85498130e-002, 1.38942723e-003, 5.85190719e-004,
          3.86240354e-005, 5.07381941e-008, 1.65913349e-007,
          1.43855903e-003, 3.56719480e-003 ]
      - [ 6.40353411e-002, 1.18035264e-001, 3.15466076e-002,
          9.56952851e-003, 2.98109138e-003, 2.44598955e-001,
          2.05782950e-001, 2.15492129e-001, 2.52900839e-001,
          3.92557830e-001, 9.08473730e-002, 6.85228780e-002,
          1.18179470e-001, 1.69165377e-002, 1.00227762e-002,
          3.23382192e-005, 2.11116685e-006, 1.65930715e-007,
          1.43876718e-003, 3.56719480e-003 ]
      - [ 7.65656531e-002, 4.04125273e-001, 9.02675688e-002,
          1.88218448e-002, 5.89808583e-001, 3.33608657e-001,
          5.76160252e-001, 2.23304465e-001, 4.85413224e-001,
          4.00236845e-001, 1.70770839e-001, 3.08364362e-001,
          1.17090717e-001, 1.10228837e-003, 3.65246378e-004,
          4.55523332e-006, 3.01150465e-008, 1.65913264e-007,
          1.43855740e-003, 3.56719480e-003 ]
      - [ 6.42257705e-002, 9.11774188e-002, 1.63071696e-002,
          5.98957879e-004, 1.43312535e-003, 2.44607985e-001,
          2.06965029e-001, 2.15529084e-001, 2.41760314e-001,
          4.06410545e-001, 8.38733539e-002, 1.70819521e-001,
          7.28065297e-002, 5.00293868e-003, 1.80083211e-003,
          6.89696099e-005, 1.69008752e-006, 1.65925627e-007,
          1.43859035e-003, 3.56719852e-003 ]
      - [ 7.06940517e-002, 6.63542971e-002, 1.32035566e-002,
          7.96107203e-003, 7.62412976e-003, 2.44687036e-001,
          2.08441988e-001, 2.15482950e-001, 2.47322306e-001,
          3.34075809e-001, 2.14188725e-001, 3.00632685e-001,
          1.66231990e-001, 9.19312146e-003, 3.76691879e-003,
          2.56214902e-004, 2.42602459e-006, 1.65952031e-007,
          1.43868453e-003, 3.56718153e-003 ]
      - [ 1.15800634e-001, 1.04913361e-001, 1.72113478e-002,
          1.65820476e-002, 1.45709915e-002, 2.44871542e-001,
          2.10287273e-001, 2.15220034e-001, 4.38466907e-001,
          4.03510690e-001, 2.28352770e-001, 3.84741098e-001,
          1.54564366e-001, 3.23634036e-003, 1.17453223e-003,
          3.46940360e-005, 9.27428019e-008, 1.65913377e-007,
          1.43856043e-003, 3.56719480e-003 ]
      - [ 7.07575306e-002, 1.32319912e-001, 4.18175086e-002,
          2.85252044e-003, 4.59201867e-004, 2.44606644e-001,
          2.06495732e-001, 2.15528682e-001, 2.64074385e-001,
          3.63036335e-001, 9.09399465e-002, 6.85228780e-002,
          1.27477109e-001, 1.62303261e-002, 9.63660516e-003,
          8.32188744e-006, 3.35386488e-007, 1.65913747e-007,
          1.43858453e-003, 3.56719480e-003 ]
      - [ 4.86993603e-002, 5.82152419e-002, 1.14111053e-002,
          4.06244723e-003, 7.21525401e-003, 2.44661242e-001,
          2.08240345e-001, 2.15509474e-001, 2.18012407e-001,
          2.93623567e-001, 1.71789169e-001, 2.83018917e-001,
          1.26228899e-001, 2.88349926e-003, 1.16502657e-003,
          1.23212376e-005, 3.10629034e-008, 1.65913292e-007,
          1.43855694e-003, 3.56719480e-003 ]
      - [ 2.87041850e-002, 9.62307751e-002, 2.42197663e-002,
          1.22623006e-002, 2.16151159e-002, 2.45110989e-001,
          2.13823617e-001, 2.15538219e-001, 1.41707838e-001,
          2.55171180e-001, 6.28278702e-002, 1.25625283e-001,
          3.91495526e-002, 1.70089619e-003, 7.65508972e-004,
          2.59155877e-006, 2.68773697e-008, 1.65913264e-007,
          1.43855822e-003, 3.56719480e-003 ]
      - [ 7.45851770e-002, 3.11097130e-002, 5.60467318e-003,
          1.12293242e-003, 2.28290737e-004, 2.44606376e-001,
          2.06610337e-001, 2.15527341e-001, 2.71301657e-001,
          1.80671796e-001, 2.23816574e-001, 3.18899751e-001,
          1.69713497e-001, 7.86939636e-003, 3.30063445e-003,
          1.94058011e-004, 1.59242052e-006, 1.65931382e-007,
          1.43863738e-003, 3.56718875e-003 ]
      - [ 2.52637453e-002, 3.97682153e-002, 6.83539873e-003,
          5.95047185e-003, 2.41323694e-004, 2.44606555e-001,
          2.06609294e-001, 2.15527043e-001, 1.62057012e-001,
          1.60043195e-001, 6.45868033e-002, 1.14204794e-001,
          3.45007330e-002, 4.94938344e-003, 2.49093049e-004,
          2.72188976e-004, 1.63645166e-006, 1.65890839e-007,
          1.43856497e-003, 3.56718735e-003 ]
      - [ 2.13916637e-002, 4.78188664e-001, 2.71270782e-001,
          3.70528966e-001, 6.24086976e-001, 6.74393356e-001,
          9.00547266e-001, 2.53663599e-001, 3.78417343e-001,
          3.15744877e-001, 1.52132325e-002, 2.46031471e-002, 0.,
          6.13184180e-004, 2.08096477e-004, 1.79633776e-006,
          4.71744110e-009, 1.65913278e-007, 1.43855799e-003,
          3.56719480e-003 ]
      - [ 7.46105686e-002, 5.50401136e-002, 1.26628727e-002,
          6.90058991e-003, 5.77561697e-003, 2.44656548e-001,
          2.07951084e-001, 2.15503752e-001, 2.22834721e-001,
          3.29705417e-001, 2.16132820e-001, 3.12230200e-001,
          1.62503630e-001, 8.31712876e-003, 3.34540661e-003,
          2.19795722e-004, 1.69404620e-006, 1.65935958e-007,
          1.43864623e-003, 3.56718805e-003 ]
      - [ 4.22374271e-002, 1.08377468e-002, 5.51446108e-004,
          7.15495204e-004, 1.40913664e-006, 2.44606316e-001,
          2.06584916e-001, 2.15527579e-001, 2.34252080e-001,
          1.22218303e-001, 1.52163178e-001, 2.50633836e-001,
          1.13556683e-001, 1.73498015e-003, 8.05634190e-004,
          2.91271826e-005, 5.77972763e-008, 1.65913335e-007,
          1.43855915e-003, 3.56719480e-003 ]
      - [ 1.86494682e-002, 1.77263632e-001, 6.62830770e-002,
          4.22236025e-002, 4.31735292e-002, 2.47248486e-001,
          2.30539203e-001, 2.15676323e-001, 1.02722324e-001,
          2.28917181e-001, 4.37881872e-002, 7.99433589e-002,
          2.98519153e-002, 1.45270000e-003, 4.71309468e-004,
          9.78462595e-006, 5.35652278e-009, 1.65913278e-007,
          1.43855799e-003, 3.56719480e-003 ]
      - [ 2.67427545e-002, 2.41990805e-001, 8.40211064e-002,
          1.68942544e-003, 3.78558203e-003, 2.44606450e-001,
          2.08541855e-001, 2.15550095e-001, 1.48892149e-001,
          3.71761233e-001, 3.57958414e-002, 3.68241891e-002,
          3.55071984e-002, 2.63530319e-003, 1.51554449e-003,
          1.07170981e-005, 5.99453287e-008, 1.65913221e-007,
          1.43855554e-003, 3.56719480e-003 ]
      - [ 3.34839858e-002, 1.82113871e-002, 2.16855155e-003,
          2.73768121e-004, 3.82984756e-004, 2.44606391e-001,
          2.06606850e-001, 2.15527326e-001, 1.86793402e-001,
          7.55734220e-002, 1.45466894e-001, 2.52577662e-001,
          1.08145915e-001, 2.20947177e-003, 9.73091053e-004,
          4.56488451e-005, 1.60463301e-007, 1.65913704e-007,
          1.43856276e-003, 3.56719480e-003 ]
      - [ 6.28673732e-002, 1.12140812e-001, 2.21631937e-002,
          5.25070168e-002, 6.60868287e-002, 2.50181854e-001,
          2.27805704e-001, 2.15043813e-001, 2.70388424e-001,
          3.38420838e-001, 1.83114246e-001, 3.15395951e-001,
          1.29943773e-001, 2.41143722e-003, 1.17551256e-003,
          4.01115949e-006, 2.55272936e-009, 1.65913278e-007,
          1.43855799e-003, 3.56719480e-003 ]
      - [ 5.31744733e-002, 1.47629678e-001, 3.43613215e-002,
          6.77384511e-002, 1.02383785e-001, 2.56647378e-001,
          2.47496158e-001, 2.12028861e-001, 2.63706625e-001,
          3.18654269e-001, 1.74659014e-001, 2.61468440e-001,
          1.41488180e-001, 2.75695371e-003, 1.21469051e-003,
          3.09775132e-005, 1.43030618e-008, 1.65913264e-007,
          1.43855740e-003, 3.56719480e-003 ]
      - [ 1.91960037e-001, 2.66397655e-001, 3.02407462e-002,
          1.05095744e-001, 5.04440889e-002, 2.49240473e-001,
          2.07622260e-001, 2.19634742e-001, 7.71772742e-001,
          6.19995236e-001, 1.51823729e-001, 2.55475014e-001,
          1.37787730e-001, 2.51557790e-002, 8.22986756e-003,
          7.68670870e-004, 7.12602832e-006, 1.65398205e-007,
          1.43800455e-003, 3.56722716e-003 ]
      - [ 4.03712131e-002, 1.13661312e-001, 2.07583122e-002,
          2.11146753e-002, 3.64999250e-002, 2.45932087e-001,
          2.17891157e-001, 2.16503739e-001, 3.38723123e-001,
          1.74986213e-001, 7.30728880e-002, 1.45779014e-001,
          5.37152402e-002, 2.94677215e-003, 1.47506117e-003,
          2.20900870e-006, 3.49211753e-008, 1.65913278e-007,
          1.43855833e-003, 3.56719480e-003 ]
      - [ 6.43781200e-002, 1.44153442e-002, 2.27165874e-003,
          9.32816882e-004, 1.80508883e-004, 2.44606391e-001,
          2.06599519e-001, 2.15527698e-001, 2.58727282e-001,
          1.28090918e-001, 2.81213343e-001, 4.21300352e-001,
          1.84455350e-001, 2.93701841e-003, 1.33689935e-003,
          9.54070201e-005, 5.62207504e-007, 1.65917115e-007,
          1.43857696e-003, 3.56719526e-003 ]
      - [ 2.76060384e-002, 2.77894169e-001, 1.12451695e-001,
          2.59887367e-001, 3.63807499e-001, 4.05044317e-001,
          4.69648302e-001, 2.16157675e-001, 1.48809507e-001,
          3.74623030e-001, 4.30167243e-002, 9.65122133e-002,
          3.03632878e-002, 1.25000225e-002, 6.28317846e-003,
          1.92439897e-004, 7.03263231e-006, 1.66132367e-007,
          1.43900176e-003, 3.56715568e-003 ]
      - [ 4.21739519e-002, 9.18774530e-002, 2.02064477e-002,
          2.54129320e-002, 3.07861511e-002, 2.45815903e-001,
          2.15996966e-001, 2.15118617e-001, 2.15214878e-001,
          2.51513839e-001, 1.58304021e-001, 2.66868055e-001,
          1.19654536e-001, 2.51361635e-003, 1.15777343e-003,
          1.77084930e-005, 1.89454781e-008, 1.65913278e-007,
          1.43855845e-003, 3.56719480e-003 ]
      - [ 4.73409593e-002, 1.05453439e-001, 1.84758846e-002,
          5.74411377e-002, 5.58734573e-002, 2.49132738e-001,
          2.22795159e-001, 2.16097236e-001, 2.04599172e-001,
          3.21832985e-001, 1.54138118e-001, 2.58801788e-001,
          1.17578365e-001, 1.15584361e-003, 2.71893339e-004,
          1.00303496e-005, 5.07234361e-008, 1.65913235e-007,
          1.43855729e-003, 3.56719480e-003 ]
      - [ 5.44725716e-001, 9.00422111e-002, 7.64851831e-003,
          8.42299592e-003, 1.78899756e-003, 2.44615734e-001,
          2.06922323e-001, 2.15522289e-001, 1., 6.70525670e-001,
          2.47515887e-001, 3.94943029e-001, 1.70042604e-001,
          3.15602566e-003, 1.45292480e-003, 2.06824643e-005,
          2.91962809e-008, 1.65913278e-007, 1.43855705e-003,
          3.56719480e-003 ]
      - [ 2.85950065e-001, 2.09668484e-002, 5.75799309e-003,
          3.28221271e-004, 4.91907849e-005, 2.44606316e-001,
          2.06591576e-001, 2.15527579e-001, 5.61995864e-001,
          4.14786845e-001, 2.32240945e-001, 3.61097306e-001,
          1.72400489e-001, 3.11954855e-003, 1.14990294e-003,
          3.38702812e-005, 7.63719115e-008, 1.65913349e-007,
          1.43855996e-003, 3.56719480e-003 ]
      - [ 7.11193457e-002, 9.21887830e-002, 1.64370127e-002,
          4.59998623e-002, 4.48128283e-002, 2.47522771e-001,
          2.18734682e-001, 2.15686217e-001, 2.59429753e-001,
          3.22447836e-001, 2.73961604e-001, 4.26407546e-001,
          1.80297449e-001, 3.10493610e-003, 1.38943805e-003,
          9.88429820e-005, 6.34069750e-007, 1.65917811e-007,
          1.43857859e-003, 3.56719550e-003 ]
      - [ 4.10440639e-002, 1.17106482e-001, 9.84650757e-003,
          6.62844256e-002, 3.77595127e-002, 2.47191906e-001,
          2.09025547e-001, 2.16854736e-001, 1.91314042e-001,
          3.25851619e-001, 6.91847205e-002, 1.14204794e-001,
          3.91495526e-002, 4.53087641e-003, 1.24060753e-004,
          2.85242189e-004, 1.17800039e-006, 1.65899479e-007,
          1.43856427e-003, 3.56719014e-003 ]
      - [ 1.69838384e-001, 1.39265284e-001, 2.26339642e-002,
          6.44272938e-003, 6.99996389e-003, 2.44649887e-001,
          2.07915798e-001, 2.15443194e-001, 5.32987595e-001,
          5.19920111e-001, 2.33629569e-001, 3.87215972e-001,
          1.84250355e-001, 9.74306930e-003, 3.27119790e-003,
          1.92283624e-004, 7.21721062e-006, 1.66162323e-007,
          1.43897021e-003, 3.56716593e-003 ]
      - [ 1.51588827e-001, 3.56217980e-001, 6.22555427e-002,
          5.78173958e-002, 6.32408187e-002, 2.39810571e-001,
          2.38766834e-001, 2.19891220e-001, 9.07772720e-001,
          6.14553630e-001, 2.14497313e-001, 3.12088609e-001,
          1.64229274e-001, 8.05188995e-003, 3.16456030e-003,
          6.36762998e-005, 2.56738736e-006, 1.65944613e-007,
          1.43869023e-003, 3.56719200e-003 ]
      - [ 8.06218162e-002, 1.07938841e-001, 3.20573971e-002,
          8.41446919e-004, 2.61683809e-003, 2.44611859e-001,
          2.07582787e-001, 2.15526640e-001, 2.64669448e-001,
          3.56666118e-001, 1.16984509e-001, 1.59140959e-001,
          1.38884366e-001, 2.35011149e-002, 1.18200677e-002,
          2.67719181e-004, 2.02802730e-005, 1.67401609e-007,
          1.44071376e-003, 3.56715638e-003 ]
      - [ 4.06568572e-002, 1.01528399e-001, 1.82619747e-002,
          3.74353230e-002, 5.12572341e-002, 2.47811869e-001,
          2.20575184e-001, 2.15024009e-001, 2.26095021e-001,
          3.16182226e-001, 7.68067613e-002, 1.21953607e-001,
          4.79753278e-002, 4.87639336e-003, 6.88398504e-005,
          2.69638142e-004, 1.19878973e-006, 1.65896438e-007,
          1.43856660e-003, 3.56719107e-003 ]
      - [ 1.38163492e-001, 6.72903419e-001, 1.00930430e-001,
          8.97083521e-001, 5.79302013e-002, 2.30765790e-001,
          2.45829925e-001, 1.94324970e-001, 8.45983446e-001,
          6.03249013e-001, 7.77942389e-002, 1.66780114e-001,
          6.43452182e-002, 7.80612323e-003, 1.74622901e-003,
          2.14186992e-004, 4.27471832e-006, 1.65992219e-007,
          1.43860560e-003, 3.56722390e-003 ]
      - [ 6.88786209e-002, 4.20403183e-002, 2.25321576e-003,
          3.66856880e-003, 5.39343385e-003, 2.44640395e-001,
          2.07114190e-001, 2.15535387e-001, 3.13293397e-001,
          2.68795729e-001, 2.71276921e-001, 4.38929021e-001,
          1.72980219e-001, 2.55484338e-004, 3.58082543e-005,
          1.13009046e-005, 8.23544255e-009, 1.65913278e-007,
          1.43855799e-003, 3.56719480e-003 ]
      - [ 1.23843141e-002, 3.03374287e-002, 7.37175019e-003,
          7.66754558e-004, 3.80612910e-005, 2.44606316e-001,
          2.06589833e-001, 2.15527594e-001, 1.14298359e-001,
          5.94419725e-002, 4.01777439e-002, 3.98540497e-002,
          4.17514965e-002, 1.03441058e-002, 5.24823740e-003,
          1.55106434e-004, 4.66826486e-006, 1.66011716e-007,
          1.43880420e-003, 3.56717268e-003 ]
      - [ 1.00229785e-001, 9.82724354e-002, 1.88042074e-002,
          4.49719140e-003, 4.95954975e-003, 2.44638532e-001,
          2.07146585e-001, 2.15511993e-001, 3.17673564e-001,
          4.19448793e-001, 2.09991977e-001, 3.47691983e-001,
          1.49969965e-001, 2.40414892e-003, 8.28420743e-004,
          1.88493468e-005, 7.35220453e-008, 1.65913292e-007,
          1.43855647e-003, 3.56719480e-003 ]
      - [ 4.01300006e-002, 8.63269065e-003, 2.17346149e-003,
          1.79398421e-003, 1.06248786e-004, 2.44606376e-001,
          2.06595182e-001, 2.15527594e-001, 1.57024801e-001,
          8.42159390e-002, 2.24248603e-001, 3.60012352e-001,
          1.49112239e-001, 3.65488371e-003, 1.42954919e-003,
          1.50372958e-004, 1.07873973e-006, 1.65926707e-007,
          1.43859815e-003, 3.56719573e-003 ]
      - [ 8.43352079e-002, 7.38741606e-002, 1.06371818e-002,
          3.50711755e-002, 3.09648123e-002, 2.46064901e-001,
          2.13470086e-001, 2.15723962e-001, 2.90917367e-001,
          3.33663791e-001, 2.99296439e-001, 4.69927579e-001,
          1.83839381e-001, 9.10076837e-004, 3.71495611e-004,
          3.02718090e-005, 5.05808586e-008, 1.65913335e-007,
          1.43855880e-003, 3.56719480e-003 ]
      - [ 4.86993603e-002, 9.67089534e-002, 1.26252649e-002,
          4.24102298e-004, 1.61442463e-003, 2.44605914e-001,
          2.06400871e-001, 2.15530664e-001, 3.34739685e-001,
          2.78233737e-001, 6.95550218e-002, 1.25625283e-001,
          4.84471917e-002, 1.34562573e-003, 5.53817314e-004,
          3.91162648e-005, 1.18928703e-007, 1.65913022e-007,
          1.43855531e-003, 3.56719480e-003 ]
      - [ 4.75948676e-002, 1.53193891e-001, 3.46602462e-002,
          5.74180409e-002, 7.07872584e-002, 2.51076788e-001,
          2.34605625e-001, 2.15263054e-001, 2.60442138e-001,
          3.98081809e-001, 6.99253231e-002, 1.27838582e-001,
          5.60429096e-002, 1.96370506e-003, 7.61385192e-004,
          3.82415419e-005, 1.56520798e-007, 1.65913207e-007,
          1.43855670e-003, 3.56719480e-003 ]
      - [ 1.67623043e-001, 3.03140402e-001, 3.35825495e-002,
          4.90988865e-002, 6.60377890e-002, 2.41229832e-001,
          2.32681900e-001, 2.08631337e-001, 8.64103317e-001,
          5.96371710e-001, 2.10609153e-001, 3.14465225e-001,
          1.61255419e-001, 7.54088536e-003, 2.81549850e-003,
          5.74123260e-005, 2.76161109e-006, 1.65948052e-007,
          1.43866509e-003, 3.56719480e-003 ]
      - [ 9.36599448e-002, 8.94694328e-002, 1.86313093e-002,
          2.14400385e-002, 2.72962693e-002, 2.45546117e-001,
          2.14576513e-001, 2.15335473e-001, 2.96764463e-001,
          4.14507985e-001, 2.27118433e-001, 3.72115761e-001,
          1.55458793e-001, 3.05870525e-003, 1.19976967e-003,
          2.96961152e-005, 3.23714247e-008, 1.65913292e-007,
          1.43855868e-003, 3.56719480e-003 ]
      - [ 3.61373127e-002, 1.48821622e-001, 2.38991827e-002,
          4.82105799e-002, 8.55451543e-003, 2.44400591e-001,
          2.03815117e-001, 2.15758100e-001, 1.93454549e-001,
          3.82355988e-001, 1.31364569e-001, 2.42641807e-001,
          9.66438204e-002, 1.03905180e-003, 2.42315989e-004,
          3.45817682e-007, 2.87953519e-008, 1.65913278e-007,
          1.43855833e-003, 3.56719480e-003 ]
      - [ 2.58921664e-002, 4.13265228e-002, 8.30188021e-003,
          6.51175855e-003, 2.36539476e-004, 2.44606167e-001,
          2.06580326e-001, 2.15528235e-001, 1.42800823e-001,
          9.80243310e-002, 7.04190582e-002, 1.27308652e-001,
          5.64375967e-002, 2.03183666e-003, 9.88718821e-004,
          1.48691726e-007, 9.20852461e-009, 1.65913278e-007,
          1.43855775e-003, 3.56719480e-003 ]
      - [ 3.25318351e-002, 2.15929151e-002, 8.77675557e-005,
          1.32504664e-003, 8.34897393e-004, 2.44607568e-001,
          2.06574723e-001, 2.15527803e-001, 2.35537186e-001,
          1.44431531e-001, 1.50712833e-001, 2.73185879e-001,
          1.07531823e-001, 1.02443923e-003, 3.91437061e-004,
          2.69243230e-007, 1.59149565e-008, 1.65913278e-007,
          1.43855810e-003, 3.56719480e-003 ]
      - [ 6.04298636e-002, 2.87808124e-002, 4.52974299e-003,
          3.75704677e-003, 2.51603685e-003, 2.44617283e-001,
          2.06949472e-001, 2.15524867e-001, 2.40549579e-001,
          2.07477272e-001, 2.73467869e-001, 4.19683188e-001,
          1.80277929e-001, 2.88106990e-003, 1.34270545e-003,
          8.85377158e-005, 5.27089867e-007, 1.65916560e-007,
          1.43857510e-003, 3.56719526e-003 ]
      - [ 9.12224352e-002, 7.92319700e-002, 1.29746292e-002,
          3.59320045e-002, 1.86186247e-002, 2.45284066e-001,
          2.10685551e-001, 2.15309501e-001, 2.96210736e-001,
          4.12121505e-001, 3.00592482e-001, 4.52604979e-001,
          1.85398579e-001, 7.95714441e-004, 3.18121660e-004,
          2.50828998e-005, 4.43577797e-008, 1.65913320e-007,
          1.43855868e-003, 3.56719480e-003 ]
      - [ 3.90381999e-002, 1.26248291e-002, 1.97234470e-003,
          2.33979328e-004, 3.14906647e-005, 2.44606316e-001,
          2.06587300e-001, 2.15527579e-001, 1.98421478e-001,
          8.54582787e-002, 1.48923039e-001, 2.40290299e-001,
          1.17133491e-001, 2.86888680e-003, 1.21565652e-003,
          4.11800684e-005, 1.98073849e-007, 1.65913832e-007,
          1.43856450e-003, 3.56719480e-003 ]
      - [ 1.87510308e-002, 2.37635747e-002, 5.68201393e-003,
          2.46839342e-003, 1.96237539e-004, 2.44606480e-001,
          2.06610516e-001, 2.15527415e-001, 1.42521471e-001,
          1.17172889e-001, 6.49571046e-002, 1.37045756e-001,
          4.37983721e-002, 2.46009743e-003, 8.80559033e-004,
          4.16748571e-006, 7.04098326e-008, 1.65913264e-007,
          1.43855973e-003, 3.56719480e-003 ]
      - [ 2.20010411e-002, 3.16669866e-002, 7.27656484e-003,
          2.96970690e-003, 7.97478599e-004, 2.44607762e-001,
          2.06722215e-001, 2.15525940e-001, 1.40305802e-001,
          7.57192001e-002, 6.94315881e-002, 1.37045756e-001,
          4.84471917e-002, 2.60121934e-003, 1.31062511e-003,
          2.24298198e-008, 1.39675187e-008, 1.65913278e-007,
          1.43855752e-003, 3.56719480e-003 ]
      - [ 3.20367143e-002, 1.01246320e-001, 2.30733752e-002,
          1.81920752e-002, 3.13875899e-002, 2.45675340e-001,
          2.16851249e-001, 2.15723991e-001, 1.77301228e-001,
          2.22730786e-001, 6.47719577e-002, 1.37045756e-001,
          4.37983721e-002, 2.66206264e-003, 8.11614795e-004,
          8.78075207e-006, 2.14934204e-007, 1.65913534e-007,
          1.43856392e-003, 3.56719480e-003 ]
      - [ 3.72227654e-002, 1.53477684e-001, 3.36642414e-002,
          9.83915403e-002, 9.91742685e-002, 2.58641660e-001,
          2.45837048e-001, 2.16592208e-001, 1.82016954e-001,
          2.75917053e-001, 1.32506326e-001, 2.50717223e-001,
          9.33566391e-002, 1.09985902e-003, 2.43858987e-004,
          1.01111493e-006, 1.03775237e-008, 1.65913278e-007,
          1.43855810e-003, 3.56719480e-003 ]
      - [ 2.67617963e-002, 3.21279466e-002, 6.22876221e-003,
          4.09157295e-003, 1.30505679e-004, 2.44606450e-001,
          2.06607074e-001, 2.15527594e-001, 1.45430580e-001,
          1.46605641e-001, 7.01413304e-002, 1.15948685e-001,
          4.06422801e-002, 4.78879036e-003, 6.47148772e-006,
          3.26440379e-004, 1.27066892e-006, 1.65889404e-007,
          1.43855892e-003, 3.56719200e-003 ]
      - [ 2.74283029e-002, 4.46444079e-002, 9.53058526e-003,
          8.75021890e-003, 5.68686193e-003, 2.44661078e-001,
          2.07731262e-001, 2.15498611e-001, 1.36841729e-001,
          2.09309056e-001, 1.38369441e-001, 2.16374665e-001,
          1.09125420e-001, 8.36821832e-003, 2.40694173e-003,
          3.58004647e-004, 2.04457160e-006, 1.65941529e-007,
          1.43864215e-003, 3.56718129e-003 ]
      - [ 1.57993622e-002, 2.77935434e-002, 5.72601706e-003,
          2.16174172e-003, 2.58166518e-004, 2.44606584e-001,
          2.06623316e-001, 2.15527683e-001, 1.50372714e-001,
          9.03230757e-002, 3.53021063e-002, 1.22941453e-002,
          5.16418703e-002, 9.97665245e-003, 5.39179053e-003,
          8.06600219e-005, 2.36801384e-006, 1.65935404e-007,
          1.43867498e-003, 3.56718805e-003 ]
      - [ 3.07798758e-002, 7.35472469e-003, 7.64852040e-004,
          9.37655204e-005, 4.75898378e-006, 2.44606316e-001,
          2.06585169e-001, 2.15527579e-001, 1.88512415e-001,
          6.94314241e-002, 1.46300063e-001, 2.67916441e-001,
          1.08403482e-001, 9.41695122e-004, 2.90588272e-004,
          1.91156744e-007, 1.90159284e-008, 1.65913278e-007,
          1.43855810e-003, 3.56719480e-003 ]
      - [ 4.01173048e-002, 8.19064863e-003, 1.35329727e-003,
          6.53813069e-004, 4.69180441e-006, 2.44606316e-001,
          2.06584945e-001, 2.15527579e-001, 2.01714888e-001,
          8.89476016e-002, 1.61482438e-001, 2.76538938e-001,
          1.13989495e-001, 1.67170737e-003, 7.86495279e-004,
          4.15812474e-006, 4.68956536e-008, 1.65913292e-007,
          1.43855915e-003, 3.56719480e-003 ]
      - [ 1.76465362e-002, 1.27378345e-001, 2.74183992e-002,
          9.23697054e-002, 8.60888809e-002, 2.55614489e-001,
          2.37272203e-001, 2.15180650e-001, 1.53013617e-001,
          3.09983194e-001, 3.76164913e-002, 2.28409600e-002,
          4.84471917e-002, 5.52851986e-003, 3.27367685e-003,
          2.94750935e-005, 3.80902861e-007, 1.65914386e-007,
          1.43857708e-003, 3.56719457e-003 ]
      - [ 5.98839633e-002, 3.20453905e-002, 4.01466107e-003,
          1.23023905e-003, 1.58777329e-005, 2.44606316e-001,
          2.06582874e-001, 2.15527579e-001, 2.34673560e-001,
          1.69538245e-001, 8.70517790e-002, 1.54784039e-001,
          5.98242618e-002, 8.89626518e-003, 5.27077755e-005,
          2.99733307e-004, 7.82261122e-006, 1.65968373e-007,
          1.43855496e-003, 3.56730144e-003 ]
      - [ 1.06926583e-001, 8.61722007e-002, 1.74994003e-002,
          2.15071850e-002, 2.55512241e-002, 2.45444432e-001,
          2.13870645e-001, 2.15218395e-001, 3.43363613e-001,
          4.22196537e-001, 2.34740481e-001, 4.05090094e-001,
          1.59862638e-001, 3.21201026e-003, 1.38245849e-003,
          1.37117677e-005, 2.17529088e-008, 1.65913278e-007,
          1.43855868e-003, 3.56719480e-003 ]
      - [ 1.87008843e-001, 2.40341306e-001, 7.04704970e-002,
          3.81214395e-002, 8.43235699e-004, 2.44610429e-001,
          2.07060188e-001, 2.15536579e-001, 7.86570251e-001,
          6.05689287e-001, 2.06412390e-001, 3.29033136e-001,
          1.71852410e-001, 2.06516981e-002, 8.15964583e-003,
          5.19734342e-004, 1.94949916e-005, 1.67580581e-007,
          1.44026859e-003, 3.56690050e-003 ]
      - [ 5.93761504e-002, 3.78784418e-001, 1.69287309e-001,
          5.08276284e-001, 7.82454491e-001, 9.52273488e-001,
          9.00098085e-001, 2.04920217e-001, 2.48500004e-001,
          5.83894432e-001, 1.65617481e-001, 2.85512000e-001,
          1.18179470e-001, 1.49650150e-003, 4.79024427e-004,
          1.27310877e-005, 6.69088038e-008, 1.65913264e-007,
          1.43855752e-003, 3.56719480e-003 ]
      - [ 2.17153952e-002, 1.68746158e-001, 5.33759110e-002,
          6.87996522e-002, 1.11249946e-001, 2.58564800e-001,
          2.62017727e-001, 2.15334490e-001, 1.25511989e-001,
          3.27822864e-001, 4.42202054e-002, 1.14204800e-002,
          6.23936467e-002, 9.66764893e-003, 5.43208560e-003,
          1.33861913e-005, 7.37654659e-007, 1.65914372e-007,
          1.43858208e-003, 3.56719433e-003 ]
      - [ 3.01451087e-002, 4.25322615e-002, 6.99057570e-003,
          2.98574520e-003, 4.61845513e-004, 2.44606212e-001,
          2.06582263e-001, 2.15526313e-001, 1.67663634e-001,
          1.66708156e-001, 7.54489899e-002, 1.19981259e-001,
          4.89608683e-002, 4.64038039e-003, 4.82649702e-005,
          2.45782518e-004, 8.46761452e-007, 1.65901085e-007,
          1.43856183e-003, 3.56719457e-003 ]
      - [ 1.22757681e-001, 1.89391375e-001, 5.08192740e-002,
          8.25405959e-003, 2.95267138e-003, 2.44613215e-001,
          2.05946937e-001, 2.15495214e-001, 4.78987575e-001,
          4.86357868e-001, 1.34697273e-001, 1.61886469e-001,
          1.78824216e-001, 2.87522487e-002, 1.54056968e-002,
          1.74395536e-004, 1.51326976e-005, 1.66643787e-007,
          1.44011015e-003, 3.56711913e-003 ]
      - [ 3.08820724e-001, 2.88184941e-001, 3.17269117e-002,
          5.00355214e-002, 1.03694703e-002, 2.44421110e-001,
          2.10544512e-001, 2.15992734e-001, 8.47107410e-001,
          6.70525670e-001, 2.33969018e-001, 3.80441338e-001,
          1.65744320e-001, 4.46274504e-003, 2.02862755e-003,
          2.47179833e-005, 8.11806231e-008, 1.65913221e-007,
          1.43855892e-003, 3.56719480e-003 ]
      - [ 6.85739294e-002, 1.39291093e-001, 3.87874208e-002,
          3.16322455e-003, 3.34316958e-003, 2.44621843e-001,
          2.07992107e-001, 2.15529948e-001, 2.26388440e-001,
          3.77244055e-001, 1.77528858e-001, 2.49908641e-001,
          1.56420648e-001, 1.97976064e-002, 7.86311366e-003,
          4.97949542e-004, 1.99234273e-005, 1.67148670e-007,
          1.43999327e-003, 3.56675335e-003 ]
      - [ 7.16271624e-002, 2.31735967e-002, 5.22376690e-003,
          8.86331603e-004, 1.34889939e-004, 2.44606361e-001,
          2.06598163e-001, 2.15527639e-001, 2.70020664e-001,
          1.99100941e-001, 2.17027709e-001, 3.14430982e-001,
          1.67202175e-001, 8.29036906e-003, 3.24219489e-003,
          2.51704827e-004, 2.09918039e-006, 1.65943575e-007,
          1.43865868e-003, 3.56718409e-003 ]
      - [ 8.40622559e-002, 8.30245763e-002, 1.15704276e-002,
          1.25715174e-002, 2.16986910e-002, 2.45120138e-001,
          2.11617842e-001, 2.15505153e-001, 4.26809907e-001,
          3.05888563e-001, 2.02369928e-001, 3.41296434e-001,
          1.44233778e-001, 3.09521845e-003, 1.18409458e-003,
          2.53850230e-005, 2.21522249e-008, 1.65913264e-007,
          1.43855868e-003, 3.56719480e-003 ]
      - [ 4.48526703e-002, 3.63901220e-002, 2.99819512e-003,
          3.35288234e-003, 1.80805754e-003, 2.44607285e-001,
          2.06789255e-001, 2.15517238e-001, 2.20421493e-001,
          2.05949664e-001, 1.80367827e-001, 2.97745585e-001,
          1.29382178e-001, 2.94434279e-003, 1.31095981e-003,
          2.78980515e-005, 5.56394752e-009, 1.65913278e-007,
          1.43855799e-003, 3.56719480e-003 ]
      - [ 6.90880939e-002, 7.70458505e-002, 6.89790724e-003,
          3.57852019e-002, 3.97365205e-002, 2.46752366e-001,
          2.13643610e-001, 2.15340927e-001, 3.04516494e-001,
          3.41051251e-001, 2.70505458e-001, 4.43459511e-001,
          1.72156900e-001, 2.79850705e-004, 2.70761520e-005,
          1.27616668e-005, 1.21490720e-008, 1.65913278e-007,
          1.43855799e-003, 3.56719480e-003 ]
      - [ 1., 1.07568847e-002, 3.45178181e-004, 7.83607538e-004,
          2.06297591e-005, 2.44606316e-001, 2.06584096e-001,
          2.15527579e-001, 1., 6.70525670e-001, 8.62309456e-001,
          7.76558399e-001, 7.40224004e-001, 1.05981365e-001,
          6.08030967e-002, 1.46770873e-003, 3.46570043e-004,
          4.02037102e-007, 1.51150022e-003, 3.58797424e-003 ]
      - [ 3.64293046e-002, 4.67342325e-002, 7.83771276e-003,
          8.97003990e-003, 4.67100908e-004, 2.44606569e-001,
          2.06515089e-001, 2.15529785e-001, 1.65560320e-001,
          2.10256696e-001, 7.72079229e-002, 1.30533814e-001,
          4.91347648e-002, 5.70129650e-003, 5.66478911e-006,
          2.83060566e-004, 2.24476025e-006, 1.65859120e-007,
          1.43855636e-003, 3.56719946e-003 ]
      - [ 4.63570692e-002, 7.69151375e-002, 3.49650509e-003,
          5.78486081e-003, 1.97115168e-003, 2.44610056e-001,
          2.06736088e-001, 2.15541989e-001, 2.97673553e-001,
          2.28055149e-001, 7.76090845e-002, 1.37749255e-001,
          6.57412633e-002, 5.76456916e-003, 6.89759385e-004,
          2.62479676e-004, 7.09431049e-007, 1.65922913e-007,
          1.43857033e-003, 3.56719457e-003 ]
      - [ 4.53922227e-002, 4.69646975e-002, 6.35990547e-003,
          2.70198518e-003, 1.20000652e-004, 2.44606316e-001,
          2.06589475e-001, 2.15527415e-001, 2.03384310e-001,
          2.17789978e-001, 1.61636740e-001, 2.66868055e-001,
          1.26228899e-001, 4.78150230e-003, 1.98632968e-003,
          3.08025155e-005, 1.33035112e-008, 1.65913278e-007,
          1.43855775e-003, 3.56719480e-003 ]
      - [ 1.06729805e-001, 3.98524851e-002, 1.65827619e-003,
          3.94589221e-003, 2.75472701e-007, 2.44606316e-001,
          2.06584916e-001, 2.15527579e-001, 4.06041294e-001,
          2.56201178e-001, 2.03079671e-001, 3.22783917e-001,
          1.40034512e-001, 1.32372510e-003, 6.14740246e-004,
          1.89011953e-005, 1.65143845e-008, 1.65913264e-007,
          1.43855752e-003, 3.56719480e-003 ]
      - [ 1.92544028e-001, 4.66305137e-001, 5.08786850e-002,
          5.20372391e-001, 8.32293741e-003, 2.45209336e-001,
          2.05551609e-001, 2.16353178e-001, 8.30578506e-001,
          5.46925247e-001, 1.94130719e-001, 2.83532798e-001,
          1.43479273e-001, 6.83766883e-003, 2.54466082e-003,
          1.94403328e-004, 1.22315885e-006, 1.65918209e-007,
          1.43859908e-003, 3.56718968e-003 ]
      - [ 9.94744152e-002, 1.55545130e-001, 1.86306071e-002,
          2.29723360e-002, 4.76503111e-002, 2.46249095e-001,
          2.20613495e-001, 2.18075365e-001, 4.30574387e-001,
          3.89889270e-001, 1.98697776e-001, 3.28891546e-001,
          1.42819151e-001, 1.96856377e-003, 8.11770267e-004,
          2.88856208e-005, 4.81503335e-008, 1.65913221e-007,
          1.43855659e-003, 3.56719480e-003 ]
      - [ 3.36109400e-002, 3.26783251e-004, 1.96868888e-004,
          2.57062668e-004, 2.02341857e-006, 2.44606316e-001,
          2.06584945e-001, 2.15527579e-001, 1.46369025e-001,
          5.23872450e-002, 2.18046039e-001, 3.49796712e-001,
          1.51191175e-001, 4.57485934e-004, 2.53166363e-004,
