%YAML:1.0
my_svm: !!opencv-ml-svm
   svm_type: C_SVC
   kernel: { type:POLY, degree:3.4300000000000002e+000,
       gamma:3.3750000000000002e-002, coef0:1.9600000000000001e+001 }
   C: 1.0000000000000001e-001
   term_criteria: { epsilon:1.1920928955078125e-007, iterations:1000 }
   var_all: 10
   var_count: 10
   class_count: 2
   class_labels: !!opencv-matrix
      rows: 1
      cols: 2
      dt: i
      data: [ 0, 1 ]
   sv_total: 22
   support_vectors:
      - [ 3.41584146e-001, 6.29053295e-001, 2.60638297e-001,
          5.03983736e-001, 3.11475396e-001, 5.81570625e-001,
          4.86166000e-001, 6.43943548e-001, 4.89451468e-001,
          4.48314250e-001 ]
      - [ 2.12871283e-001, 3.95627230e-001, 3.35106373e-001,
          4.65247899e-001, 2.84153014e-001, 4.20976847e-001,
          3.71541500e-001, 3.40774029e-001, 4.38818574e-001,
          1.84082270e-001 ]
      - [ 3.41584146e-001, 6.36528075e-001, 2.71276593e-001,
          5.15041471e-001, 2.34972671e-001, 4.49372023e-001,
          5.01976311e-001, 6.32620573e-001, 4.97890294e-001,
          4.34776783e-001 ]
      - [ 2.87128717e-001, 5.34600973e-001, 2.02127665e-001,
          3.20553064e-001, 3.06010932e-001, 5.06371856e-001,
          4.50592875e-001, 5.28710723e-001, 4.38818574e-001,
          3.20902586e-001 ]
      - [ 3.26732665e-001, 4.63166595e-001, 2.23404258e-001,
          2.88929582e-001, 2.95081973e-001, 4.04670537e-001,
          5.09881437e-001, 5.44991255e-001, 4.85232055e-001,
          2.64650494e-001 ]
      - [ 2.12871283e-001, 3.99757236e-001, 3.29787225e-001,
          4.61308867e-001, 2.84153014e-001, 4.24139887e-001,
          3.75494063e-001, 3.54403913e-001, 4.38818574e-001,
          1.91645473e-001 ]
      - [ 3.16831678e-001, 5.73848367e-001, 2.87234038e-001,
          5.07620275e-001, 3.00546438e-001, 5.23883164e-001,
          4.58498031e-001, 5.55732608e-001, 5.48523188e-001,
          4.14189994e-001 ]
      - [ 2.87128717e-001, 5.35763204e-001, 1.96808517e-001,
          3.21960747e-001, 3.06010932e-001, 5.09587407e-001,
          4.50592875e-001, 5.29887319e-001, 4.43037987e-001,
          3.24041992e-001 ]
      - [ 3.11881185e-001, 4.99668926e-001, 3.13829780e-001,
          4.92129594e-001, 3.44262302e-001, 5.15880704e-001,
          4.46640313e-001, 4.57031399e-001, 4.64135021e-001,
          3.04454058e-001 ]
      - [ 3.21782172e-001, 5.31911433e-001, 1.91489369e-001,
          3.38593602e-001, 2.07650274e-001, 3.56760263e-001,
          4.66403157e-001, 5.41249990e-001, 5.31645596e-001,
          3.01419288e-001 ]
      - [ 3.41584146e-001, 6.36528075e-001, 2.71276593e-001,
          5.15041471e-001, 2.34972671e-001, 4.49372023e-001,
          5.01976311e-001, 6.32620573e-001, 4.97890294e-001,
          4.34776783e-001 ]
      - [ 2.12871283e-001, 4.11028206e-001, 2.02127665e-001,
          3.47434878e-001, 2.13114753e-001, 3.62490386e-001,
          3.91304344e-001, 4.02637452e-001, 5.18987358e-001,
          3.36466342e-001 ]
      - [ 2.22772270e-001, 4.27610129e-001, 2.12765962e-001,
          3.63641709e-001, 2.29508191e-001, 3.84716660e-001,
          3.95256907e-001, 4.17265475e-001, 5.27426183e-001,
          3.61505389e-001 ]
      - [ 1.93069309e-001, 3.79533827e-001, 1.86170205e-001,
          3.28622490e-001, 1.85792357e-001, 3.22458118e-001,
          3.71541500e-001, 3.72396439e-001, 5.02109706e-001,
          3.15137506e-001 ]
      - [ 5.49504936e-001, 9.78150547e-001, 5.69148958e-001,
          9.39790726e-001, 5.90163946e-001, 9.54473495e-001,
          6.64031625e-001, 9.80540037e-001, 8.48101258e-001,
          9.79936540e-001 ]
      - [ 2.27722779e-001, 4.37119007e-001, 2.18085110e-001,
          3.70945603e-001, 2.34972671e-001, 3.96537125e-001,
          4.03162062e-001, 4.30948198e-001, 5.35864949e-001,
          3.73425484e-001 ]
      - [ 2.07920790e-001, 4.02211785e-001, 1.96808517e-001,
          3.43946517e-001, 1.96721315e-001, 3.37552935e-001,
          3.79446626e-001, 3.90818655e-001, 5.10548532e-001,
          3.40956628e-001 ]
      - [ 2.27722779e-001, 4.36463714e-001, 2.18085110e-001,
          3.73779476e-001, 2.34972671e-001, 3.98521334e-001,
          4.03162062e-001, 4.30875480e-001, 5.35864949e-001,
          3.78686398e-001 ]
      - [ 1., 1., 9.89361703e-001, 9.99999940e-001, 8.74316931e-001,
          9.98140216e-001, 0., 1., 0., 1. ]
      - [ 9.80198026e-001, 9.97619689e-001, 9.09574449e-001,
          9.90065992e-001, 8.63388002e-001, 9.93732929e-001,
          9.96047437e-001, 9.99286115e-001, 0., 1. ]
      - [ 8.61386120e-001, 9.96315062e-001, 8.19148958e-001,
          9.76822615e-001, 8.52459013e-001, 9.79417443e-001,
          9.01185751e-001, 9.97891366e-001, 0., 1. ]
      - [ 2.07920790e-001, 4.03726488e-001, 1.96808517e-001,
          3.42730194e-001, 1.96721315e-001, 3.36302072e-001,
          3.79446626e-001, 3.92266303e-001, 5.10548532e-001,
          3.39139640e-001 ]
   decision_functions:
      -
         sv_count: 22
         rho: 1.9778328464707160e+000
         alpha: [ 2.6996121687251115e-002, 9.4229961549164548e-002,
             1.0000000000000001e-001, 7.0902806178780274e-003,
             2.5026464015437688e-002, 6.3414712385988115e-002,
             1.0000000000000001e-001, 1.0000000000000001e-001,
             1.0000000000000001e-001, 6.4236845780258039e-002,
             1.0000000000000001e-001, -1.0000000000000001e-001,
             -1.0000000000000001e-001, -1.0000000000000001e-001,
             -3.1548783705758067e-002, -1.0000000000000001e-001,
             -7.9567646491803729e-002, -1.0000000000000001e-001,
             -6.0695870450011113e-004, -5.6551045897426357e-002,
             -1.2719951236489479e-002, -1.0000000000000001e-001 ]
         index: [ 0, 1, 2, 3, 4, 5, 6, 7, 8, 9, 10, 11, 12, 13, 14, 15,
             16, 17, 18, 19, 20, 21 ]
