%YAML:1.0
my_svm: !!opencv-ml-svm
   svm_type: C_SVC
   kernel: { type:RBF, gamma:5.0625000000000009e-001 }
   C: 1.0000000000000001e-001
   term_criteria: { epsilon:1.1920928955078125e-007, iterations:1000 }
   var_all: 469
   var_count: 469
   class_count: 2
   class_labels: !!opencv-matrix
      rows: 1
      cols: 2
      dt: i
      data: [ 0, 1 ]
   sv_total: 115
   support_vectors:
      - [ 8.35850000e-001, 8.41222942e-001, 8.32887113e-001,
          8.76693726e-001, 8.78099203e-001, 8.69448304e-001,
          8.16579878e-001, 8.21780145e-001, 8.17203462e-001,
          8.42182398e-001, 8.48754168e-001, 8.37497830e-001,
          8.70702863e-001, 8.96115541e-001, 9.04683888e-001,
          8.50589514e-001, 8.54514718e-001, 8.46505344e-001,
          8.07669759e-001, 8.16368997e-001, 8.04908156e-001,
          8.55730116e-001, 8.60852599e-001, 8.49126935e-001,
          8.26452315e-001, 8.31304371e-001, 8.23971450e-001,
          5.02671659e-001, 7.95084894e-001, 7.56345153e-001,
          7.61421323e-001, 7.66497433e-001, 7.71573603e-001,
          8.27586234e-001, 8.27586234e-001, 8.23275864e-001,
          8.24034333e-001, 8.42008770e-001, 7.00980365e-001,
          7.12195098e-001, 7.17073143e-001, 7.21951246e-001,
          8.44444454e-001, 8.43750000e-001, 8.44444454e-001,
          8.44444454e-001, 8.68044019e-001, 6.98492467e-001,
          7.04999983e-001, 7.09999979e-001, 7.14999974e-001,
          8.13559294e-001, 8.17021251e-001, 8.17021251e-001,
          8.17021251e-001, 8.54927123e-001, 6.68316841e-001,
          6.74876869e-001, 6.74876869e-001, 6.74876869e-001,
          8.73303175e-001, 8.73873889e-001, 8.73873889e-001,
          8.73873889e-001, 8.39301169e-001, 6.53846145e-001,
          6.58653855e-001, 6.58653855e-001, 6.58653855e-001,
          8.60986531e-001, 8.65470827e-001, 8.60986531e-001,
          8.61607134e-001, 8.13890398e-001, 6.07476652e-001,
          6.12149537e-001, 6.12149537e-001, 6.12149537e-001,
          8.24034333e-001, 8.24786305e-001, 8.20512831e-001,
          8.20512831e-001, 7.90627420e-001, 5.87962985e-001,
          5.97222209e-001, 6.01851881e-001, 6.11111104e-001,
          8.02575111e-001, 8.03418815e-001, 8.03418815e-001,
          8.04255307e-001, 8.18220556e-001, 6.51960790e-001,
          6.51960790e-001, 6.51960790e-001, 6.53658509e-001,
          8.53982329e-001, 8.49557519e-001, 8.50220263e-001,
          8.50220263e-001, 8.66192818e-001, 6.56410277e-001,
          6.61538482e-001, 6.71794891e-001, 6.71794891e-001,
          8.48214269e-001, 8.44444454e-001, 8.44444454e-001,
          8.44444454e-001, 8.88740659e-001, 6.53266311e-001,
          6.53266311e-001, 6.58291459e-001, 6.54999971e-001,
          7.68000007e-001, 7.68000007e-001, 7.68924296e-001,
          7.68924296e-001, 8.84820759e-001, 6.31840825e-001,
          6.31840825e-001, 6.36815906e-001, 6.36815906e-001,
          8.47826064e-001, 8.94495428e-001, 9.02325571e-001,
          9.02325571e-001, 8.69463146e-001, 6.34999990e-001,
          6.44999981e-001, 6.44999981e-001, 6.44999981e-001,
          7.73279369e-001, 7.69230783e-001, 7.69230783e-001,
          7.70161271e-001, 8.34572256e-001, 5.74879229e-001,
          5.79710126e-001, 5.94202876e-001, 6.03864729e-001,
          7.76892424e-001, 7.72908390e-001, 7.72908390e-001,
          7.72908390e-001, 8.10655057e-001, 5.28037369e-001,
          5.42056084e-001, 5.48837185e-001, 5.48837185e-001,
          8.42794776e-001, 8.42794776e-001, 8.39130461e-001,
          8.39130461e-001, 8.22388053e-001, 6.65024638e-001,
          6.66666687e-001, 6.71568632e-001, 6.76470578e-001,
          8.47533643e-001, 8.48214269e-001, 8.48888874e-001,
          8.48888874e-001, 8.76300156e-001, 6.70000017e-001,
          6.70000017e-001, 6.75000012e-001, 6.75000012e-001,
          8.10126603e-001, 8.10126603e-001, 8.05907190e-001,
          8.09322059e-001, 8.90939236e-001, 6.32352948e-001,
          6.37254894e-001, 6.42156839e-001, 6.47058845e-001,
          7.93522239e-001, 7.89473712e-001, 7.89473712e-001,
          7.92682946e-001, 8.90201569e-001, 6.35922313e-001,
          6.35922313e-001, 6.40776694e-001, 6.45631075e-001,
          7.95180738e-001, 7.91164637e-001, 7.91164637e-001,
          7.91164637e-001, 8.91059220e-001, 6.39024377e-001,
          6.39024377e-001, 6.43902421e-001, 6.43902421e-001,
          7.87999988e-001, 7.87148595e-001, 7.87148595e-001,
          7.87148595e-001, 8.53970170e-001, 6.18811905e-001,
          6.20689631e-001, 6.25615776e-001, 6.30541861e-001,
          7.98353910e-001, 8.08333337e-001, 8.11715484e-001,
          8.15126061e-001, 8.23620200e-001, 5.80188692e-001,
          5.77464759e-001, 5.77464759e-001, 5.82159638e-001,
          8.24786305e-001, 8.25531900e-001, 8.24786305e-001,
          8.24786305e-001, 8.15467417e-001, 6.64974630e-001,
          6.66666687e-001, 6.63316607e-001, 6.65000021e-001,
          8.43049347e-001, 8.38565052e-001, 8.39285731e-001,
          8.43049347e-001, 8.61498177e-001, 6.38190925e-001,
          6.43216074e-001, 6.48241222e-001, 6.48241222e-001,
          8.07531357e-001, 8.17021251e-001, 8.27586234e-001,
          8.34782600e-001, 8.95520568e-001, 6.22548997e-001,
          6.27451003e-001, 6.32352948e-001, 6.37254894e-001,
          7.91164637e-001, 7.91164637e-001, 7.91164637e-001,
          7.87148595e-001, 8.95464003e-001, 5.94202876e-001,
          6.08695626e-001, 6.13526583e-001, 6.10576928e-001,
          7.91999996e-001, 7.91999996e-001, 7.91999996e-001,
          7.91999996e-001, 8.94524693e-001, 6.06796145e-001,
          6.06796145e-001, 6.06796145e-001, 6.11650467e-001,
          7.87148595e-001, 7.87148595e-001, 7.87148595e-001,
          7.87148595e-001, 8.64176035e-001, 5.99009871e-001,
          5.99009871e-001, 6.03960395e-001, 6.08910918e-001,
          7.85425127e-001, 7.89473712e-001, 7.91836739e-001,
          7.91836739e-001, 8.32848191e-001, 5.54502368e-001,
          5.54502368e-001, 5.59241712e-001, 5.56603789e-001,
          8.35497856e-001, 8.31896544e-001, 8.31896544e-001,
          8.31896544e-001, 8.06244671e-001, 6.30841136e-001,
          6.35514021e-001, 6.40186906e-001, 6.40186906e-001,
          8.37719321e-001, 8.41409683e-001, 8.41409683e-001,
          8.41409683e-001, 8.47407281e-001, 6.50246322e-001,
          6.56862736e-001, 6.56862736e-001, 6.61764681e-001,
          8.59090924e-001, 8.55203629e-001, 8.55203629e-001,
          8.55203629e-001, 8.86169136e-001, 6.70000017e-001,
          6.75000012e-001, 6.75000012e-001, 6.75000012e-001,
          7.88617909e-001, 7.98353910e-001, 7.98353910e-001,
          7.98353910e-001, 8.98883879e-001, 6.53465331e-001,
          6.53465331e-001, 6.58415854e-001, 6.58415854e-001,
          7.86290348e-001, 7.89473712e-001, 7.85425127e-001,
          7.86290348e-001, 8.96941066e-001, 6.56716406e-001,
          6.56716406e-001, 6.56716406e-001, 6.56716406e-001,
          7.93522239e-001, 7.96747983e-001, 7.96747983e-001,
          7.92682946e-001, 8.56376886e-001, 6.13861382e-001,
          6.15763545e-001, 6.20689631e-001, 6.30541861e-001,
          8.36206913e-001, 8.42794776e-001, 8.42794776e-001,
          8.50220263e-001, 8.30585241e-001, 5.76190472e-001,
          5.80952406e-001, 5.80952406e-001, 5.82938373e-001,
          8.56502235e-001, 8.57142866e-001, 8.60986531e-001,
          8.60986531e-001, 7.96275616e-001, 6.48148119e-001,
          6.52777791e-001, 6.57407403e-001, 6.57407403e-001,
          8.32599103e-001, 8.33333313e-001, 8.37004423e-001,
          8.32599103e-001, 8.31040084e-001, 6.87804878e-001,
          6.84466004e-001, 6.89320385e-001, 6.89320385e-001,
          7.59036124e-001, 7.59036124e-001, 7.59036124e-001,
          7.55020082e-001, 8.55440676e-001, 6.79802954e-001,
          6.79802954e-001, 6.84729040e-001, 6.84729040e-001,
          7.60956168e-001, 7.56972134e-001, 7.56972134e-001,
          7.56972134e-001, 8.61569881e-001, 6.76767647e-001,
          6.81818187e-001, 6.81818187e-001, 6.83417082e-001,
          8.80184352e-001, 8.79629612e-001, 8.79629612e-001,
          8.79629612e-001, 8.65429282e-001, 6.49999976e-001,
          6.66666687e-001, 6.66666687e-001, 6.66666687e-001,
          7.60956168e-001, 7.60956168e-001, 7.60956168e-001,
          7.60956168e-001, 8.43619883e-001, 6.31067932e-001,
          6.35922313e-001, 6.45631075e-001, 6.45631075e-001,
          7.64940262e-001, 7.64940262e-001, 7.61904776e-001,
          7.61904776e-001, 8.19511354e-001, 6.00000024e-001,
          6.00000024e-001, 6.09523833e-001, 6.14285707e-001,
          8.55203629e-001, 8.50678742e-001, 8.50678742e-001,
          8.51351380e-001, 7.78241575e-001, 6.76056325e-001,
          6.80751145e-001, 6.80751145e-001, 6.91588759e-001,
          8.30434799e-001, 8.34061146e-001, 8.34061146e-001,
          8.34061146e-001, 8.14470887e-001, 6.55502379e-001,
          6.65071785e-001, 6.69856489e-001, 6.74641132e-001,
          7.42971897e-001, 7.46987939e-001, 7.46987939e-001,
          7.42971897e-001, 8.33512008e-001, 6.91919208e-001,
          6.93467319e-001, 6.98492467e-001, 6.99999988e-001,
          7.51999974e-001, 7.48000026e-001, 7.49004006e-001,
          7.45019913e-001, 8.28661084e-001, 6.37681186e-001,
          6.37681186e-001, 6.39423072e-001, 6.39423072e-001,
          8.59090924e-001, 8.54545474e-001, 8.58447492e-001,
          8.58447492e-001, 8.39546144e-001, 6.31840825e-001,
          6.36815906e-001, 6.43564343e-001, 6.53465331e-001,
          7.45019913e-001, 7.46031761e-001, 7.46031761e-001,
          7.46031761e-001, 8.25422168e-001, 6.51282072e-001,
          6.53061211e-001, 6.58163249e-001, 6.58163249e-001,
          7.49004006e-001, 7.49004006e-001, 7.45019913e-001,
          7.45019913e-001, 7.98445046e-001, 5.91346145e-001,
          6.05769217e-001, 6.10576928e-001, 6.15384638e-001,
          8.16143513e-001, 8.16143513e-001, 8.16964269e-001,
          8.16964269e-001 ]
      - [ 7.66124845e-001, 7.36303329e-001, 7.25248992e-001,
          7.86407650e-001, 7.43553579e-001, 7.27066636e-001,
          7.22330868e-001, 6.82476997e-001, 6.70982301e-001,
          7.34714806e-001, 7.12375045e-001, 7.02705264e-001,
          7.18986690e-001, 7.11923242e-001, 7.09712684e-001,
          6.69177055e-001, 6.39237165e-001, 6.27873003e-001,
          6.97245121e-001, 6.85169578e-001, 6.89335644e-001,
          6.92050457e-001, 6.69841886e-001, 6.66490138e-001,
          6.46640062e-001, 6.22227788e-001, 6.21135294e-001,
          6.59070909e-001, 7.25525975e-001, 7.71573603e-001,
          7.71573603e-001, 7.76649773e-001, 7.76649773e-001,
          7.28448272e-001, 7.28448272e-001, 7.24137902e-001,
          7.25321889e-001, 7.57446945e-001, 7.35294104e-001,
          7.36585379e-001, 7.36585379e-001, 7.36585379e-001,
          7.68888891e-001, 7.72321403e-001, 7.68888891e-001,
          7.68888891e-001, 7.72866547e-001, 7.43718565e-001,
          7.45000005e-001, 7.45000005e-001, 7.50000000e-001,
          7.28813589e-001, 7.31914878e-001, 7.31914878e-001,
          7.31914878e-001, 7.48929560e-001, 7.22772300e-001,
          7.24137902e-001, 7.24137902e-001, 7.24137902e-001,
          7.60181010e-001, 7.61261284e-001, 7.61261284e-001,
          7.61261284e-001, 7.34567642e-001, 7.01923072e-001,
          7.01923072e-001, 7.06730783e-001, 7.06730783e-001,
          7.57847548e-001, 7.62331843e-001, 7.62331843e-001,
          7.63392866e-001, 7.12377250e-001, 6.49532735e-001,
          6.54205620e-001, 6.58878505e-001, 6.58878505e-001,
          7.38197446e-001, 7.35042751e-001, 7.35042751e-001,
          7.35042751e-001, 6.95187211e-001, 6.57407403e-001,
          6.62037015e-001, 6.62037015e-001, 6.62037015e-001,
          7.25321889e-001, 7.30769217e-001, 7.30769217e-001,
          7.31914878e-001, 7.15057850e-001, 7.25490212e-001,
          7.25490212e-001, 7.25490212e-001, 7.26829290e-001,
          7.38938034e-001, 7.34513283e-001, 7.35682845e-001,
          7.35682845e-001, 7.43225992e-001, 7.43589759e-001,
          7.48717964e-001, 7.48717964e-001, 7.48717964e-001,
          7.27678597e-001, 7.28888869e-001, 7.28888869e-001,
          7.28888869e-001, 7.50683486e-001, 7.18592942e-001,
          7.18592942e-001, 7.18592942e-001, 7.14999974e-001,
          6.52000010e-001, 6.48000002e-001, 6.49402380e-001,
          6.49402380e-001, 7.34877825e-001, 7.06467688e-001,
          7.11442769e-001, 7.11442769e-001, 7.11442769e-001,
          7.08695650e-001, 7.47706413e-001, 7.58139551e-001,
          7.58139551e-001, 7.10759938e-001, 6.89999998e-001,
          6.94999993e-001, 6.94999993e-001, 6.94999993e-001,
          6.23481810e-001, 6.23481810e-001, 6.23481810e-001,
          6.25000000e-001, 6.72052860e-001, 6.47342980e-001,
          6.52173936e-001, 6.52173936e-001, 6.52173936e-001,
          6.25497997e-001, 6.21513963e-001, 6.21513963e-001,
          6.21513963e-001, 6.54337466e-001, 6.26168251e-001,
          6.26168251e-001, 6.27906978e-001, 6.27906978e-001,
          6.76855922e-001, 6.76855922e-001, 6.73913062e-001,
          6.73913062e-001, 7.04197645e-001, 7.19211817e-001,
          7.20588207e-001, 7.20588207e-001, 7.20588207e-001,
          7.39910305e-001, 7.41071403e-001, 7.33333349e-001,
          7.28888869e-001, 7.33647048e-001, 7.20000029e-001,
          7.20000029e-001, 7.25000024e-001, 7.25000024e-001,
          6.79324865e-001, 6.75105512e-001, 6.75105512e-001,
          6.77966118e-001, 7.32289076e-001, 7.05882370e-001,
          7.05882370e-001, 7.05882370e-001, 7.10784316e-001,
          6.39676094e-001, 6.35627508e-001, 6.35627508e-001,
          6.34146333e-001, 7.16449738e-001, 6.89320385e-001,
          6.89320385e-001, 6.89320385e-001, 6.89320385e-001,
          6.26506031e-001, 6.22489989e-001, 6.22489989e-001,
          6.22489989e-001, 7.02103496e-001, 6.58536613e-001,
          6.63414657e-001, 6.63414657e-001, 6.63414657e-001,
          6.11999989e-001, 6.10441744e-001, 6.10441744e-001,
          6.10441744e-001, 6.63385212e-001, 6.43564343e-001,
          6.40394092e-001, 6.45320177e-001, 6.45320177e-001,
          6.17283940e-001, 6.25000000e-001, 6.23430967e-001,
          6.26050413e-001, 6.34304523e-001, 6.08490586e-001,
          6.05633795e-001, 6.05633795e-001, 6.10328615e-001,
          6.23931646e-001, 6.25531912e-001, 6.28205121e-001,
          6.23931646e-001, 6.96358800e-001, 7.30964482e-001,
          7.32323229e-001, 7.28643239e-001, 7.30000019e-001,
          7.08520174e-001, 7.08520174e-001, 7.09821403e-001,
          7.13004470e-001, 7.21803904e-001, 7.23618090e-001,
          7.28643239e-001, 7.28643239e-001, 7.28643239e-001,
          6.65271938e-001, 6.72340453e-001, 6.81034505e-001,
          6.86956525e-001, 7.30979562e-001, 7.05882370e-001,
          7.05882370e-001, 7.10784316e-001, 7.10784316e-001,
          6.34538174e-001, 6.30522072e-001, 6.30522072e-001,
          6.26506031e-001, 7.09859908e-001, 6.76328480e-001,
          6.76328480e-001, 6.76328480e-001, 6.77884638e-001,
          6.20000005e-001, 6.20000005e-001, 6.15999997e-001,
          6.15999997e-001, 6.87284410e-001, 6.45631075e-001,
          6.45631075e-001, 6.45631075e-001, 6.45631075e-001,
          6.06425703e-001, 6.02409661e-001, 6.02409661e-001,
          6.02409661e-001, 6.42732143e-001, 6.18811905e-001,
          6.18811905e-001, 6.18811905e-001, 6.18811905e-001,
          5.82995951e-001, 5.87044537e-001, 5.87755084e-001,
          5.87755084e-001, 6.06649339e-001, 5.82938373e-001,
          5.82938373e-001, 5.82938373e-001, 5.84905684e-001,
          6.10389590e-001, 6.12068951e-001, 6.12068951e-001,
          6.12068951e-001, 6.91227078e-001, 6.77570105e-001,
          6.82242990e-001, 6.82242990e-001, 6.82242990e-001,
          7.10526288e-001, 7.09251106e-001, 7.09251106e-001,
          7.09251106e-001, 7.09733486e-001, 7.09359586e-001,
          7.05882370e-001, 7.05882370e-001, 7.05882370e-001,
          7.18181789e-001, 7.19457030e-001, 7.19457030e-001,
          7.19457030e-001, 7.25025237e-001, 7.09999979e-001,
          7.09999979e-001, 7.09999979e-001, 7.09999979e-001,
          6.34146333e-001, 6.41975284e-001, 6.41975284e-001,
          6.41975284e-001, 7.10857987e-001, 6.73267305e-001,
          6.73267305e-001, 6.78217828e-001, 6.78217828e-001,
          6.16935492e-001, 6.15384638e-001, 6.15384638e-001,
          6.16935492e-001, 6.89862728e-001, 6.51741266e-001,
          6.51741266e-001, 6.51741266e-001, 6.51741266e-001,
          5.95141709e-001, 5.97561002e-001, 5.97561002e-001,
          5.93495905e-001, 6.42845690e-001, 6.28712893e-001,
          6.25615776e-001, 6.25615776e-001, 6.25615776e-001,
          6.20689631e-001, 6.24454141e-001, 6.24454141e-001,
          6.29955947e-001, 6.11404955e-001, 5.76190472e-001,
          5.80952406e-001, 5.80952406e-001, 5.78199029e-001,
          6.27802670e-001, 6.29464269e-001, 6.32286966e-001,
          6.27802670e-001, 6.88190997e-001, 6.66666687e-001,
          6.66666687e-001, 6.71296299e-001, 6.71296299e-001,
          7.09251106e-001, 7.10526288e-001, 7.13656366e-001,
          7.13656366e-001, 6.92419350e-001, 6.87804878e-001,
          6.84466004e-001, 6.84466004e-001, 6.89320385e-001,
          6.46586359e-001, 6.42570257e-001, 6.42570257e-001,
          6.38554215e-001, 6.91269875e-001, 6.69950724e-001,
          6.69950724e-001, 6.69950724e-001, 6.74876869e-001,
          6.09561741e-001, 6.09561741e-001, 6.05577707e-001,
          6.05577707e-001, 6.77239835e-001, 6.76767647e-001,
          6.76767647e-001, 6.81818187e-001, 6.78391933e-001,
          6.95852518e-001, 6.94444418e-001, 6.94444418e-001,
          6.94444418e-001, 6.63570762e-001, 6.29999995e-001,
          6.31840825e-001, 6.36815906e-001, 6.36815906e-001,
          5.77689230e-001, 5.77689230e-001, 5.77689230e-001,
          5.77689230e-001, 6.36044502e-001, 6.16504848e-001,
          6.21359229e-001, 6.21359229e-001, 6.21359229e-001,
          5.69721103e-001, 5.65737069e-001, 5.67460299e-001,
          5.67460299e-001, 6.12140477e-001, 5.71428597e-001,
          5.71428597e-001, 5.71428597e-001, 5.71428597e-001,
          6.19909525e-001, 6.19909525e-001, 6.19909525e-001,
          6.17117107e-001, 6.83017552e-001, 6.66666687e-001,
          6.71361506e-001, 6.71361506e-001, 6.68224275e-001,
          6.95652187e-001, 6.94323123e-001, 6.94323123e-001,
          6.94323123e-001, 6.83862746e-001, 6.50717676e-001,
          6.55502379e-001, 6.55502379e-001, 6.55502379e-001,
          6.42570257e-001, 6.42570257e-001, 6.42570257e-001,
          6.42570257e-001, 6.66925669e-001, 6.71717167e-001,
          6.68341696e-001, 6.68341696e-001, 6.65000021e-001,
          6.03999972e-001, 6.03999972e-001, 6.05577707e-001,
          6.01593614e-001, 6.44175470e-001, 6.08695626e-001,
          6.08695626e-001, 6.10576928e-001, 6.15384638e-001,
          6.59090936e-001, 6.59090936e-001, 6.57534242e-001,
          6.57534242e-001, 6.38823450e-001, 6.11940324e-001,
          6.16915405e-001, 6.13861382e-001, 6.18811905e-001,
          5.69721103e-001, 5.71428597e-001, 5.67460299e-001,
          5.67460299e-001, 6.25820756e-001, 6.25641048e-001,
          6.22448981e-001, 6.27551019e-001, 6.27551019e-001,
          5.65737069e-001, 5.65737069e-001, 5.61752975e-001,
          5.61752975e-001, 6.09403789e-001, 5.62500000e-001,
          5.62500000e-001, 5.67307711e-001, 5.72115362e-001,
          6.14349782e-001, 6.14349782e-001, 6.16071403e-001,
          6.16071403e-001 ]
      - [ 6.28729641e-001, 6.26597226e-001, 6.30090356e-001,
          6.81300521e-001, 6.65317893e-001, 6.68696225e-001,
          7.09031463e-001, 6.86900198e-001, 6.92416430e-001,
          6.84895694e-001, 6.70809686e-001, 6.52221501e-001,
          7.41740942e-001, 7.31396496e-001, 7.12950051e-001,
          7.87764251e-001, 7.45165348e-001, 7.26963103e-001,
          6.64260566e-001, 6.50368989e-001, 6.39247775e-001,
          7.37045348e-001, 7.06421733e-001, 6.87929273e-001,
          7.56133020e-001, 7.20381856e-001, 7.09272861e-001,
          6.59070909e-001, 5.94806373e-001, 6.29441619e-001,
          6.29441619e-001, 6.29441619e-001, 6.29441619e-001,
          6.37931049e-001, 6.37931049e-001, 6.33620679e-001,
          6.35193110e-001, 6.15475953e-001, 6.07843161e-001,
          6.09756112e-001, 6.09756112e-001, 6.09756112e-001,
          6.13333344e-001, 6.16071403e-001, 6.17777765e-001,
          6.17777765e-001, 6.36797607e-001, 6.38190925e-001,
          6.34999990e-001, 6.34999990e-001, 6.34999990e-001,
          5.88983059e-001, 5.91489375e-001, 5.91489375e-001,
          5.87234020e-001, 6.30467951e-001, 6.23762369e-001,
          6.25615776e-001, 6.25615776e-001, 6.25615776e-001,
          6.28959298e-001, 6.30630612e-001, 6.30630612e-001,
          6.30630612e-001, 6.40801430e-001, 6.29807711e-001,
          6.29807711e-001, 6.29807711e-001, 6.29807711e-001,
          6.45739913e-001, 6.45739913e-001, 6.45739913e-001,
          6.47321403e-001, 6.54739797e-001, 6.40186906e-001,
          6.44859791e-001, 6.44859791e-001, 6.44859791e-001,
          6.56652331e-001, 6.53846145e-001, 6.53846145e-001,
          6.53846145e-001, 6.86237872e-001, 6.80555582e-001,
          6.80555582e-001, 6.85185194e-001, 6.85185194e-001,
          6.82403445e-001, 6.88034177e-001, 6.83760703e-001,
          6.85106397e-001, 6.11397684e-001, 6.22548997e-001,
          6.22548997e-001, 6.22548997e-001, 6.24390244e-001,
          6.90265477e-001, 6.90265477e-001, 6.91629946e-001,
          6.91629946e-001, 6.58894360e-001, 6.71794891e-001,
          6.71794891e-001, 6.71794891e-001, 6.71794891e-001,
          6.33928597e-001, 6.35555565e-001, 6.35555565e-001,
          6.31111085e-001, 6.81145787e-001, 6.73366845e-001,
          6.78391933e-001, 6.78391933e-001, 6.75000012e-001,
          5.75999975e-001, 5.75999975e-001, 5.77689230e-001,
          5.77689230e-001, 6.80110157e-001, 6.61691546e-001,
          6.61691546e-001, 6.61691546e-001, 6.61691546e-001,
          6.39130414e-001, 6.74311936e-001, 6.79069757e-001,
          6.79069757e-001, 6.90416276e-001, 6.89999998e-001,
          6.89999998e-001, 6.89999998e-001, 6.89999998e-001,
          6.11336052e-001, 6.07287467e-001, 6.07287467e-001,
          6.08870983e-001, 6.97227776e-001, 6.90821230e-001,
          6.90821230e-001, 6.95652187e-001, 6.95652187e-001,
          6.37450218e-001, 6.37450218e-001, 6.33466125e-001,
          6.33466125e-001, 7.16025114e-001, 7.05607474e-001,
          7.05607474e-001, 7.02325583e-001, 7.02325583e-001,
          7.16157198e-001, 7.16157198e-001, 7.17391312e-001,
          7.17391312e-001, 6.29603326e-001, 6.40394092e-001,
          6.37254894e-001, 6.37254894e-001, 6.37254894e-001,
          6.50224209e-001, 6.51785731e-001, 6.53333306e-001,
          6.53333306e-001, 6.88769996e-001, 6.60000026e-001,
          6.65000021e-001, 6.65000021e-001, 6.65000021e-001,
          6.28691971e-001, 6.28691971e-001, 6.28691971e-001,
          6.31355941e-001, 7.08091497e-001, 6.71568632e-001,
          6.71568632e-001, 6.71568632e-001, 6.71568632e-001,
          6.15384638e-001, 6.15384638e-001, 6.15384638e-001,
          6.17886186e-001, 7.05742836e-001, 6.74757302e-001,
          6.74757302e-001, 6.79611623e-001, 6.79611623e-001,
          6.14457846e-001, 6.14457846e-001, 6.14457846e-001,
          6.10441744e-001, 7.32382476e-001, 6.92682922e-001,
          6.92682922e-001, 6.97560966e-001, 6.97560966e-001,
          6.35999978e-001, 6.38554215e-001, 6.38554215e-001,
          6.38554215e-001, 7.37957299e-001, 7.37623751e-001,
          7.33990133e-001, 7.38916278e-001, 7.38916278e-001,
          6.74897134e-001, 6.83333337e-001, 6.86192453e-001,
          6.89075649e-001, 7.32083321e-001, 7.26415098e-001,
          7.23004699e-001, 7.27699518e-001, 7.27699518e-001,
          7.09401727e-001, 7.10638285e-001, 7.09401727e-001,
          7.09401727e-001, 6.40030384e-001, 6.70050740e-001,
          6.66666687e-001, 6.63316607e-001, 6.60000026e-001,
          6.45739913e-001, 6.45739913e-001, 6.47321403e-001,
          6.45739913e-001, 6.92413270e-001, 6.98492467e-001,
          7.03517616e-001, 7.03517616e-001, 7.03517616e-001,
          6.31799161e-001, 6.42553210e-001, 6.50862098e-001,
          6.56521738e-001, 7.25118518e-001, 7.00980365e-001,
          7.00980365e-001, 7.00980365e-001, 7.05882370e-001,
          6.30522072e-001, 6.26506031e-001, 6.26506031e-001,
          6.26506031e-001, 7.24577427e-001, 6.95652187e-001,
          6.95652187e-001, 6.95652187e-001, 6.92307711e-001,
          6.24000013e-001, 6.24000013e-001, 6.24000013e-001,
          6.24000013e-001, 7.53591657e-001, 7.23300993e-001,
          7.23300993e-001, 7.28155315e-001, 7.28155315e-001,
          6.42570257e-001, 6.38554215e-001, 6.38554215e-001,
          6.38554215e-001, 7.57555306e-001, 7.52475262e-001,
          7.52475262e-001, 7.52475262e-001, 7.52475262e-001,
          6.63967609e-001, 6.68016195e-001, 6.69387758e-001,
          6.69387758e-001, 7.39932716e-001, 7.20379174e-001,
          7.20379174e-001, 7.25118458e-001, 7.21698105e-001,
          7.22943723e-001, 7.24137902e-001, 7.24137902e-001,
          7.24137902e-001, 6.25616014e-001, 6.02803767e-001,
          6.02803767e-001, 6.02803767e-001, 6.02803767e-001,
          6.40350878e-001, 6.43171787e-001, 6.38766527e-001,
          6.38766527e-001, 6.61058843e-001, 6.65024638e-001,
          6.66666687e-001, 6.66666687e-001, 6.66666687e-001,
          6.59090936e-001, 6.60633504e-001, 6.60633504e-001,
          6.60633504e-001, 7.02933192e-001, 6.89999998e-001,
          6.89999998e-001, 6.89999998e-001, 6.94999993e-001,
          6.21951222e-001, 6.29629612e-001, 6.29629612e-001,
          6.29629612e-001, 7.21007645e-001, 6.88118815e-001,
          6.88118815e-001, 6.98019803e-001, 6.98019803e-001,
          6.16935492e-001, 6.19433224e-001, 6.19433224e-001,
          6.20967746e-001, 7.48145401e-001, 6.41791046e-001,
          6.41791046e-001, 6.56716406e-001, 6.61691546e-001,
          6.43724680e-001, 6.42276406e-001, 6.42276406e-001,
          6.42276406e-001, 7.39178181e-001, 7.37623751e-001,
          7.33990133e-001, 7.33990133e-001, 7.38916278e-001,
          7.11206913e-001, 7.20524013e-001, 7.16157198e-001,
          7.22466946e-001, 7.20882833e-001, 5.38095236e-001,
          5.38095236e-001, 5.42857170e-001, 5.54502368e-001,
          7.30941713e-001, 7.32142866e-001, 7.30941713e-001,
          7.30941713e-001, 6.23272121e-001, 5.92592597e-001,
          5.92592597e-001, 5.92592597e-001, 5.92592597e-001,
          6.29955947e-001, 6.31578922e-001, 6.34361207e-001,
          6.34361207e-001, 6.53565586e-001, 6.58536613e-001,
          6.60194159e-001, 6.60194159e-001, 6.60194159e-001,
          5.90361416e-001, 5.86345375e-001, 5.86345375e-001,
          5.86345375e-001, 6.81169093e-001, 6.74876869e-001,
          6.74876869e-001, 6.74876869e-001, 6.79802954e-001,
          5.93625486e-001, 5.93625486e-001, 5.89641452e-001,
          5.89641452e-001, 6.91929460e-001, 7.02020228e-001,
          7.02020228e-001, 7.02020228e-001, 6.98492467e-001,
          6.91244245e-001, 6.94444418e-001, 6.89814806e-001,
          6.89814806e-001, 7.22329080e-001, 7.14999974e-001,
          7.11442769e-001, 7.11442769e-001, 7.11442769e-001,
          6.21513963e-001, 6.17529869e-001, 6.17529869e-001,
          6.17529869e-001, 7.24344075e-001, 7.13592231e-001,
          7.18446612e-001, 7.18446612e-001, 7.18446612e-001,
          6.41434252e-001, 6.41434252e-001, 6.38888896e-001,
          6.38888896e-001, 7.15638041e-001, 3.71428579e-001,
          3.90476197e-001, 3.95238101e-001, 4.00000006e-001,
          7.14932144e-001, 7.14932144e-001, 7.14932144e-001,
          7.16216207e-001, 6.45548701e-001, 6.38497651e-001,
          6.38497651e-001, 6.43192470e-001, 6.40186906e-001,
          6.56521738e-001, 6.55021846e-001, 6.55021846e-001,
          6.55021846e-001, 6.62666738e-001, 6.55502379e-001,
          6.60287082e-001, 6.60287082e-001, 6.60287082e-001,
          5.98393559e-001, 5.98393559e-001, 5.98393559e-001,
          5.98393559e-001, 6.86784029e-001, 7.02020228e-001,
          7.03517616e-001, 7.03517616e-001, 6.99999988e-001,
          6.07999980e-001, 6.03999972e-001, 6.05577707e-001,
          6.01593614e-001, 6.96873724e-001, 6.95652187e-001,
          6.95652187e-001, 6.92307711e-001, 6.92307711e-001,
          7.04545438e-001, 7.04545438e-001, 7.03196347e-001,
          7.03196347e-001, 7.21234441e-001, 7.26368189e-001,
          7.26368189e-001, 7.22772300e-001, 7.22772300e-001,
          6.25497997e-001, 6.26984119e-001, 6.23015881e-001,
          6.23015881e-001, 7.21990764e-001, 7.43589759e-001,
          7.44897962e-001, 7.44897962e-001, 7.50000000e-001,
          6.41434252e-001, 6.41434252e-001, 6.37450218e-001,
          6.33466125e-001, 7.13980973e-001, 7.01923072e-001,
          7.01923072e-001, 7.01923072e-001, 7.01923072e-001,
          7.26457417e-001, 7.26457417e-001, 7.27678597e-001,
          7.27678597e-001 ]
      - [ 5.85591555e-001, 5.63517988e-001, 5.59931874e-001,
          6.72833383e-001, 6.40214384e-001, 6.19780362e-001,
          5.66639483e-001, 5.38840771e-001, 5.37537992e-001,
          6.43514097e-001, 6.22648776e-001, 6.34336948e-001,
          6.55164003e-001, 6.44199908e-001, 6.41791284e-001,
          6.30763948e-001, 6.37643099e-001, 6.35857463e-001,
          5.85041881e-001, 5.73335707e-001, 5.73470891e-001,
          6.66726947e-001, 6.27638876e-001, 6.21405840e-001,
          6.00159287e-001, 5.83069921e-001, 5.87311685e-001,
          3.21079880e-001, 5.18471539e-001, 8.12182724e-002,
          8.12182724e-002, 8.12182724e-002, 8.62944126e-002,
          7.80172408e-001, 7.80172408e-001, 7.75862098e-001,
          7.76824057e-001, 5.32451987e-001, 8.33333358e-002,
          8.29268321e-002, 8.29268321e-002, 8.78048763e-002,
          6.53333306e-001, 6.56250000e-001, 6.57777786e-001,
          6.53333306e-001, 5.72440982e-001, 1.00502513e-001,
          1.00000001e-001, 1.00000001e-001, 1.00000001e-001,
          6.31355941e-001, 6.34042561e-001, 6.34042561e-001,
          6.34042561e-001, 6.31050825e-001, 2.77227730e-001,
          2.75862068e-001, 2.75862068e-001, 2.75862068e-001,
          8.41628969e-001, 8.37837815e-001, 8.37837815e-001,
          8.37837815e-001, 6.02440834e-001, 1.53846160e-001,
          1.53846160e-001, 1.58653840e-001, 1.58653840e-001,
          8.34080696e-001, 8.38565052e-001, 8.34080696e-001,
          8.30357134e-001, 5.13074875e-001, 7.00934604e-002,
          7.00934604e-002, 7.00934604e-002, 7.00934604e-002,
          7.51072943e-001, 7.47863233e-001, 7.47863233e-001,
          7.47863233e-001, 4.70628053e-001, 5.55555560e-002,
          5.55555560e-002, 5.55555560e-002, 5.55555560e-002,
          6.05150223e-001, 6.11111104e-001, 6.11111104e-001,
          6.12765968e-001, 5.57950974e-001, 6.37254938e-002,
          6.37254938e-002, 6.86274543e-002, 6.82926849e-002,
          6.54867232e-001, 6.50442481e-001, 6.51982367e-001,
          6.51982367e-001, 5.35335600e-001, 7.17948750e-002,
          7.17948750e-002, 7.69230798e-002, 8.20512846e-002,
          6.60714269e-001, 6.62222207e-001, 6.62222207e-001,
          6.62222207e-001, 7.56690800e-001, 1.65829152e-001,
          1.65829152e-001, 1.70854270e-001, 1.70000002e-001, 1., 1., 1.,
          1., 5.32651961e-001, 4.97512445e-002, 4.97512445e-002,
          4.97512445e-002, 5.47263697e-002, 6.34782612e-001,
          6.69724762e-001, 6.79069757e-001, 6.79069757e-001,
          7.29406714e-001, 1.55000001e-001, 1.59999996e-001,
          1.65000007e-001, 1.65000007e-001, 1., 1., 1., 1.,
          5.12000918e-001, 7.24637657e-002, 7.24637657e-002,
          7.24637657e-002, 7.24637657e-002, 6.13545835e-001,
          6.13545835e-001, 6.09561741e-001, 6.09561741e-001,
          5.47621191e-001, 6.54205605e-002, 7.00934604e-002,
          6.97674453e-002, 6.97674453e-002, 6.24454141e-001,
          6.24454141e-001, 6.26086950e-001, 6.21739149e-001,
          6.43783271e-001, 1.03448279e-001, 1.02941178e-001,
          1.07843138e-001, 1.07843138e-001, 6.59192801e-001,
          6.60714269e-001, 6.62222207e-001, 6.57777786e-001,
          6.47095084e-001, 5.99999987e-002, 6.49999976e-002,
          6.49999976e-002, 6.49999976e-002, 6.32911384e-001,
          6.32911384e-001, 6.32911384e-001, 6.35593235e-001,
          5.94466746e-001, 6.37254938e-002, 6.37254938e-002,
          6.37254938e-002, 6.37254938e-002, 6.23481810e-001,
          6.23481810e-001, 6.23481810e-001, 6.26016259e-001,
          6.50951564e-001, 1.06796116e-001, 1.06796116e-001,
          1.06796116e-001, 1.06796116e-001, 5.94377518e-001,
          5.94377518e-001, 5.90361416e-001, 5.90361416e-001,
          5.81849754e-001, 6.34146333e-002, 6.34146333e-002,
          6.82926849e-002, 6.82926849e-002, 6.07999980e-001,
          6.10441744e-001, 6.10441744e-001, 6.10441744e-001,
          6.10064209e-001, 6.43564388e-002, 6.89655170e-002,
          6.89655170e-002, 7.38916248e-002, 6.04938269e-001,
          6.12500012e-001, 6.10878646e-001, 6.13445401e-001,
          6.18737996e-001, 1.03773586e-001, 1.03286386e-001,
          1.03286386e-001, 1.03286386e-001, 6.23931646e-001,
          6.25531912e-001, 6.28205121e-001, 6.28205121e-001,
          5.60186982e-001, 7.61421323e-002, 7.57575780e-002,
          7.53768831e-002, 7.50000030e-002, 6.50224209e-001,
          6.50224209e-001, 6.51785731e-001, 6.54708505e-001,
          6.42532945e-001, 6.53266311e-002, 7.03517571e-002,
          7.03517571e-002, 7.03517571e-002, 6.31799161e-001,
          6.42553210e-001, 6.46551728e-001, 6.52173936e-001,
          6.86653256e-001, 1.47058830e-001, 1.47058830e-001,
          1.51960790e-001, 1.51960790e-001, 5.98393559e-001,
          5.98393559e-001, 5.98393559e-001, 5.98393559e-001,
          5.55204153e-001, 4.34782617e-002, 4.83091772e-002,
          4.83091772e-002, 5.28846160e-002, 5.83999991e-001,
          5.83999991e-001, 5.83999991e-001, 5.83999991e-001,
          6.81058824e-001, 1.84466019e-001, 1.84466019e-001,
          1.84466019e-001, 1.89320385e-001, 5.86345375e-001,
          5.86345375e-001, 5.82329333e-001, 5.82329333e-001,
          6.50250971e-001, 4.45544571e-002, 4.45544571e-002,
          4.45544571e-002, 4.45544571e-002, 5.91093123e-001,
          5.95141709e-001, 5.95918357e-001, 5.95918357e-001,
          6.18847549e-001, 8.05687234e-002, 8.05687234e-002,
          8.05687234e-002, 8.01886767e-002, 6.36363626e-001,
          6.33620679e-001, 6.33620679e-001, 6.33620679e-001,
          6.34078979e-001, 1.07476637e-001, 1.07476637e-001,
          1.07476637e-001, 1.07476637e-001, 6.53508782e-001,
          6.56387687e-001, 6.56387687e-001, 6.56387687e-001,
          6.61465585e-001, 8.86699483e-002, 8.82352963e-002,
          9.31372568e-002, 9.31372568e-002, 6.68181837e-001,
          6.69683278e-001, 6.69683278e-001, 6.69683278e-001,
          6.68876350e-001, 1.00000001e-001, 1.00000001e-001,
          1.00000001e-001, 1.00000001e-001, 6.01626039e-001,
          6.09053493e-001, 6.09053493e-001, 6.09053493e-001,
          6.68603718e-001, 4.45544571e-002, 4.45544571e-002,
          4.45544571e-002, 4.45544571e-002, 6.04838729e-001,
          6.07287467e-001, 6.07287467e-001, 6.08870983e-001,
          6.74586296e-001, 1.19402982e-001, 1.24378107e-001,
          1.29353240e-001, 1.29353240e-001, 6.19433224e-001,
          6.17886186e-001, 6.17886186e-001, 6.17886186e-001,
          6.68298423e-001, 9.40594077e-002, 9.35960561e-002,
          9.35960561e-002, 9.85221639e-002, 6.46551728e-001,
          6.55021846e-001, 6.50655031e-001, 6.56387687e-001,
          6.41235888e-001, 9.52380970e-002, 9.52380970e-002,
          9.52380970e-002, 9.47867334e-002, 6.54708505e-001,
          6.56250000e-001, 6.59192801e-001, 6.54708505e-001,
          6.17817163e-001, 1.11111112e-001, 1.15740739e-001,
          1.20370373e-001, 1.25000000e-001, 6.43171787e-001,
          6.44736826e-001, 6.47577107e-001, 6.47577107e-001,
          5.89739084e-001, 9.75609720e-002, 9.70873758e-002,
          9.70873758e-002, 9.70873758e-002, 5.86345375e-001,
          5.86345375e-001, 5.82329333e-001, 5.82329333e-001,
          6.87470317e-001, 1.03448279e-001, 1.03448279e-001,
          1.08374387e-001, 1.08374387e-001, 1., 1., 1., 1.,
          6.72667325e-001, 1.96969703e-001, 1.96969703e-001,
          2.02020198e-001, 2.01005027e-001, 7.09677398e-001,
          7.08333313e-001, 7.08333313e-001, 7.08333313e-001,
          7.18028665e-001, 1.35000005e-001, 1.44278601e-001,
          1.49253726e-001, 1.54228851e-001, 1., 1., 1., 1.,
          6.23904526e-001, 8.73786435e-002, 8.73786435e-002,
          8.73786435e-002, 8.73786435e-002, 6.45418346e-001,
          6.45418346e-001, 6.46825373e-001, 6.46825373e-001,
          6.21101201e-001, 2.00000003e-001, 2.00000003e-001,
          2.00000003e-001, 2.00000003e-001, 6.42533958e-001,
          6.42533958e-001, 6.38009071e-001, 6.39639616e-001,
          5.19403338e-001, 8.45070407e-002, 8.45070407e-002,
          8.45070407e-002, 8.41121525e-002, 6.21739149e-001,
          6.24454141e-001, 6.24454141e-001, 6.20087326e-001,
          5.05961001e-001, 1.00478470e-001, 1.00478470e-001,
          1.00478470e-001, 1.00478470e-001, 5.66265047e-001,
          5.70281148e-001, 5.70281148e-001, 5.70281148e-001,
          6.20542705e-001, 2.82828271e-001, 2.81407028e-001,
          2.86432147e-001, 2.84999996e-001, 9.87999976e-001,
          9.84000027e-001, 9.84063745e-001, 9.80079710e-001,
          4.53132629e-001, 8.21256042e-002, 8.69565234e-002,
          8.65384638e-002, 8.65384638e-002, 6.40909076e-001,
          6.36363626e-001, 6.39269412e-001, 6.39269412e-001,
          6.38578653e-001, 3.03482592e-001, 3.08457702e-001,
          3.06930691e-001, 3.06930691e-001, 1., 1., 1., 1.,
          5.21489859e-001, 7.17948750e-002, 7.65306130e-002,
          7.65306130e-002, 7.65306130e-002, 5.93625486e-001,
          5.89641452e-001, 5.89641452e-001, 5.89641452e-001,
          4.95672762e-001, 6.73076957e-002, 6.73076957e-002,
          6.73076957e-002, 6.73076957e-002, 6.14349782e-001,
          6.14349782e-001, 6.16071403e-001, 6.16071403e-001 ]
      - [ 7.34761715e-001, 7.09843636e-001, 6.98371232e-001,
          7.63322771e-001, 7.34306157e-001, 7.22423851e-001,
          7.10207880e-001, 6.87945127e-001, 6.78763986e-001,
          7.18587875e-001, 6.93724096e-001, 6.81692064e-001,
          6.96606457e-001, 6.89828217e-001, 6.89788461e-001,
          6.97091877e-001, 6.72515988e-001, 6.62109911e-001,
          6.77264214e-001, 6.54742479e-001, 6.44615293e-001,
          6.88254416e-001, 6.62252426e-001, 6.51725352e-001,
          6.62710190e-001, 6.39087200e-001, 6.30078733e-001,
          2.34787650e-002, 7.04031110e-001, 7.66497433e-001,
          7.66497433e-001, 7.66497433e-001, 7.66497433e-001,
          6.93965495e-001, 6.93965495e-001, 6.93965495e-001,
          6.95278943e-001, 7.24026382e-001, 7.30392158e-001,
          7.31707335e-001, 7.31707335e-001, 7.31707335e-001,
          7.20000029e-001, 7.23214269e-001, 7.24444449e-001,
          7.24444449e-001, 7.48754799e-001, 7.53768861e-001,
          7.50000000e-001, 7.50000000e-001, 7.54999995e-001,
          6.86440706e-001, 6.89361691e-001, 6.89361691e-001,
          6.89361691e-001, 7.41296291e-001, 7.57425725e-001,
          7.53694594e-001, 7.58620679e-001, 7.58620679e-001,
          7.37556577e-001, 7.38738716e-001, 7.38738716e-001,
          7.38738716e-001, 7.24054337e-001, 7.21153855e-001,
          7.21153855e-001, 7.21153855e-001, 7.21153855e-001,
          7.21973121e-001, 7.26457417e-001, 7.21973121e-001,
          7.23214269e-001, 7.09607899e-001, 6.96261704e-001,
          7.00934589e-001, 7.00934589e-001, 7.00934589e-001,
          6.99570835e-001, 7.00854719e-001, 7.00854719e-001,
          7.00854719e-001, 6.94215775e-001, 6.89814806e-001,
          6.89814806e-001, 6.89814806e-001, 6.89814806e-001,
          6.90987110e-001, 6.96581185e-001, 6.96581185e-001,
          6.93617046e-001, 6.88942730e-001, 7.25490212e-001,
          7.30392158e-001, 7.30392158e-001, 7.26829290e-001,
          6.94690287e-001, 6.94690287e-001, 6.96035266e-001,
          6.91629946e-001, 7.10174382e-001, 7.53846169e-001,
          7.58974373e-001, 7.58974373e-001, 7.58974373e-001,
          6.69642866e-001, 6.66666687e-001, 6.66666687e-001,
          6.66666687e-001, 7.31638432e-001, 7.43718565e-001,
          7.43718565e-001, 7.43718565e-001, 7.40000010e-001,
          6.03999972e-001, 6.03999972e-001, 6.05577707e-001,
          6.05577707e-001, 7.32368946e-001, 7.36318409e-001,
          7.36318409e-001, 7.36318409e-001, 7.41293550e-001,
          6.69565201e-001, 7.06422031e-001, 7.16279089e-001,
          7.16279089e-001, 7.08973289e-001, 7.35000014e-001,
          7.35000014e-001, 7.35000014e-001, 7.35000014e-001,
          5.99190295e-001, 5.99190295e-001, 5.99190295e-001,
          6.00806475e-001, 6.77405953e-001, 7.00483084e-001,
          7.00483084e-001, 7.05313981e-001, 7.05313981e-001,
          6.01593614e-001, 6.01593614e-001, 6.01593614e-001,
          6.01593614e-001, 6.66776896e-001, 6.77570105e-001,
          6.77570105e-001, 6.74418628e-001, 6.74418628e-001,
          6.55021846e-001, 6.55021846e-001, 6.56521738e-001,
          6.56521738e-001, 6.83471739e-001, 7.33990133e-001,
          7.30392158e-001, 7.30392158e-001, 7.30392158e-001,
          6.68161452e-001, 6.69642866e-001, 6.71111107e-001,
          6.71111107e-001, 7.17511952e-001, 7.35000014e-001,
          7.35000014e-001, 7.40000010e-001, 7.40000010e-001,
          6.32911384e-001, 6.32911384e-001, 6.32911384e-001,
          6.35593235e-001, 7.19989657e-001, 7.15686262e-001,
          7.15686262e-001, 7.15686262e-001, 7.15686262e-001,
          6.03238881e-001, 6.03238881e-001, 5.99190295e-001,
          6.01626039e-001, 7.07628012e-001, 6.74757302e-001,
          6.79611623e-001, 6.79611623e-001, 6.79611623e-001,
          5.94377518e-001, 5.94377518e-001, 5.94377518e-001,
          5.94377518e-001, 7.09828615e-001, 6.92682922e-001,
          6.92682922e-001, 6.92682922e-001, 6.92682922e-001,
          5.92000008e-001, 5.94377518e-001, 5.90361416e-001,
          5.90361416e-001, 6.86065435e-001, 7.17821777e-001,
          7.14285731e-001, 7.14285731e-001, 7.14285731e-001,
          6.04938269e-001, 6.12500012e-001, 6.15062773e-001,
          6.17647052e-001, 6.62870228e-001, 6.69811308e-001,
          6.66666687e-001, 6.71361506e-001, 6.71361506e-001,
          6.28205121e-001, 6.29787207e-001, 6.32478654e-001,
          6.28205121e-001, 6.81537867e-001, 7.51269042e-001,
          7.47474730e-001, 7.43718565e-001, 7.40000010e-001,
          6.59192801e-001, 6.59192801e-001, 6.60714269e-001,
          6.63677156e-001, 7.02364683e-001, 7.18592942e-001,
          7.18592942e-001, 7.18592942e-001, 7.18592942e-001,
          6.23430967e-001, 6.34042561e-001, 6.42241359e-001,
          6.43478274e-001, 7.03720033e-001, 6.86274529e-001,
          6.86274529e-001, 6.86274529e-001, 6.86274529e-001,
          5.94377518e-001, 5.94377518e-001, 5.94377518e-001,
          5.94377518e-001, 6.66437745e-001, 6.57004833e-001,
          6.57004833e-001, 6.57004833e-001, 6.53846145e-001,
          5.79999983e-001, 5.79999983e-001, 5.79999983e-001,
          5.79999983e-001, 6.81250751e-001, 6.65048540e-001,
          6.65048540e-001, 6.65048540e-001, 6.65048540e-001,
          5.70281148e-001, 5.70281148e-001, 5.70281148e-001,
          5.70281148e-001, 6.81023836e-001, 6.93069279e-001,
          6.93069279e-001, 6.93069279e-001, 6.93069279e-001,
          5.87044537e-001, 5.91093123e-001, 5.95918357e-001,
          5.95918357e-001, 6.60079777e-001, 6.58767760e-001,
          6.58767760e-001, 6.58767760e-001, 6.60377383e-001,
          6.32034659e-001, 6.29310369e-001, 6.29310369e-001,
          6.29310369e-001, 6.70865059e-001, 6.86915874e-001,
          6.86915874e-001, 6.86915874e-001, 6.86915874e-001,
          6.62280679e-001, 6.65198267e-001, 6.65198267e-001,
          6.65198267e-001, 6.83336675e-001, 7.04433501e-001,
          7.00980365e-001, 7.00980365e-001, 7.00980365e-001,
          6.63636386e-001, 6.65158391e-001, 6.65158391e-001,
          6.65158391e-001, 6.96699262e-001, 7.04999983e-001,
          7.09999979e-001, 7.09999979e-001, 7.09999979e-001,
          5.85365832e-001, 5.92592597e-001, 5.92592597e-001,
          5.92592597e-001, 6.90875411e-001, 6.78217828e-001,
          6.78217828e-001, 6.78217828e-001, 6.78217828e-001,
          5.72580636e-001, 5.74898779e-001, 5.74898779e-001,
          5.72580636e-001, 6.78018928e-001, 6.71641767e-001,
          6.71641767e-001, 6.71641767e-001, 6.71641767e-001,
          5.66801608e-001, 5.69105685e-001, 5.69105685e-001,
          5.69105685e-001, 6.63256705e-001, 6.78217828e-001,
          6.74876869e-001, 6.74876869e-001, 6.74876869e-001,
          6.25000000e-001, 6.33187771e-001, 6.28820956e-001,
          6.34361207e-001, 6.49821222e-001, 6.57142878e-001,
          6.57142878e-001, 6.57142878e-001, 6.54028416e-001,
          6.36771321e-001, 6.38392866e-001, 6.41255617e-001,
          6.41255617e-001, 6.58042908e-001, 6.57407403e-001,
          6.57407403e-001, 6.57407403e-001, 6.57407403e-001,
          6.56387687e-001, 6.53508782e-001, 6.56387687e-001,
          6.56387687e-001, 6.60970986e-001, 6.82926834e-001,
          6.79611623e-001, 6.79611623e-001, 6.79611623e-001,
          5.86345375e-001, 5.86345375e-001, 5.86345375e-001,
          5.86345375e-001, 6.69430435e-001, 6.84729040e-001,
          6.84729040e-001, 6.84729040e-001, 6.84729040e-001,
          5.65737069e-001, 5.65737069e-001, 5.65737069e-001,
          5.65737069e-001, 6.69783533e-001, 7.02020228e-001,
          7.02020228e-001, 7.02020228e-001, 6.98492467e-001,
          6.49769604e-001, 6.52777791e-001, 6.52777791e-001,
          6.52777791e-001, 6.67004406e-001, 6.85000002e-001,
          6.81592047e-001, 6.81592047e-001, 6.81592047e-001,
          5.61752975e-001, 5.57768941e-001, 5.57768941e-001,
          5.57768941e-001, 6.45977139e-001, 6.60194159e-001,
          6.65048540e-001, 6.65048540e-001, 6.65048540e-001,
          5.49800813e-001, 5.49800813e-001, 5.51587284e-001,
          5.51587284e-001, 6.36970341e-001, 6.47619069e-001,
          6.47619069e-001, 6.47619069e-001, 6.47619069e-001,
          6.15384638e-001, 6.15384638e-001, 6.15384638e-001,
          6.17117107e-001, 6.40875161e-001, 6.52582169e-001,
          6.57276988e-001, 6.57276988e-001, 6.54205620e-001,
          6.34782612e-001, 6.37554586e-001, 6.33187771e-001,
          6.33187771e-001, 6.45568669e-001, 6.45933032e-001,
          6.45933032e-001, 6.50717676e-001, 6.50717676e-001,
          5.70281148e-001, 5.74297190e-001, 5.74297190e-001,
          5.70281148e-001, 6.42507672e-001, 6.76767647e-001,
          6.73366845e-001, 6.73366845e-001, 6.70000017e-001,
          5.51999986e-001, 5.51999986e-001, 5.49800813e-001,
          5.49800813e-001, 6.37219489e-001, 6.47342980e-001,
          6.47342980e-001, 6.44230783e-001, 6.44230783e-001,
          6.31818175e-001, 6.31818175e-001, 6.34703219e-001,
          6.34703219e-001, 6.47677362e-001, 6.71641767e-001,
          6.71641767e-001, 6.68316841e-001, 6.68316841e-001,
          5.49800813e-001, 5.51587284e-001, 5.51587284e-001,
          5.51587284e-001, 6.36027813e-001, 6.82051301e-001,
          6.78571403e-001, 6.83673441e-001, 6.83673441e-001,
          5.45816720e-001, 5.45816720e-001, 5.41832685e-001,
          5.41832685e-001, 6.21885657e-001, 6.39423072e-001,
          6.39423072e-001, 6.39423072e-001, 6.39423072e-001,
          6.00896835e-001, 6.00896835e-001, 6.02678597e-001,
          6.02678597e-001 ]
      - [ 6.18914008e-001, 6.05362952e-001, 6.07404292e-001,
          6.50948882e-001, 6.29840851e-001, 6.16710305e-001,
          6.53201878e-001, 6.36164248e-001, 6.24772072e-001,
          6.90046072e-001, 6.63711429e-001, 6.53589129e-001,
          7.44500220e-001, 7.31983364e-001, 7.17596829e-001,
          8.16171885e-001, 7.91298985e-001, 7.76388824e-001,
          6.50116920e-001, 6.30286694e-001, 6.24350011e-001,
          7.48087943e-001, 7.11133063e-001, 6.94804549e-001,
          7.88609505e-001, 7.62625217e-001, 7.52574265e-001,
          6.59070909e-001, 5.84896564e-001, 5.07614195e-001,
          5.07614195e-001, 5.12690365e-001, 5.22842646e-001,
          5.94827592e-001, 5.90517223e-001, 5.90517223e-001,
          5.92274666e-001, 5.87635577e-001, 5.73529422e-001,
          5.70731699e-001, 5.70731699e-001, 5.70731699e-001,
          5.95555544e-001, 5.98214269e-001, 5.95555544e-001,
          5.95555544e-001, 6.04108214e-001, 5.77889442e-001,
          5.79999983e-001, 5.79999983e-001, 5.79999983e-001,
          5.59322059e-001, 5.61702132e-001, 5.61702132e-001,
          5.61702132e-001, 5.89000523e-001, 5.89108884e-001,
          5.86206913e-001, 5.91132998e-001, 5.91132998e-001,
          6.19909525e-001, 6.17117107e-001, 6.17117107e-001,
          6.12612605e-001, 5.74928403e-001, 5.57692289e-001,
          5.57692289e-001, 5.57692289e-001, 5.62500000e-001,
          5.82959652e-001, 5.87443948e-001, 5.87443948e-001,
          5.84821403e-001, 5.83031237e-001, 5.60747683e-001,
          5.60747683e-001, 5.60747683e-001, 5.60747683e-001,
          5.92274666e-001, 5.94017088e-001, 5.94017088e-001,
          5.89743614e-001, 6.06713831e-001, 5.87962985e-001,
          5.87962985e-001, 5.87962985e-001, 5.87962985e-001,
          6.43776834e-001, 6.45299137e-001, 6.36752129e-001,
          6.34042561e-001, 5.91278911e-001, 5.93137264e-001,
          5.98039210e-001, 5.98039210e-001, 5.95121980e-001,
          5.92920363e-001, 5.92920363e-001, 5.90308368e-001,
          5.90308368e-001, 6.29532039e-001, 6.00000024e-001,
          6.00000024e-001, 6.10256433e-001, 6.10256433e-001,
          6.11607134e-001, 6.13333344e-001, 6.08888865e-001,
          6.08888865e-001, 6.51962399e-001, 6.18090451e-001,
          6.23115599e-001, 6.23115599e-001, 6.20000005e-001,
          5.60000002e-001, 5.55999994e-001, 5.57768941e-001,
          5.57768941e-001, 6.40771568e-001, 6.31840825e-001,
          6.31840825e-001, 6.31840825e-001, 6.31840825e-001,
          6.73913062e-001, 7.06422031e-001, 7.06976771e-001,
          7.06976771e-001, 6.37174904e-001, 5.64999998e-001,
          5.64999998e-001, 5.64999998e-001, 5.69999993e-001,
          5.62753022e-001, 5.62753022e-001, 5.62753022e-001,
          5.64516127e-001, 6.36621594e-001, 6.18357480e-001,
          6.18357480e-001, 6.23188376e-001, 6.23188376e-001,
          6.01593614e-001, 5.97609580e-001, 5.97609580e-001,
          5.97609580e-001, 6.69749320e-001, 6.40186906e-001,
          6.40186906e-001, 6.37209296e-001, 6.41860485e-001,
          6.98689938e-001, 6.98689938e-001, 6.99999988e-001,
          6.99999988e-001, 6.31616056e-001, 6.35468006e-001,
          6.32352948e-001, 6.37254894e-001, 6.37254894e-001,
          6.45739913e-001, 6.47321403e-001, 6.44444466e-001,
          6.44444466e-001, 6.76801860e-001, 6.60000026e-001,
          6.60000026e-001, 6.60000026e-001, 6.60000026e-001,
          6.37130797e-001, 6.37130797e-001, 6.32911384e-001,
          6.35593235e-001, 7.04194784e-001, 6.22548997e-001,
          6.32352948e-001, 6.42156839e-001, 6.42156839e-001,
          6.31578922e-001, 6.31578922e-001, 6.31578922e-001,
          6.30081296e-001, 7.00965047e-001, 6.21359229e-001,
          6.21359229e-001, 6.26213610e-001, 6.35922313e-001,
          6.54618502e-001, 6.50602400e-001, 6.46586359e-001,
          6.46586359e-001, 7.28948593e-001, 6.68292701e-001,
          6.68292701e-001, 6.68292701e-001, 6.68292701e-001,
          7.27999985e-001, 7.26907611e-001, 7.22891569e-001,
          7.22891569e-001, 7.41201937e-001, 7.02970326e-001,
          6.99507415e-001, 6.99507415e-001, 6.99507415e-001,
          7.73662567e-001, 7.79166639e-001, 7.74058580e-001,
          7.73109257e-001, 7.69847035e-001, 7.02830195e-001,
          6.99530542e-001, 6.99530542e-001, 6.99530542e-001,
          7.99145281e-001, 7.95744658e-001, 7.99145281e-001,
          7.94871807e-001, 6.46775305e-001, 6.85279191e-001,
          6.81818187e-001, 6.83417082e-001, 6.80000007e-001,
          6.41255617e-001, 6.36771321e-001, 6.38392866e-001,
          6.41255617e-001, 6.80398643e-001, 6.18090451e-001,
          6.28140688e-001, 6.28140688e-001, 6.33165836e-001,
          6.23430967e-001, 6.34042561e-001, 6.42241359e-001,
          6.43478274e-001, 7.15494990e-001, 6.56862736e-001,
          6.61764681e-001, 6.66666687e-001, 6.71568632e-001,
          6.38554215e-001, 6.34538174e-001, 6.34538174e-001,
          6.30522072e-001, 7.30769038e-001, 6.13526583e-001,
          6.18357480e-001, 6.23188376e-001, 6.20192289e-001,
          7.20000029e-001, 7.16000021e-001, 7.08000004e-001,
          6.99999988e-001, 7.64271677e-001, 7.08737850e-001,
          7.08737850e-001, 7.13592231e-001, 7.13592231e-001,
          6.94779098e-001, 6.94779098e-001, 6.94779098e-001,
          6.90763056e-001, 7.86786616e-001, 7.72277236e-001,
          7.72277236e-001, 7.72277236e-001, 7.77227700e-001,
          7.57085025e-001, 7.57085025e-001, 7.63265312e-001,
          7.63265312e-001, 8.13743711e-001, 7.06161141e-001,
          7.10900486e-001, 7.25118458e-001, 7.26415098e-001,
          8.31168830e-001, 8.31896544e-001, 8.27586234e-001,
          8.27586234e-001, 6.30226076e-001, 6.16822422e-001,
          6.21495306e-001, 6.21495306e-001, 6.26168251e-001,
          6.35964930e-001, 6.38766527e-001, 6.38766527e-001,
          6.38766527e-001, 6.51376247e-001, 4.18719202e-001,
          4.31372553e-001, 4.41176474e-001, 4.50980395e-001,
          6.54545426e-001, 6.56108618e-001, 6.56108618e-001,
          6.56108618e-001, 6.91838861e-001, 6.80000007e-001,
          6.80000007e-001, 6.80000007e-001, 6.80000007e-001,
          6.17886186e-001, 6.21399164e-001, 6.17283940e-001,
          6.17283940e-001, 7.22356737e-001, 6.78217828e-001,
          6.83168292e-001, 6.83168292e-001, 6.83168292e-001,
          6.33064508e-001, 6.31578922e-001, 6.31578922e-001,
          6.33064508e-001, 7.61788428e-001, 7.01492548e-001,
          7.01492548e-001, 7.06467688e-001, 7.06467688e-001,
          7.24696338e-001, 7.27642298e-001, 7.23577261e-001,
          7.23577261e-001, 7.79371023e-001, 7.67326713e-001,
          7.68472910e-001, 7.68472910e-001, 7.68472910e-001,
          8.23275864e-001, 8.34061146e-001, 8.29694331e-001,
          8.37004423e-001, 8.03211212e-001, 7.66666651e-001,
          7.66666651e-001, 7.66666651e-001, 7.67772496e-001,
          8.47533643e-001, 8.48214269e-001, 8.52017939e-001,
          8.52017939e-001, 6.20224655e-001, 6.11111104e-001,
          6.11111104e-001, 6.11111104e-001, 6.11111104e-001,
          6.38766527e-001, 6.35964930e-001, 6.34361207e-001,
          6.34361207e-001, 6.25909567e-001, 5.65853655e-001,
          5.67961156e-001, 5.72815537e-001, 5.77669919e-001,
          5.86345375e-001, 5.86345375e-001, 5.86345375e-001,
          5.86345375e-001, 6.68458164e-001, 6.60098493e-001,
          6.60098493e-001, 6.60098493e-001, 6.65024638e-001,
          5.93625486e-001, 5.89641452e-001, 5.89641452e-001,
          5.89641452e-001, 7.03000128e-001, 7.07070708e-001,
          7.07070708e-001, 7.07070708e-001, 7.03517616e-001,
          7.18894005e-001, 7.17592597e-001, 7.17592597e-001,
          7.17592597e-001, 7.39121258e-001, 7.25000024e-001,
          7.21393049e-001, 7.26368189e-001, 7.26368189e-001,
          6.53386474e-001, 6.53386474e-001, 6.53386474e-001,
          6.53386474e-001, 7.62063086e-001, 7.62135923e-001,
          7.62135923e-001, 7.62135923e-001, 7.62135923e-001,
          6.69322729e-001, 6.69322729e-001, 6.70634925e-001,
          6.70634925e-001, 7.74689257e-001, 7.33333349e-001,
          7.33333349e-001, 7.38095224e-001, 7.38095224e-001,
          8.09954762e-001, 8.09954762e-001, 8.09954762e-001,
          8.10810804e-001, 6.25351906e-001, 6.19718313e-001,
          6.19718313e-001, 6.19718313e-001, 6.21495306e-001,
          6.30434811e-001, 6.28820956e-001, 6.28820956e-001,
          6.28820956e-001, 6.32258773e-001, 6.22009575e-001,
          6.22009575e-001, 6.26794279e-001, 6.26794279e-001,
          5.78313231e-001, 5.82329333e-001, 5.82329333e-001,
          5.82329333e-001, 6.77116990e-001, 6.81818187e-001,
          6.78391933e-001, 6.78391933e-001, 6.75000012e-001,
          6.07999980e-001, 6.07999980e-001, 6.05577707e-001,
          6.05577707e-001, 7.07975388e-001, 5.50724626e-001,
          5.60386479e-001, 5.62500000e-001, 5.62500000e-001,
          7.22727299e-001, 7.22727299e-001, 7.26027369e-001,
          7.21461177e-001, 7.43046939e-001, 7.46268630e-001,
          7.51243770e-001, 7.47524738e-001, 7.52475262e-001,
          6.49402380e-001, 6.50793672e-001, 6.50793672e-001,
          6.50793672e-001, 7.59188235e-001, 7.79487193e-001,
          7.75510192e-001, 7.75510192e-001, 7.80612230e-001,
          7.13147402e-001, 7.09163368e-001, 7.09163368e-001,
          7.09163368e-001, 7.50965953e-001, 7.35576928e-001,
          7.35576928e-001, 7.40384638e-001, 7.40384638e-001,
          7.66816139e-001, 7.66816139e-001, 7.67857134e-001,
          7.67857134e-001 ]
      - [ 1., 1., 1., 9.48056519e-001, 9.52961326e-001, 9.56487477e-001,
          8.69196236e-001, 8.80903006e-001, 8.87109935e-001, 1., 1., 1.,
          9.11761642e-001, 9.43595886e-001, 9.63422477e-001,
          8.84127855e-001, 8.92580271e-001, 8.97725344e-001, 1.,
          9.99999940e-001, 1., 9.78798330e-001, 9.81814682e-001,
          9.84954715e-001, 9.28988814e-001, 9.34883595e-001,
          9.40341711e-001, 6.59070909e-001, 1., 9.54314709e-001,
          9.59390879e-001, 9.64466989e-001, 9.79695439e-001, 1., 1., 1.,
          1., 1., 1., 1., 1., 1., 1., 1., 1., 1., 9.97627318e-001, 1.,
          9.95000005e-001, 9.95000005e-001, 9.95000005e-001,
          9.36440706e-001, 9.36170220e-001, 9.31914866e-001,
          9.31914866e-001, 9.39148843e-001, 8.51485133e-001,
          8.52216721e-001, 8.57142866e-001, 8.62068951e-001,
          9.59276021e-001, 9.59459484e-001, 9.54954982e-001,
          9.54954982e-001, 9.13930655e-001, 8.99038434e-001,
          8.99038434e-001, 9.03846145e-001, 9.03846145e-001,
          9.23766792e-001, 9.28251147e-001, 9.28251147e-001,
          9.28571403e-001, 8.83837759e-001, 8.59813094e-001,
          8.59813094e-001, 8.64485979e-001, 8.64485979e-001,
          8.84120166e-001, 8.84615362e-001, 8.84615362e-001,
          8.84615362e-001, 8.76630545e-001, 8.51851881e-001,
          8.51851881e-001, 8.51851881e-001, 8.51851881e-001,
          8.84120166e-001, 8.88888896e-001, 8.88888896e-001,
          8.89361680e-001, 1., 1., 1., 1., 1., 1., 1., 1., 1., 1.,
          8.20512831e-001, 8.30769241e-001, 8.30769241e-001,
          8.35897446e-001, 1., 1., 1., 1., 1., 9.59798992e-001,
          9.59798992e-001, 9.59798992e-001, 9.59999979e-001,
          8.60000014e-001, 8.60000014e-001, 8.60557795e-001,
          8.60557795e-001, 9.45656180e-001, 9.15422857e-001,
          9.15422857e-001, 9.20397997e-001, 9.20397997e-001,
          8.95652175e-001, 9.44954157e-001, 9.58139539e-001,
          9.53488350e-001, 9.20898914e-001, 9.25000012e-001,
          9.25000012e-001, 9.25000012e-001, 9.30000007e-001,
          8.01619411e-001, 8.01619411e-001, 8.01619411e-001,
          8.02419364e-001, 8.82359266e-001, 8.79227042e-001,
          8.84057999e-001, 8.84057999e-001, 8.84057999e-001,
          8.00796807e-001, 7.96812773e-001, 7.96812773e-001,
          7.96812773e-001, 8.68315399e-001, 8.41121495e-001,
          8.45794380e-001, 8.41860473e-001, 8.41860473e-001,
          8.82096052e-001, 8.77729237e-001, 8.78260851e-001,
          8.78260851e-001, 1., 1., 1., 1., 1., 1., 1., 1., 1., 1.,
          9.49999988e-001, 9.49999988e-001, 9.49999988e-001,
          9.54999983e-001, 1., 1., 1., 1., 9.81072247e-001,
          9.41176474e-001, 9.41176474e-001, 9.41176474e-001,
          9.41176474e-001, 8.50202441e-001, 8.50202441e-001,
          8.50202441e-001, 8.53658557e-001, 9.24524069e-001,
          8.83495152e-001, 8.88349533e-001, 8.93203855e-001,
          8.93203855e-001, 8.07228923e-001, 8.07228923e-001,
          8.07228923e-001, 8.03212881e-001, 9.21338201e-001,
          8.24390233e-001, 8.29268277e-001, 8.29268277e-001,
          8.29268277e-001, 8.19999993e-001, 8.19277108e-001,
          8.19277108e-001, 8.19277108e-001, 8.82059872e-001,
          8.91089082e-001, 8.86699498e-001, 8.86699498e-001,
          8.91625643e-001, 8.18930030e-001, 8.29166651e-001,
          8.32635999e-001, 8.31932783e-001, 8.64434838e-001,
          8.39622617e-001, 8.40375602e-001, 8.45070422e-001,
          8.45070422e-001, 8.46153855e-001, 8.46808493e-001,
          8.50427330e-001, 8.50427330e-001, 1., 1., 1., 1., 1., 1., 1.,
          1., 1., 1., 9.84924614e-001, 9.94974852e-001, 1., 1.,
          9.20502067e-001, 9.31914866e-001, 9.43965495e-001,
          9.52173889e-001, 9.79638577e-001, 8.77451003e-001,
          8.87254894e-001, 8.97058845e-001, 9.01960790e-001,
          8.47389579e-001, 8.43373477e-001, 8.43373477e-001,
          8.43373477e-001, 9.24354851e-001, 8.84057999e-001,
          8.88888896e-001, 8.88888896e-001, 8.84615362e-001,
          8.32000017e-001, 8.28000009e-001, 8.28000009e-001,
          8.24000001e-001, 9.24385488e-001, 8.88349533e-001,
          8.88349533e-001, 8.88349533e-001, 8.93203855e-001,
          8.03212881e-001, 8.03212881e-001, 8.03212881e-001,
          8.03212881e-001, 8.95519316e-001, 8.91089082e-001,
          8.91089082e-001, 8.96039605e-001, 8.96039605e-001,
          7.89473712e-001, 7.93522239e-001, 8.00000012e-001,
          7.95918345e-001, 8.73426378e-001, 8.53080571e-001,
          8.53080571e-001, 8.62559259e-001, 8.58490586e-001,
          8.57142866e-001, 8.57758641e-001, 8.57758641e-001,
          8.57758641e-001, 1., 1., 1., 1., 1., 1., 1., 1., 1., 1., 1.,
          1., 1., 1., 1., 1., 1., 1., 1., 9.75000024e-001,
          9.80000019e-001, 9.80000019e-001, 9.80000019e-001,
          8.61788630e-001, 8.72428000e-001, 8.72428000e-001,
          8.72428000e-001, 9.67607975e-001, 9.15841579e-001,
          9.15841579e-001, 9.15841579e-001, 9.15841579e-001,
          8.30645144e-001, 8.29959512e-001, 8.29959512e-001,
          8.30645144e-001, 9.65521872e-001, 9.35323358e-001,
          9.40298498e-001, 9.40298498e-001, 9.40298498e-001,
          8.58299613e-001, 8.57723594e-001, 8.57723594e-001,
          8.57723594e-001, 9.18975830e-001, 9.20792103e-001,
          9.16256130e-001, 9.16256130e-001, 9.16256130e-001,
          8.79310369e-001, 8.90829682e-001, 8.90829682e-001,
          8.98678422e-001, 8.94280791e-001, 8.80952358e-001,
          8.80952358e-001, 8.80952358e-001, 8.76777232e-001,
          9.01345313e-001, 8.97321403e-001, 9.01345313e-001,
          8.96860957e-001, 1., 1., 1., 1., 1., 1., 1., 1., 1., 1., 1.,
          1., 1., 1., 8.95582318e-001, 8.95582318e-001, 8.95582318e-001,
          8.95582318e-001, 9.99999940e-001, 1., 1., 1., 1.,
          8.68525922e-001, 8.68525922e-001, 8.64541829e-001,
          8.64541829e-001, 9.73518789e-001, 9.64646459e-001,
          9.64646459e-001, 9.64646459e-001, 9.64824140e-001,
          9.72350240e-001, 9.72222209e-001, 9.72222209e-001,
          9.72222209e-001, 9.74064052e-001, 9.10000026e-001,
          9.05472636e-001, 9.10447776e-001, 9.15422857e-001,
          8.32669318e-001, 8.32669318e-001, 8.32669318e-001,
          8.32669318e-001, 9.44352865e-001, 9.22330081e-001,
          9.22330081e-001, 9.27184463e-001, 9.27184463e-001,
          8.28685284e-001, 8.28685284e-001, 8.29365075e-001,
          8.29365075e-001, 9.09357131e-001, 9.04761910e-001,
          9.09523785e-001, 9.09523785e-001, 9.09523785e-001,
          9.09502268e-001, 9.09502268e-001, 9.04977381e-001,
          9.05405402e-001, 1., 1., 1., 1., 1., 1., 1., 1., 1., 1., 1.,
          1., 1., 1., 8.87550175e-001, 8.91566277e-001, 8.91566277e-001,
          8.91566277e-001, 1., 9.89898980e-001, 9.84924614e-001,
          9.84924614e-001, 9.85000014e-001, 8.67999971e-001,
          8.67999971e-001, 8.68525922e-001, 8.68525922e-001,
          9.61487234e-001, 9.56521749e-001, 9.56521749e-001,
          9.51923072e-001, 9.51923072e-001, 9.68181789e-001,
          9.68181789e-001, 9.68036532e-001, 9.68036532e-001,
          9.68505144e-001, 9.75124359e-001, 9.75124359e-001,
          9.75247502e-001, 9.75247502e-001, 8.52589667e-001,
          8.49206328e-001, 8.49206328e-001, 8.49206328e-001,
          9.52339172e-001, 1., 1., 1., 1., 8.32669318e-001,
          8.32669318e-001, 8.32669318e-001, 8.32669318e-001,
          9.25907075e-001, 9.23076928e-001, 9.23076928e-001,
          9.27884638e-001, 9.27884638e-001, 9.32735443e-001,
          9.32735443e-001, 9.33035731e-001, 9.33035731e-001 ]
      - [ 6.20360732e-001, 6.17934406e-001, 6.18174493e-001,
          6.73046708e-001, 6.55230641e-001, 6.55490875e-001,
          7.03400135e-001, 6.80265367e-001, 6.82821512e-001,
          6.74517751e-001, 6.60411298e-001, 6.39377594e-001,
          7.34070361e-001, 7.20827639e-001, 7.02271163e-001,
          7.87314951e-001, 7.42909491e-001, 7.23700523e-001,
          6.59771502e-001, 6.46502256e-001, 6.30549133e-001,
          7.34587014e-001, 7.04849601e-001, 6.82334602e-001,
          7.57939458e-001, 7.21243620e-001, 7.07527995e-001,
          6.59070909e-001, 5.87332070e-001, 6.24365509e-001,
          6.24365509e-001, 6.29441619e-001, 6.29441619e-001,
          6.25000000e-001, 6.20689631e-001, 6.20689631e-001,
          6.22317612e-001, 6.07149839e-001, 5.93137264e-001,
          5.95121980e-001, 6.00000024e-001, 6.00000024e-001,
          6.00000024e-001, 6.02678597e-001, 6.04444444e-001,
          6.04444444e-001, 6.26051664e-001, 6.23115599e-001,
          6.25000000e-001, 6.25000000e-001, 6.25000000e-001,
          5.76271176e-001, 5.78723431e-001, 5.78723431e-001,
          5.78723431e-001, 6.20922863e-001, 6.23762369e-001,
          6.20689631e-001, 6.20689631e-001, 6.25615776e-001,
          6.19909525e-001, 6.21621609e-001, 6.17117107e-001,
          6.17117107e-001, 6.31214738e-001, 6.15384638e-001,
          6.15384638e-001, 6.15384638e-001, 6.20192289e-001,
          6.36771321e-001, 6.41255617e-001, 6.41255617e-001,
          6.38392866e-001, 6.46664619e-001, 6.35514021e-001,
          6.35514021e-001, 6.35514021e-001, 6.35514021e-001,
          6.48068666e-001, 6.45299137e-001, 6.45299137e-001,
          6.45299137e-001, 6.79670930e-001, 6.71296299e-001,
          6.71296299e-001, 6.75925910e-001, 6.75925910e-001,
          6.78111613e-001, 6.79487169e-001, 6.79487169e-001,
          6.80851042e-001, 6.01724923e-001, 6.12745106e-001,
          6.17647052e-001, 6.17647052e-001, 6.14634156e-001,
          6.63716793e-001, 6.63716793e-001, 6.60792947e-001,
          6.60792947e-001, 6.47632539e-001, 6.61538482e-001,
          6.61538482e-001, 6.66666687e-001, 6.66666687e-001,
          6.16071403e-001, 6.17777765e-001, 6.17777765e-001,
          6.17777765e-001, 6.68554127e-001, 6.63316607e-001,
          6.63316607e-001, 6.63316607e-001, 6.60000026e-001,
          5.64000010e-001, 5.64000010e-001, 5.65737069e-001,
          5.65737069e-001, 6.68162644e-001, 6.41791046e-001,
          6.46766186e-001, 6.46766186e-001, 6.51741266e-001,
          6.34782612e-001, 6.69724762e-001, 6.74418628e-001,
          6.74418628e-001, 6.81066930e-001, 6.70000017e-001,
          6.75000012e-001, 6.75000012e-001, 6.80000007e-001,
          6.07287467e-001, 6.03238881e-001, 6.03238881e-001,
          6.04838729e-001, 6.88148439e-001, 6.85990334e-001,
          6.85990334e-001, 6.85990334e-001, 6.85990334e-001,
          6.25497997e-001, 6.25497997e-001, 6.25497997e-001,
          6.25497997e-001, 7.09879160e-001, 7.00934589e-001,
          7.00934589e-001, 6.97674394e-001, 6.97674394e-001,
          7.20524013e-001, 7.16157198e-001, 7.17391312e-001,
          7.13043451e-001, 6.22413635e-001, 6.25615776e-001,
          6.22548997e-001, 6.22548997e-001, 6.22548997e-001,
          6.45739913e-001, 6.47321403e-001, 6.48888886e-001,
          6.48888886e-001, 6.76336169e-001, 6.65000021e-001,
          6.65000021e-001, 6.65000021e-001, 6.65000021e-001,
          6.20253146e-001, 6.20253146e-001, 6.16033733e-001,
          6.18644059e-001, 6.94873452e-001, 6.56862736e-001,
          6.61764681e-001, 6.61764681e-001, 6.61764681e-001,
          6.03238881e-001, 5.99190295e-001, 5.99190295e-001,
          6.01626039e-001, 6.93481743e-001, 6.65048540e-001,
          6.65048540e-001, 6.65048540e-001, 6.65048540e-001,
          6.02409661e-001, 6.02409661e-001, 6.02409661e-001,
          6.02409661e-001, 7.23318517e-001, 6.87804878e-001,
          6.87804878e-001, 6.87804878e-001, 6.87804878e-001,
          6.32000029e-001, 6.30522072e-001, 6.30522072e-001,
          6.30522072e-001, 7.31705308e-001, 7.32673287e-001,
          7.29064047e-001, 7.29064047e-001, 7.29064047e-001,
          6.74897134e-001, 6.79166675e-001, 6.82008386e-001,
          6.84873939e-001, 7.28038013e-001, 7.26415098e-001,
          7.23004699e-001, 7.23004699e-001, 7.23004699e-001,
          7.09401727e-001, 7.06382990e-001, 7.09401727e-001,
          7.09401727e-001, 6.30163312e-001, 6.54822350e-001,
          6.51515126e-001, 6.53266311e-001, 6.49999976e-001,
          6.41255617e-001, 6.41255617e-001, 6.42857134e-001,
          6.41255617e-001, 6.78661942e-001, 6.83417082e-001,
          6.83417082e-001, 6.83417082e-001, 6.83417082e-001,
          6.19246840e-001, 6.29787207e-001, 6.37931049e-001,
          6.43478274e-001, 7.10622966e-001, 6.91176474e-001,
          6.91176474e-001, 6.91176474e-001, 6.91176474e-001,
          6.10441744e-001, 6.10441744e-001, 6.10441744e-001,
          6.10441744e-001, 7.12857842e-001, 6.90821230e-001,
          6.90821230e-001, 6.90821230e-001, 6.87500000e-001,
          6.15999997e-001, 6.15999997e-001, 6.15999997e-001,
          6.15999997e-001, 7.47313261e-001, 7.13592231e-001,
          7.13592231e-001, 7.13592231e-001, 7.18446612e-001,
          6.34538174e-001, 6.34538174e-001, 6.34538174e-001,
          6.34538174e-001, 7.55037963e-001, 7.52475262e-001,
          7.52475262e-001, 7.57425725e-001, 7.57425725e-001,
          6.63967609e-001, 6.68016195e-001, 6.73469365e-001,
          6.69387758e-001, 7.38812089e-001, 7.25118458e-001,
          7.25118458e-001, 7.25118458e-001, 7.21698105e-001,
          7.22943723e-001, 7.24137902e-001, 7.24137902e-001,
          7.24137902e-001, 6.17574275e-001, 5.98130822e-001,
          5.98130822e-001, 5.98130822e-001, 5.98130822e-001,
          6.40350878e-001, 6.38766527e-001, 6.38766527e-001,
          6.34361207e-001, 6.49347246e-001, 6.55172408e-001,
          6.51960790e-001, 6.51960790e-001, 6.51960790e-001,
          6.49999976e-001, 6.51583731e-001, 6.47058845e-001,
          6.47058845e-001, 6.93101048e-001, 6.80000007e-001,
          6.80000007e-001, 6.80000007e-001, 6.80000007e-001,
          6.09756112e-001, 6.17283940e-001, 6.13168716e-001,
          6.13168716e-001, 7.13293135e-001, 6.88118815e-001,
          6.88118815e-001, 6.88118815e-001, 6.88118815e-001,
          6.16935492e-001, 6.19433224e-001, 6.19433224e-001,
          6.16935492e-001, 7.45351493e-001, 6.86567187e-001,
          6.86567187e-001, 6.96517408e-001, 6.96517408e-001,
          6.39676094e-001, 6.42276406e-001, 6.42276406e-001,
          6.42276406e-001, 7.39009142e-001, 7.32673287e-001,
          7.33990133e-001, 7.33990133e-001, 7.33990133e-001,
          7.02586234e-001, 7.11790383e-001, 7.11790383e-001,
          7.18061686e-001, 7.23110497e-001, 5.00000000e-001,
          5.00000000e-001, 5.04761934e-001, 5.21327019e-001,
          7.35426009e-001, 7.32142866e-001, 7.35426009e-001,
          7.35426009e-001, 6.20220244e-001, 5.92592597e-001,
          5.92592597e-001, 5.92592597e-001, 5.92592597e-001,
          6.25550687e-001, 6.22807026e-001, 6.25550687e-001,
          6.25550687e-001, 6.44890070e-001, 6.48780465e-001,
          6.45631075e-001, 6.50485456e-001, 6.50485456e-001,
          5.78313231e-001, 5.78313231e-001, 5.78313231e-001,
          5.78313231e-001, 6.72649503e-001, 6.60098493e-001,
          6.65024638e-001, 6.65024638e-001, 6.65024638e-001,
          5.81673324e-001, 5.81673324e-001, 5.81673324e-001,
          5.81673324e-001, 6.88533366e-001, 6.56565666e-001,
          6.61616147e-001, 6.66666687e-001, 6.73366845e-001,
          6.86635971e-001, 6.89814806e-001, 6.89814806e-001,
          6.89814806e-001, 7.22524345e-001, 7.14999974e-001,
          7.11442769e-001, 7.11442769e-001, 7.11442769e-001,
          6.21513963e-001, 6.17529869e-001, 6.17529869e-001,
          6.17529869e-001, 7.24153161e-001, 7.18446612e-001,
          7.23300993e-001, 7.23300993e-001, 7.23300993e-001,
          6.33466125e-001, 6.33466125e-001, 6.34920657e-001,
          6.34920657e-001, 7.17731655e-001, 3.47619057e-001,
          3.76190484e-001, 3.80952388e-001, 3.90476197e-001,
          7.23981917e-001, 7.19457030e-001, 7.19457030e-001,
          7.20720708e-001, 6.37825131e-001, 6.33802831e-001,
          6.33802831e-001, 6.38497651e-001, 6.35514021e-001,
          6.43478274e-001, 6.46288216e-001, 6.46288216e-001,
          6.46288216e-001, 6.60929680e-001, 6.55502379e-001,
          6.55502379e-001, 6.55502379e-001, 6.55502379e-001,
          5.94377518e-001, 5.94377518e-001, 5.94377518e-001,
          5.94377518e-001, 6.85243785e-001, 7.12121189e-001,
          7.08542705e-001, 7.08542705e-001, 7.04999983e-001,
          5.96000016e-001, 5.96000016e-001, 5.97609580e-001,
          5.97609580e-001, 6.93887234e-001, 6.90821230e-001,
          6.90821230e-001, 6.87500000e-001, 6.87500000e-001,
          7.04545438e-001, 7.04545438e-001, 7.07762539e-001,
          7.07762539e-001, 7.20829666e-001, 7.16417909e-001,
          7.16417909e-001, 7.17821777e-001, 7.17821777e-001,
          6.33466125e-001, 6.34920657e-001, 6.30952358e-001,
          6.26984119e-001, 7.20229030e-001, 7.48717964e-001,
          7.44897962e-001, 7.44897962e-001, 7.50000000e-001,
          6.29482090e-001, 6.29482090e-001, 6.29482090e-001,
          6.29482090e-001, 7.14227200e-001, 6.97115362e-001,
          6.97115362e-001, 7.01923072e-001, 7.01923072e-001,
          7.30941713e-001, 7.30941713e-001, 7.27678597e-001,
          7.27678597e-001 ]
      - [ 7.40716279e-001, 7.14639366e-001, 7.06640959e-001,
          7.75033832e-001, 7.36524940e-001, 7.21062481e-001,
          7.07389951e-001, 6.73626125e-001, 6.62165105e-001,
          7.15822041e-001, 6.91387534e-001, 6.81746960e-001,
          7.21925676e-001, 7.11427748e-001, 7.08207130e-001,
          6.86627448e-001, 6.58262908e-001, 6.47077084e-001,
          6.55949414e-001, 6.38504028e-001, 6.39949083e-001,
          6.68775558e-001, 6.47629023e-001, 6.42181218e-001,
          6.53087318e-001, 6.30303085e-001, 6.27251327e-001,
          6.59070909e-001, 6.99058533e-001, 7.46192873e-001,
          7.46192873e-001, 7.51269042e-001, 7.51269042e-001,
          7.02586234e-001, 7.02586234e-001, 7.02586234e-001,
          7.03862667e-001, 7.39688933e-001, 7.15686262e-001,
          7.17073143e-001, 7.17073143e-001, 7.21951246e-001,
          7.42222250e-001, 7.45535731e-001, 7.42222250e-001,
          7.42222250e-001, 7.53424048e-001, 7.43718565e-001,
          7.40000010e-001, 7.40000010e-001, 7.40000010e-001,
          7.07627118e-001, 7.10638285e-001, 7.10638285e-001,
          7.10638285e-001, 7.40368426e-001, 7.27722764e-001,
          7.24137902e-001, 7.29064047e-001, 7.29064047e-001,
          7.51131237e-001, 7.47747719e-001, 7.47747719e-001,
          7.47747719e-001, 7.20554531e-001, 7.01923072e-001,
          7.01923072e-001, 7.01923072e-001, 7.06730783e-001,
          7.39910305e-001, 7.44394600e-001, 7.44394600e-001,
          7.45535731e-001, 6.94743693e-001, 6.68224275e-001,
          6.72897220e-001, 6.72897220e-001, 6.72897220e-001,
          6.99570835e-001, 7.00854719e-001, 7.00854719e-001,
          7.00854719e-001, 6.71068907e-001, 6.38888896e-001,
          6.38888896e-001, 6.38888896e-001, 6.43518507e-001,
          6.82403445e-001, 6.88034177e-001, 6.88034177e-001,
          6.89361691e-001, 6.90846503e-001, 6.96078420e-001,
          7.00980365e-001, 7.00980365e-001, 7.02439010e-001,
          7.12389410e-001, 7.12389410e-001, 7.09251106e-001,
          7.09251106e-001, 7.24216223e-001, 7.33333349e-001,
          7.33333349e-001, 7.38461554e-001, 7.38461554e-001,
          7.09821403e-001, 7.11111128e-001, 7.11111128e-001,
          7.11111128e-001, 7.37330616e-001, 7.18592942e-001,
          7.18592942e-001, 7.18592942e-001, 7.20000029e-001,
          6.35999978e-001, 6.35999978e-001, 6.33466125e-001,
          6.33466125e-001, 7.32460380e-001, 7.01492548e-001,
          7.06467688e-001, 7.06467688e-001, 7.06467688e-001,
          6.99999988e-001, 7.38532126e-001, 7.44186044e-001,
          7.44186044e-001, 7.14371145e-001, 7.14999974e-001,
          7.14999974e-001, 7.14999974e-001, 7.14999974e-001,
          6.27530336e-001, 6.23481810e-001, 6.23481810e-001,
          6.25000000e-001, 6.74265921e-001, 6.61835730e-001,
          6.66666687e-001, 6.66666687e-001, 6.66666687e-001,
          6.17529869e-001, 6.17529869e-001, 6.17529869e-001,
          6.17529869e-001, 6.46421432e-001, 6.30841136e-001,
          6.30841136e-001, 6.27906978e-001, 6.27906978e-001,
          6.59388661e-001, 6.59388661e-001, 6.60869539e-001,
          6.60869539e-001, 6.78820610e-001, 6.94581270e-001,
          6.91176474e-001, 6.91176474e-001, 6.96078420e-001,
          6.99551582e-001, 7.00892866e-001, 6.97777748e-001,
          6.97777748e-001, 7.20094681e-001, 7.09999979e-001,
          7.09999979e-001, 7.09999979e-001, 7.09999979e-001,
          6.58227861e-001, 6.54008448e-001, 6.54008448e-001,
          6.56779647e-001, 7.26951599e-001, 6.96078420e-001,
          6.96078420e-001, 6.96078420e-001, 7.00980365e-001,
          6.39676094e-001, 6.39676094e-001, 6.35627508e-001,
          6.34146333e-001, 7.18872249e-001, 6.89320385e-001,
          6.89320385e-001, 6.94174767e-001, 6.94174767e-001,
          6.26506031e-001, 6.26506031e-001, 6.26506031e-001,
          6.26506031e-001, 7.11750269e-001, 6.73170745e-001,
          6.73170745e-001, 6.73170745e-001, 6.73170745e-001,
          6.20000005e-001, 6.22489989e-001, 6.22489989e-001,
          6.22489989e-001, 6.69194937e-001, 6.68316841e-001,
          6.65024638e-001, 6.65024638e-001, 6.65024638e-001,
          6.21399164e-001, 6.29166663e-001, 6.31799161e-001,
          6.34453773e-001, 6.36858284e-001, 6.17924511e-001,
          6.19718313e-001, 6.19718313e-001, 6.19718313e-001,
          6.23931646e-001, 6.21276617e-001, 6.23931646e-001,
          6.23931646e-001, 6.69595420e-001, 6.95431471e-001,
          6.96969688e-001, 6.93467319e-001, 6.89999998e-001,
          6.72645748e-001, 6.72645748e-001, 6.74107134e-001,
          6.77130044e-001, 7.06836522e-001, 7.08542705e-001,
          7.13567853e-001, 7.13567853e-001, 7.13567853e-001,
          6.48535550e-001, 6.59574449e-001, 6.68103456e-001,
          6.73913062e-001, 7.20516622e-001, 6.91176474e-001,
          6.96078420e-001, 6.96078420e-001, 6.96078420e-001,
          6.18473887e-001, 6.18473887e-001, 6.18473887e-001,
          6.18473887e-001, 7.08317935e-001, 6.81159437e-001,
          6.81159437e-001, 6.81159437e-001, 6.77884638e-001,
          6.11999989e-001, 6.11999989e-001, 6.11999989e-001,
          6.11999989e-001, 6.99025214e-001, 6.65048540e-001,
          6.65048540e-001, 6.65048540e-001, 6.65048540e-001,
          6.06425703e-001, 6.06425703e-001, 6.06425703e-001,
          6.02409661e-001, 6.69366121e-001, 6.58415854e-001,
          6.58415854e-001, 6.58415854e-001, 6.58415854e-001,
          5.95141709e-001, 5.99190295e-001, 6.04081631e-001,
          6.04081631e-001, 6.37654781e-001, 6.11374378e-001,
          6.11374378e-001, 6.16113722e-001, 6.13207519e-001,
          6.23376608e-001, 6.25000000e-001, 6.25000000e-001,
          6.25000000e-001, 6.56026959e-001, 6.35514021e-001,
          6.40186906e-001, 6.40186906e-001, 6.40186906e-001,
          6.79824591e-001, 6.82819366e-001, 6.82819366e-001,
          6.74008787e-001, 6.87787592e-001, 6.74876869e-001,
          6.71568632e-001, 6.76470578e-001, 6.76470578e-001,
          6.95454538e-001, 6.92307711e-001, 6.92307711e-001,
          6.92307711e-001, 7.06202507e-001, 6.89999998e-001,
          6.89999998e-001, 6.89999998e-001, 6.89999998e-001,
          6.21951222e-001, 6.29629612e-001, 6.29629612e-001,
          6.29629612e-001, 7.08968341e-001, 6.68316841e-001,
          6.73267305e-001, 6.78217828e-001, 6.78217828e-001,
          6.08870983e-001, 6.11336052e-001, 6.11336052e-001,
          6.12903237e-001, 6.97903216e-001, 6.71641767e-001,
          6.71641767e-001, 6.76616907e-001, 6.76616907e-001,
          6.07287467e-001, 6.05691075e-001, 6.05691075e-001,
          6.05691075e-001, 6.60702944e-001, 6.48514867e-001,
          6.45320177e-001, 6.45320177e-001, 6.45320177e-001,
          6.46551728e-001, 6.50655031e-001, 6.50655031e-001,
          6.51982367e-001, 6.31940067e-001, 6.04761899e-001,
          6.09523833e-001, 6.09523833e-001, 6.06635094e-001,
          6.45739913e-001, 6.47321403e-001, 6.45739913e-001,
          6.45739913e-001, 6.38836265e-001, 6.11111104e-001,
          6.11111104e-001, 6.11111104e-001, 6.11111104e-001,
          6.56387687e-001, 6.57894731e-001, 6.60792947e-001,
          6.60792947e-001, 6.55830026e-001, 6.43902421e-001,
          6.40776694e-001, 6.45631075e-001, 6.45631075e-001,
          6.02409661e-001, 6.02409661e-001, 6.02409661e-001,
          6.02409661e-001, 6.58711374e-001, 6.30541861e-001,
          6.30541861e-001, 6.30541861e-001, 6.35468006e-001,
          5.89641452e-001, 5.85657358e-001, 5.85657358e-001,
          5.85657358e-001, 6.50227368e-001, 6.36363626e-001,
          6.36363626e-001, 6.36363626e-001, 6.33165836e-001,
          6.77419364e-001, 6.80555582e-001, 6.80555582e-001,
          6.75925910e-001, 6.60470426e-001, 6.39999986e-001,
          6.36815906e-001, 6.36815906e-001, 6.41791046e-001,
          5.81673324e-001, 5.81673324e-001, 5.77689230e-001,
          5.77689230e-001, 6.44612730e-001, 6.26213610e-001,
          6.26213610e-001, 6.31067932e-001, 6.31067932e-001,
          5.77689230e-001, 5.77689230e-001, 5.79365075e-001,
          5.79365075e-001, 6.24166012e-001, 6.00000024e-001,
          6.00000024e-001, 6.04761899e-001, 6.04761899e-001,
          6.28959298e-001, 6.28959298e-001, 6.28959298e-001,
          6.30630612e-001, 6.16648793e-001, 6.00938976e-001,
          6.00938976e-001, 6.00938976e-001, 5.98130822e-001,
          6.26086950e-001, 6.28820956e-001, 6.28820956e-001,
          6.28820956e-001, 6.31385624e-001, 5.98086119e-001,
          6.02870822e-001, 6.02870822e-001, 6.02870822e-001,
          5.78313231e-001, 5.82329333e-001, 5.78313231e-001,
          5.78313231e-001, 6.29390478e-001, 6.21212125e-001,
          6.23115599e-001, 6.23115599e-001, 6.20000005e-001,
          5.64000010e-001, 5.60000002e-001, 5.61752975e-001,
          5.61752975e-001, 6.10879600e-001, 5.84541082e-001,
          5.84541082e-001, 5.91346145e-001, 5.91346145e-001,
          6.31818175e-001, 6.31818175e-001, 6.34703219e-001,
          6.34703219e-001, 6.29484594e-001, 6.01990044e-001,
          6.06965184e-001, 6.03960395e-001, 6.03960395e-001,
          5.57768941e-001, 5.59523821e-001, 5.59523821e-001,
          5.59523821e-001, 6.29344344e-001, 6.41025662e-001,
          6.37755096e-001, 6.37755096e-001, 6.37755096e-001,
          5.57768941e-001, 5.57768941e-001, 5.57768941e-001,
          5.57768941e-001, 6.10867202e-001, 5.91346145e-001,
          5.91346145e-001, 5.91346145e-001, 5.91346145e-001,
          6.18834078e-001, 6.18834078e-001, 6.16071403e-001,
          6.16071403e-001 ]
      - [ 9.47932422e-001, 9.52952743e-001, 9.53518629e-001, 1., 1., 1.,
          1., 1., 1., 9.31481242e-001, 9.37670529e-001, 9.38721538e-001,
          9.33830917e-001, 9.64449823e-001, 9.83159125e-001, 1., 1., 1.,
          9.45544481e-001, 9.50933099e-001, 9.52074409e-001, 1., 1., 1.,
          1., 1., 1., 6.59070909e-001, 9.30640042e-001, 1., 1., 1., 1.,
          9.39655185e-001, 9.35344815e-001, 9.35344815e-001,
          9.35622334e-001, 9.69962001e-001, 9.65686262e-001,
          9.60975587e-001, 9.60975587e-001, 9.65853631e-001,
          9.68888879e-001, 9.73214269e-001, 9.73333359e-001,
          9.73333359e-001, 1., 9.94974852e-001, 1., 1., 1.,
          9.27966118e-001, 9.31914866e-001, 9.31914866e-001,
          9.31914866e-001, 1., 1., 1., 1., 1., 1., 1., 1., 1., 1., 1.,
          1., 1., 1., 1., 1., 1., 1., 1., 1., 1., 1., 1.,
          9.78540778e-001, 9.78632450e-001, 9.78632450e-001,
          9.78632450e-001, 1., 1., 1., 1., 1., 1., 1., 1., 1.,
          9.24494445e-001, 9.36274529e-001, 9.36274529e-001,
          9.41176474e-001, 9.36585367e-001, 9.33628321e-001,
          9.33628321e-001, 9.33920681e-001, 9.33920681e-001,
          9.73242402e-001, 8.46153855e-001, 8.46153855e-001,
          8.56410265e-001, 8.66666675e-001, 9.37500000e-001,
          9.37777758e-001, 9.33333337e-001, 9.33333337e-001,
          9.86535609e-001, 9.64824140e-001, 9.64824140e-001,
          9.64824140e-001, 9.64999974e-001, 8.39999974e-001,
          8.39999974e-001, 8.40637445e-001, 8.40637445e-001, 1.,
          9.75124359e-001, 9.75124359e-001, 9.75124359e-001,
          9.75124359e-001, 9.34782624e-001, 9.86238539e-001, 1., 1., 1.,
          9.95000005e-001, 1., 1., 1., 8.74493957e-001, 8.74493957e-001,
          8.74493957e-001, 8.75000000e-001, 1., 1., 1., 1., 1.,
          8.96414340e-001, 8.96414340e-001, 8.96414340e-001,
          8.96414340e-001, 1., 1., 1., 1., 1., 1., 1., 9.95652199e-001,
          9.95652199e-001, 9.18202400e-001, 9.50738907e-001,
          9.46078420e-001, 9.46078420e-001, 9.46078420e-001,
          9.23766792e-001, 9.24107134e-001, 9.24444437e-001,
          9.20000017e-001, 9.68608141e-001, 9.54999983e-001,
          9.59999979e-001, 9.59999979e-001, 9.59999979e-001,
          8.77637148e-001, 8.77637148e-001, 8.77637148e-001,
          8.81355941e-001, 9.59731936e-001, 9.31372523e-001,
          9.31372523e-001, 9.31372523e-001, 9.31372523e-001,
          8.38056684e-001, 8.38056684e-001, 8.38056684e-001,
          8.37398350e-001, 9.64737296e-001, 7.23300993e-001,
          7.23300993e-001, 7.23300993e-001, 7.42718458e-001,
          8.35341394e-001, 8.31325293e-001, 8.31325293e-001,
          8.31325293e-001, 9.87661064e-001, 9.36585367e-001,
          9.41463411e-001, 9.41463411e-001, 9.41463411e-001,
          8.56000006e-001, 8.59437764e-001, 8.59437764e-001,
          8.59437764e-001, 1., 1., 1., 1., 1., 9.13580239e-001,
          9.20833349e-001, 9.24686193e-001, 9.28571403e-001, 1., 1., 1.,
          1., 1., 9.70085442e-001, 9.65957463e-001, 9.70085442e-001,
          9.70085442e-001, 9.12125885e-001, 9.74619269e-001,
          9.69696999e-001, 9.64824140e-001, 9.59999979e-001,
          9.19282496e-001, 9.19282496e-001, 9.15178597e-001,
          9.19282496e-001, 9.50096011e-001, 9.59798992e-001,
          9.59798992e-001, 9.59798992e-001, 9.59798992e-001,
          8.66108775e-001, 8.76595736e-001, 8.87931049e-001,
          8.95652175e-001, 9.54824746e-001, 9.21568632e-001,
          9.26470578e-001, 9.26470578e-001, 9.26470578e-001,
          8.11244965e-001, 8.11244965e-001, 8.11244965e-001,
          8.11244965e-001, 9.52992678e-001, 9.03381646e-001,
          9.13043499e-001, 9.13043499e-001, 9.08653855e-001,
          8.43999982e-001, 8.39999974e-001, 8.39999974e-001,
          8.36000025e-001, 9.72068727e-001, 9.36893225e-001,
          9.36893225e-001, 9.36893225e-001, 9.41747546e-001,
          8.43373477e-001, 8.39357436e-001, 8.39357436e-001,
          8.39357436e-001, 9.99999940e-001, 9.50495064e-001,
          9.55445528e-001, 9.55445528e-001, 9.65346515e-001,
          8.82591069e-001, 8.86639655e-001, 8.93877566e-001,
          8.93877566e-001, 1., 1., 1., 1., 1., 9.61038947e-001,
          9.61206913e-001, 9.61206913e-001, 9.61206913e-001,
          9.17754352e-001, 9.06542063e-001, 9.11214948e-001,
          9.11214948e-001, 9.11214948e-001, 9.21052635e-001,
          9.25110161e-001, 9.25110161e-001, 9.25110161e-001,
          9.52522278e-001, 9.50738907e-001, 9.46078420e-001,
          9.46078420e-001, 9.46078420e-001, 9.45454538e-001,
          9.41176474e-001, 9.41176474e-001, 9.41176474e-001,
          9.75828409e-001, 9.64999974e-001, 9.64999974e-001,
          9.64999974e-001, 9.64999974e-001, 8.53658557e-001,
          8.64197552e-001, 8.64197552e-001, 8.64197552e-001,
          9.94184911e-001, 9.65346515e-001, 9.65346515e-001,
          9.70297039e-001, 9.70297039e-001, 8.38709652e-001,
          8.42105269e-001, 8.42105269e-001, 8.42741907e-001, 1.,
          9.65174139e-001, 9.70149279e-001, 9.70149279e-001,
          9.70149279e-001, 8.58299613e-001, 8.61788630e-001,
          8.61788630e-001, 8.61788630e-001, 1., 1., 1., 1., 1.,
          9.43965495e-001, 9.56331849e-001, 9.51965094e-001,
          9.60352421e-001, 1., 1., 1., 1., 1., 1., 1., 1., 1.,
          9.29679871e-001, 9.12037015e-001, 9.16666687e-001,
          9.16666687e-001, 9.16666687e-001, 9.29515421e-001,
          9.29824591e-001, 9.33920681e-001, 9.33920681e-001,
          9.58683908e-001, 8.78048778e-001, 8.83495152e-001,
          8.88349533e-001, 8.93203855e-001, 8.55421662e-001,
          8.55421662e-001, 8.55421662e-001, 8.55421662e-001,
          9.78675008e-001, 9.80295539e-001, 9.80295539e-001,
          9.80295539e-001, 9.80295539e-001, 8.52589667e-001,
          8.52589667e-001, 8.52589667e-001, 8.52589667e-001, 1., 1., 1.,
          1., 1., 1., 1., 1., 1., 1., 1., 1., 1., 1., 8.56573701e-001,
          8.56573701e-001, 8.56573701e-001, 8.56573701e-001, 1., 1., 1.,
          1., 1., 8.72509956e-001, 8.72509956e-001, 8.73015881e-001,
          8.69047642e-001, 1., 1., 1., 1., 1., 1., 1., 1., 1.,
          9.46721613e-001, 9.29577470e-001, 9.34272289e-001,
          9.34272289e-001, 9.29906547e-001, 9.47826087e-001,
          9.51965094e-001, 9.51965094e-001, 9.51965094e-001,
          9.67781067e-001, 9.66507196e-001, 9.66507196e-001,
          9.66507196e-001, 9.66507196e-001, 8.59437764e-001,
          8.63453805e-001, 8.63453805e-001, 8.63453805e-001,
          9.81288612e-001, 1., 1., 1., 1., 8.64000022e-001,
          8.60000014e-001, 8.60557795e-001, 8.60557795e-001, 1., 1., 1.,
          1., 1., 1., 1., 1., 1., 1., 1., 1., 1., 1., 8.68525922e-001,
          8.69047642e-001, 8.69047642e-001, 8.69047642e-001, 1.,
          9.94871795e-001, 9.89795923e-001, 9.94897962e-001,
          9.94897962e-001, 8.76494050e-001, 8.76494050e-001,
          8.76494050e-001, 8.76494050e-001, 1., 1., 1., 1., 1., 1., 1.,
          1., 1. ]
      - [ 8.71658742e-001, 8.61413181e-001, 8.52181613e-001,
          9.30621326e-001, 9.15885746e-001, 9.03712809e-001,
          8.53288114e-001, 8.46040010e-001, 8.44263911e-001,
          9.09856379e-001, 9.01071548e-001, 8.82236660e-001,
          9.48763967e-001, 9.67076421e-001, 9.62325692e-001,
          9.13042784e-001, 9.04302478e-001, 8.92209649e-001,
          8.53695810e-001, 8.47946584e-001, 8.40601742e-001,
          9.11821842e-001, 9.02238727e-001, 8.91369522e-001,
          8.65827799e-001, 8.60204816e-001, 8.59425604e-001,
          5.02671659e-001, 7.97732532e-001, 7.76649773e-001,
          7.81725883e-001, 7.86802053e-001, 7.96954334e-001,
          7.80172408e-001, 7.80172408e-001, 7.80172408e-001,
          7.76824057e-001, 8.55069399e-001, 8.62745106e-001,
          8.58536601e-001, 8.58536601e-001, 8.63414645e-001,
          8.26666653e-001, 8.30357134e-001, 8.31111133e-001,
          8.31111133e-001, 8.87790799e-001, 8.84422123e-001,
          8.84999990e-001, 8.84999990e-001, 8.84999990e-001,
          8.00847471e-001, 8.04255307e-001, 8.04255307e-001,
          8.04255307e-001, 8.76190007e-001, 8.76237631e-001,
          8.71921182e-001, 8.71921182e-001, 8.81773412e-001,
          8.55203629e-001, 8.55855882e-001, 8.55855882e-001,
          8.55855882e-001, 8.60368967e-001, 8.65384638e-001,
          8.65384638e-001, 8.65384638e-001, 8.65384638e-001,
          8.43049347e-001, 8.47533643e-001, 8.47533643e-001,
          8.48214269e-001, 8.32500935e-001, 8.31775725e-001,
          8.31775725e-001, 8.36448610e-001, 8.36448610e-001,
          8.06866944e-001, 8.07692289e-001, 8.07692289e-001,
          8.07692289e-001, 8.05651367e-001, 7.50000000e-001,
          7.54629612e-001, 7.54629612e-001, 7.59259284e-001,
          7.81115890e-001, 7.86324799e-001, 7.86324799e-001,
          7.87234068e-001, 8.37385178e-001, 8.62745106e-001,
          8.62745106e-001, 8.67647052e-001, 8.63414645e-001,
          8.31858397e-001, 8.31858397e-001, 8.32599103e-001,
          8.32599103e-001, 8.99831653e-001, 9.48717952e-001,
          9.48717952e-001, 9.48717952e-001, 9.48717952e-001,
          8.52678597e-001, 8.48888874e-001, 8.48888874e-001,
          8.48888874e-001, 9.35844183e-001, 9.44723606e-001,
          9.44723606e-001, 9.44723606e-001, 9.39999998e-001,
          7.76000023e-001, 7.76000023e-001, 7.76892424e-001,
          7.76892424e-001, 9.34691012e-001, 9.45273638e-001,
          9.45273638e-001, 9.45273638e-001, 9.45273638e-001,
          8.52173924e-001, 8.99082541e-001, 9.11627889e-001,
          9.11627889e-001, 9.14182305e-001, 9.44999993e-001,
          9.44999993e-001, 9.44999993e-001, 9.44999993e-001,
          7.73279369e-001, 7.73279369e-001, 7.73279369e-001,
          7.74193525e-001, 8.68549407e-001, 8.98550749e-001,
          8.98550749e-001, 8.98550749e-001, 8.98550749e-001,
          7.68924296e-001, 7.68924296e-001, 7.68924296e-001,
          7.68924296e-001, 8.36427927e-001, 8.41121495e-001,
          8.41121495e-001, 8.37209284e-001, 8.37209284e-001,
          8.25327516e-001, 8.25327516e-001, 8.26086938e-001,
          8.26086938e-001, 8.56831491e-001, 8.96551728e-001,
          8.92156839e-001, 8.92156839e-001, 8.92156839e-001,
          8.43049347e-001, 8.43750000e-001, 8.44444454e-001,
          8.44444454e-001, 9.29381609e-001, 9.49999988e-001,
          9.49999988e-001, 9.49999988e-001, 9.49999988e-001,
          8.22784781e-001, 8.22784781e-001, 8.22784781e-001,
          8.26271176e-001, 9.54989076e-001, 9.46078420e-001,
          9.46078420e-001, 9.46078420e-001, 9.46078420e-001,
          8.09716582e-001, 8.09716582e-001, 8.09716582e-001,
          8.13008130e-001, 9.57316339e-001, 9.51456308e-001,
          9.51456308e-001, 9.51456308e-001, 9.51456308e-001,
          8.07228923e-001, 8.07228923e-001, 8.03212881e-001,
          8.03212881e-001, 9.54636872e-001, 9.46341455e-001,
          9.46341455e-001, 9.46341455e-001, 9.46341455e-001,
          7.96000004e-001, 7.99196780e-001, 7.99196780e-001,
          7.99196780e-001, 9.06481206e-001, 9.40594077e-001,
          9.35960591e-001, 9.35960591e-001, 9.35960591e-001,
          8.10699582e-001, 8.20833325e-001, 8.20083678e-001,
          8.23529422e-001, 8.60904813e-001, 8.67924511e-001,
          8.63849759e-001, 8.63849759e-001, 8.68544579e-001,
          8.16239297e-001, 8.17021251e-001, 8.20512831e-001,
          8.20512831e-001, 8.57692361e-001, 9.34010148e-001,
          9.29292917e-001, 9.24623132e-001, 9.25000012e-001,
          8.43049347e-001, 8.38565052e-001, 8.39285731e-001,
          8.43049347e-001, 9.22394693e-001, 9.59798992e-001,
          9.59798992e-001, 9.59798992e-001, 9.59798992e-001,
          8.24267805e-001, 8.34042549e-001, 8.44827592e-001,
          8.52173924e-001, 9.64409709e-001, 9.60784316e-001,
          9.60784316e-001, 9.60784316e-001, 9.60784316e-001,
          8.03212881e-001, 8.03212881e-001, 8.03212881e-001,
          8.03212881e-001, 9.64464009e-001, 9.66183603e-001,
          9.66183603e-001, 9.66183603e-001, 9.61538434e-001,
          8.04000020e-001, 8.04000020e-001, 8.04000020e-001,
          8.04000020e-001, 9.60270286e-001, 9.51456308e-001,
          9.51456308e-001, 9.56310689e-001, 9.56310689e-001,
          7.99196780e-001, 7.99196780e-001, 7.99196780e-001,
          7.99196780e-001, 9.22973514e-001, 9.50495064e-001,
          9.50495064e-001, 9.55445528e-001, 9.55445528e-001,
          7.97570825e-001, 7.97570825e-001, 8.04081619e-001,
          8.04081619e-001, 8.75447989e-001, 8.86255920e-001,
          8.86255920e-001, 8.86255920e-001, 8.82075489e-001,
          8.31168830e-001, 8.31896544e-001, 8.31896544e-001,
          8.27586234e-001, 8.45078170e-001, 8.50467265e-001,
          8.50467265e-001, 8.50467265e-001, 8.50467265e-001,
          8.37719321e-001, 8.41409683e-001, 8.41409683e-001,
          8.41409683e-001, 9.02374923e-001, 9.31034505e-001,
          9.26470578e-001, 9.26470578e-001, 9.26470578e-001,
          8.81818175e-001, 8.82352948e-001, 8.82352948e-001,
          8.82352948e-001, 9.50336576e-001, 9.59999979e-001,
          9.59999979e-001, 9.59999979e-001, 9.59999979e-001,
          8.08943093e-001, 8.18930030e-001, 8.18930030e-001,
          8.18930030e-001, 9.64495838e-001, 9.60396051e-001,
          9.60396051e-001, 9.60396051e-001, 9.60396051e-001,
          8.02419364e-001, 8.05667996e-001, 8.05667996e-001,
          8.02419364e-001, 9.59612131e-001, 9.55223858e-001,
          9.55223858e-001, 9.55223858e-001, 9.55223858e-001,
          8.05667996e-001, 8.08943093e-001, 8.08943093e-001,
          8.08943093e-001, 9.06948984e-001, 9.35643554e-001,
          9.31034505e-001, 9.31034505e-001, 9.31034505e-001,
          8.40517223e-001, 8.51528406e-001, 8.51528406e-001,
          8.59030843e-001, 8.68419349e-001, 8.71428549e-001,
          8.71428549e-001, 8.71428549e-001, 8.67298603e-001,
          8.52017939e-001, 8.52678597e-001, 8.56502235e-001,
          8.56502235e-001, 8.26728046e-001, 8.14814806e-001,
          8.19444418e-001, 8.19444418e-001, 8.19444418e-001,
          8.23788524e-001, 8.24561417e-001, 8.23788524e-001,
          8.23788524e-001, 8.69815588e-001, 8.92682910e-001,
          8.88349533e-001, 8.88349533e-001, 8.88349533e-001,
